{"layers": [{"inputSize": 122, "outputSize": 16, "activation": "relu", "weights": [[-0.25761923448670243, 0.23386854079324443, -0.16296080912651825, -0.07167604658794025, -0.18272631068569373, -0.05590885033758612, -0.20563154741162704, 0.19711111563558675, 0.1385546811792497, -0.17772473728078264, 0.11043263873650197, -0.12446681529276579, 0.2710282478664699, 0.03340586555770022, -0.1371793768505284, 0.28426266578608905], [-0.02050667970936811, 0.31267265001078787, -0.03440877283107723, -0.07997711582579503, -0.067087461522174, 0.10133405716179936, 0.11401142413429319, 0.17290314695488362, -0.002080271295984256, -0.0942109059242599, 0.01800439690577345, 0.12270179944073416, -0.007293553056793401, -0.06430441184946432, -0.003267037124362488, 0.1283720600202899], [0.09307136527166562, -0.15916128580566571, 0.03369445945137289, -0.036689594563771834, -0.05301868292389737, 0.13272794934952978, 0.2318230758494497, -0.008202361628950328, -0.018199779704172823, -0.26452885979519364, 0.2711814708197228, 0.09791395920125567, 0.43602916037955547, 0.20125285232366172, 0.04833362656993279, 0.218447759461964], [-0.0016202347733993558, 0.09383846771093254, 0.06658197331444306, -0.2647942566631062, -0.12851556343819476, 0.3810691128162301, 0.29099439910394065, 0.05716900870973792, -0.09867935795538278, -0.10809116635909188, -0.054290953325398135, -0.09185847492312, 0.22971225702099896, 0.21339043502590618, -0.1315559468691784, 0.0743357323222996], [-0.016268825957219613, 0.11921095469400875, -0.03572090488401591, -0.03417379979643961, -0.08751131771328165, 0.06950469281875453, 0.21191145897876512, -0.08724265035991044, 0.05330220147215987, 0.16448488930259603, 0.021939693946244638, -0.05169434625090503, 0.3198866701319853, 0.39248047263436303, -0.06244032142731421, 0.08719573250142336], [-0.2352296531431951, -0.003407173419632052, 0.12376515867791596, -0.16885670917388795, -0.00527940250357722, -0.04986096696992153, 0.16505989600904547, -0.18858956806007576, -0.04474591643121192, -0.027669922644976454, 0.03460840431088788, -0.08696374122661901, 0.14864595844950498, 0.12424843793977118, 0.009341058444197857, 0.0528705626619258], [-0.06988783261854556, 0.006523077566729454, -0.2593886023675149, -0.14368920318694486, -0.1528194760460506, -0.03505419397702064, 0.3440379203517678, -0.09818641207788519, -0.058021640232159666, -0.045724619450084984, -0.06855276168851084, -0.04424005153157428, 0.3639472827202605, 0.30409320960571146, -0.17497922265925403, -0.052413029876165966], [0.2503987001617354, 0.05453350059250558, -0.14635529745678502, -0.320534082039388, 0.007093407730061856, -0.20317113880403787, 0.11586065812814615, 0.0932714576516747, 0.06754347353408105, -0.09141862891203374, -0.059562057490902466, -0.10619576329085202, 0.13827316073382656, -0.018517231182493855, -0.01945861994507627, 0.19760792586068207], [0.055410964622461194, 0.21771186645960014, 0.02582151419371366, -0.05610043482924401, 0.09536633426274925, 0.24438334314903432, 0.14130793400390101, 0.15396220916250974, 0.11294045795615258, -0.25724073499774397, 0.04220473245507338, -0.3187598446446054, 0.054390527268669706, 0.16038166203265175, 0.19481593672319977, 0.29863728495615666], [0.013887099988626021, 0.2537303854444198, 0.09297262671029824, -0.3230991134164018, 0.2250339618984594, -0.20247946658406718, -0.044975630683695846, 0.09583524927208929, 0.08238229515936857, 0.1033057266571398, 0.17390659385188192, -0.10046352011864883, 0.05437600385190916, 0.20209186263154452, -0.10960174465723173, -0.288621589210063], [-0.014031343023325139, -0.007597200476124247, -0.051868728021922, -0.1408195976648004, -0.03301767740186783, -0.0005539452101063391, 0.05164830863549251, -0.027481026552722818, -0.0719849833588476, -0.10330485914882832, -0.0636666622208047, 0.2079730854381706, 0.003250174128739236, -0.1519054116130284, 0.20842232328601812, -0.052260093928845924], [-0.00016829394649193048, -0.102525359655921, 0.0006999683706419781, 0.12462186023107993, -0.14451355707615748, 0.09204096946514845, 0.09037043547734701, 0.1030519357887998, -0.11138064570496745, -0.04703439976562548, 0.2481497177087324, 0.014385984589875753, 0.23629833331890054, 0.1841147681281877, -0.07908217450863518, -0.06096760159003483], [0.03426910388289264, 0.06245917886074019, -0.06916543447696663, 0.1165166726312252, -0.06280528999982614, 0.10295424050726638, 0.29304662302319917, 0.026116899922826595, 0.2050357036181069, -0.02558718613131186, -0.02821876813976441, 0.2676433155986779, 0.7383311409139419, 0.4988936991807984, -0.14461458666292124, -0.14595277760064887], [0.07922966414208887, -0.0333986002153217, -0.012498281007075287, -0.03660924755841489, 0.028551532022492124, 0.19115604391479346, 0.5009624356784479, 0.14608772072724863, 0.32154167038445003, -0.14697455653086713, 0.0572644978637093, -0.21877063035077385, 0.32307150372777577, 0.4812877627234029, -0.1273231123855528, -0.020152433466369923], [-0.20948363790929925, 0.04013096019626641, 0.009237473066225015, -0.06450583903663176, -0.20463283100096363, 0.10290213415226936, 0.3747961722464808, 0.021734787554874454, 0.1683595148251562, 0.032096903349829266, 0.06696099427469383, 0.1913294406093015, 0.3437669462861921, 0.46502045636659445, 0.06287597947337899, -0.14237261735210305], [-0.14400066126356897, -0.15080944263697946, 0.13988393088448706, 0.05134589224566781, -0.04809119886293837, -0.11573595495248402, 0.4274020392952144, -0.06364560583496287, 0.19400873192779886, 0.14819883122931163, -0.19861767506606637, 0.07760973634082395, 1.0018932614000788, 0.6178207391407422, -0.10124949719707096, -0.017695974502119217], [0.06116766961237915, -0.2895643967459238, -0.05352550362534052, 0.10600221278236395, -0.26081047781980454, -0.11840452047382223, 0.7271051003478982, -0.11931502679954153, 0.32527388767180815, 0.14387714874269691, 0.18098078825006167, 0.14258899148263077, 1.1195851352048425, 0.6905960708869999, -0.1166735503359132, 0.16849133408391248], [-0.1528223572135193, -0.08719385529424507, -0.07380926458884025, 0.28703071769303823, -0.0006683873583717236, -0.2784380514845774, 0.6925549491482867, 0.03850621706958977, 0.368076225038876, 0.0038399848216117646, -0.03424311994958353, 0.032850174672486895, 0.6208200430992934, 0.5503280851920658, -0.1550063517224024, -0.053703291959066], [-0.09890644619893235, -0.08506363430729187, 0.0885056265520037, -0.0064264821978096565, 0.031237696407071858, -0.03363960965901593, 0.30330246547698486, -0.16767139527997085, -0.12461022244668284, 0.17300439286304528, -0.0812023617009259, -0.25972476236498726, 0.5209442910161357, 0.5175997022247302, 0.10110746122078534, -0.013697776338498703], [-0.03356171998984, 0.03708917444716798, 0.08959134762448873, -0.10807656014870388, -0.005652145184951584, -0.20575831325468735, 0.06310469131458805, -0.21147241515358792, 0.031754070753313886, -0.11143022966913704, -0.07536377209195541, 0.008885089910944555, 0.4778395963229652, 0.27625022371768343, -0.029667836316326537, 0.09136234740612684], [-0.009602806879106071, 0.008647848210561467, -0.0987193127735508, -0.14798906271284704, -0.18370881483902163, -0.03541333651669271, 0.25164373003929313, -0.1398857741347858, -0.05736940577625582, 0.11570170800101948, 0.13225353018591718, -0.0705772287055226, 0.3755471451699989, 0.39558264728897974, -0.18906565485074492, 0.155584853698864], [0.11924588467961265, 0.12101887169384702, 0.1712682021066862, -0.10481733531942011, 0.06320934699388644, 0.03590883548648794, 0.06423649201402867, -0.2614932190787946, 0.002887795198702121, -0.03893180684324074, -0.12907484325272914, 0.0032469941942113146, 0.10429739587869882, 0.07543269561783655, -0.07647194373321524, 0.03673821443041018], [-0.010827168374816249, -0.05594642317298018, -0.10388534803444431, 0.42494791912039803, -0.17319519414379111, 0.22075632979321813, 0.17248336161505515, 0.11845360510940314, -0.15604938211765415, 0.06181604642485744, -0.15466522600608731, 0.14849384218776135, 0.5941428333201886, 0.35810669222870706, 0.046024118252855704, -0.08779367929082794], [-0.04359461810241924, -0.0921984342364289, 0.09327369953534141, 0.26518022905686023, -0.022507843392472963, 0.29166648704621534, 0.4210079202704443, -0.13237515834255906, 0.18250727907731523, 0.25589308104935965, 0.10365168984143773, 0.0002261279770539206, 0.8398902776845064, 0.6453865867736234, -0.01880671266261018, 0.13816910631425347], [0.0862196331904895, 0.03246320726222382, -0.06959904201550526, 0.12587093370099783, -0.18429194567530763, 0.23195392915140842, 0.2932819247509789, -0.045529117729543864, 0.09642796855567518, 0.1779702781646715, -0.06547438057681837, -0.10533251677473411, 0.9506513080810426, 0.3710436526751921, 0.02556885764133371, 0.08057634638120073], [0.27249993112285514, 0.021133892791419598, -0.03142933906001308, 0.18173668330511597, 0.05179800736681638, 0.08374105829753949, 0.21706291877590908, 0.016495401301618043, 0.10062065264236106, -0.3094124304705673, -0.0075139249267918255, 0.11886540463933198, 0.8122803035091984, 0.303983457997703, 0.21927225327292224, -0.07168101371461875], [0.008028363821364175, 0.028004274007864836, 0.07596817581025733, 0.5546896062843257, -0.495651327350407, 0.12932236982526582, 1.5597703671016865, 0.03430681578082855, 0.4675229172335313, -0.12061814053212389, -0.12710172867274264, 0.04098594522202828, 1.8593340333535668, 1.1777262117247382, -0.08504648351103752, 0.061842782763507416], [-0.08996744243399454, -0.1262028107019936, -0.7923716657084591, 1.0767016871630912, 0.2936943323231084, -1.2258422473054362, 1.9084297339467489, 0.04449882322791176, 0.6623320249784126, 0.10635824198270197, 0.16419728354414456, 0.023164750906698995, 2.2319355933923473, 0.9749791483332678, -0.16511710900436732, -0.12522285167942696], [0.1518783945436275, -0.039118242014908225, 0.1631336086387357, -0.5433138906548767, -0.04001400520898299, 0.18679030119829626, 0.3949978394120547, -0.249104088806456, 0.20695810492147296, -0.09515368217214706, 0.16621261418151, -0.13326556166579065, 0.43649313273245277, 0.6001309897876664, -0.049010431138047476, -0.06422486459845425], [0.005785520556848514, -0.12292410351960317, -0.013229075349417857, -0.2153790856494782, 0.11615856122696627, -0.049761603742713725, 0.2701442458580701, 0.07084835065998048, 0.08772528317730308, 0.11843037343016088, -0.037384340639887714, 0.10261478035242609, 0.3738439156304566, 0.3532051971109836, 0.20142193194920663, -0.07281692967396386], [0.13416997313654414, -0.040380797060087036, -0.025634820137758182, -0.22266222778943476, -0.06553942354306054, -0.14050883957154528, 0.21498844237189932, 0.09928835971234155, -0.05797908992038714, 0.06706601776505228, 0.12736721436124007, 0.18825597530047508, 0.3193467602550226, 0.047644230195836884, 0.03394809608268952, 0.03477408218523398], [-0.015568959728467825, 0.46177319993823096, -0.12161649548822419, -0.30829001790861404, 0.25529116526252926, 0.040708116271612346, 0.1882026514934566, -0.023525583958404556, -0.21039536165524092, 0.03838616554434882, -0.14516090377149668, -0.06771316668072234, 0.2651208365155158, 0.10312427195528424, -0.2758622300758327, -0.0866029091299981], [0.033632139792926334, 0.05475424366607712, -0.07215508882245433, -0.29926713383612824, -0.05126316094968767, 0.040918206525078375, 0.35877346725192955, 0.26924052062454734, 0.07538488992037928, 0.016822072308676314, -0.03269134380392825, -0.28208039391873047, 0.21338214383871854, -0.002544151781272428, 0.009200865388202051, 0.005391598588532934], [0.14432509137007812, 0.03159148545073828, 0.02752093060904347, 0.467983867578702, 0.016139277893554578, 0.3008047670679364, 0.07883925768097236, 0.09912067573302955, -0.08919113600701686, -0.18616772634029274, -0.10441112353931224, 0.09418887948965841, 1.2000512369320853, 0.6510808989286675, -0.210426128481923, 0.10526972461299534], [0.05057743434140482, -0.2878668302914624, 0.003983233195027351, 0.3120052353591456, 0.01373364211838739, 0.11061600748374938, 0.4953413693390076, -0.00856119674862347, 0.2101344865756065, 0.12102242460660786, -0.0395931264508418, -0.09410131297503763, 1.179616646731279, 0.4229541547090695, -0.24647947987582353, -0.0814234320666683], [0.10048897062040428, -0.06793547446444795, 0.0618709114926899, 0.1885081064461264, -0.0758744148172912, 0.11135945339558392, 0.5434677017212007, -0.10019795896156469, 0.13533071868088145, 0.15942254003287692, 0.05150008221759014, 0.00681728515519852, 0.5941177805681668, 0.579168059613839, 0.11803655359277251, -0.10413320549795518], [0.05218233104639155, 0.030461932605387546, -0.08952702618084976, 0.186187595238215, -0.20432905408550822, 0.27408176048313154, 0.18984939180759713, 0.06753199272831067, -0.0411636968421755, -0.09536016845367422, -0.06017251849422455, -0.10428791113238467, 0.2167630762839705, 0.6299553922204014, 0.09693812716754648, -0.03109740529880888], [-0.12415785623749358, -0.09559892144144559, 0.4806550352896396, 0.0751939456972375, -0.15922157111212143, 0.24680006509658758, 0.9761265052792344, 0.001636896850143051, -0.020380591642731486, -0.07120053140848417, 0.07695333921891848, -0.06329882389158523, 1.1619070974055201, 0.8517912638009209, -0.18380631037100423, 0.2672451637913851], [-0.12715645614655113, 0.06898172436133505, 0.75147437860356, -0.5881483687922964, -0.3902003330425881, 0.6634942854242225, 0.2737784968116637, -0.051997201424048234, 0.29660495035111983, -0.09351108992467924, 0.014090276567479505, 0.07207896346207258, -0.006380408612537444, -0.00811089566389794, 0.06820032383985362, -0.11051911045738923], [-0.00568680216347016, 0.04053987552661601, -0.37477217700509324, 0.08478332988389982, 0.10867272976152464, 0.2583580895562948, 1.4494174719607666, -0.4954940276872658, 0.388775664023286, -0.021624218585610432, -0.1592156481611934, -0.0011650581440648693, 1.269640842648509, 1.1440754208911736, -0.03626337550419763, 0.12407911119944798], [0.16485516073474452, -0.0640548715516511, 0.00241904964840602, -0.32962572811875934, -0.06685513182133349, 0.037228436888221625, 0.5891650248528231, 0.012870908290057177, 0.29555009417570627, 0.063602381235444, -0.05233596791184976, 0.11714429859407907, 0.8441564921316324, 0.22981331528692303, -0.033093102822841135, 0.09078400986137652], [-0.06719536198829834, -0.017442223662661828, -0.21467066587390654, -0.29124622955980806, -0.05219000584219407, 0.03089830096846696, 0.42521668679416147, -0.09619568164073683, -0.03668140960467492, 0.07478658352056931, -0.030706260296500098, 0.0385675317004326, 0.6555459272479542, 0.021798969465599415, 0.20850098783741478, -0.1541609413544489], [-0.06054581567156908, -0.06381323232488578, -0.025394730931920833, -0.3260398848169894, 0.002460023829068086, -0.13313651455835224, 0.37251675323978, 0.006609311887293805, 0.10432510196521523, 0.03275553301610273, 0.15321908174093649, 0.14288497954369733, 0.39541389524526505, 0.10445502321267286, -0.07039664239689246, 0.11558881198864662], [0.04182875074734123, -0.10939042282467197, -0.033601680158092645, -0.006123131405783013, -0.0019619482946283675, 0.00890674487508415, 0.6922604756359004, -0.003696278746970263, -0.07970458778919523, 0.08156513757328329, 0.01466747530217617, -0.05439137449562663, 0.748815998807108, 0.6188642046719096, -0.04452314731802489, 0.004417000326172933], [0.04374947170961265, 0.09146618520438125, -0.14182764886536267, -0.10507800322087127, -0.11998818400456117, 0.3619839658609481, -0.3024927986765188, -0.006719664514059108, -0.544599924460894, -0.1425232842415398, -0.1096371541606445, 0.05972066830153704, 0.12143668970292322, 0.4608276151854865, -0.23464358344289493, -0.040328875682931455], [-0.14251133121293288, -0.04303475014618203, 0.041386601119450604, 0.1556761435523585, -0.1780623317252774, 0.15824195944344324, 0.2461048014317286, -0.2410296436255342, 0.0012255669077532677, -0.11817881017331576, 0.08596477178619305, -0.27690040550367384, 0.35160452701174216, 0.09730802845806594, -0.03614305652676055, 0.08921864894704956], [-0.09365892252977316, -0.07211690907983552, 0.1772666800976792, 0.15565279701802096, -0.24668374043536836, 0.27608905941852074, 0.2775620292454822, 0.015139980907215666, 0.029907099050424275, 0.07036504281926623, 0.19052957759215838, -0.26477667326566695, 0.13379487854170855, 0.18519800798833475, -0.01447683198752266, 0.07398214105620776], [0.12093252847199192, -0.025863846311268538, -0.40026167719846684, -0.29475496700980064, 0.018171563165109126, 0.5061426231627821, -0.063838255239233, -0.009858623166095662, -0.14031097280755744, 0.13672258484743882, -0.018859256452896753, 0.01070815402332827, -0.3903390329354211, 0.20404341871875487, 0.042877298962088015, 0.04268816212230084], [0.0191502822780865, -0.08720636719679388, -0.5537626643540097, -0.21736033872989058, 0.09412028760295846, 0.7182705639957163, -0.1775228971605063, -0.0481647559780258, -0.3992362279285692, 0.01913109715661004, -0.06490887662567868, 0.04414775449629971, -0.5707531389494633, 0.15312126902192602, 0.05142662582774855, -0.023329751355785855], [-0.09253998068476094, 0.039085831655547326, -0.5956144309273778, 0.5277258090627204, 0.21213629751255658, 0.27848068741541093, -0.1159898299363485, -0.04796337066956414, -0.25206863094277837, -0.11989590547561724, 0.31205486070070537, 0.24829170868810593, 0.23796514640047955, 0.1762280330933167, 0.22094732699516328, 0.10761255272021471], [0.2705338095689485, -0.011867550327601877, 0.010502820526725697, 0.6893128759351882, -0.15348259283413088, 0.29495152872360314, 2.382014283475894, -0.002322272054035669, 0.7943814474165896, 0.02743932996736272, -0.017918306796067613, 0.028088482144842563, 1.9307002658165795, 1.4967455678687174, 0.32207708678827485, -0.04331785553587879], [-0.026090435090356415, 0.06609301887094965, -0.22346790149145265, -0.5231460732563092, 0.07085971306039397, -0.31452882809204397, 0.7198843104205958, 0.05016028758247598, 0.5999009628546697, -0.0035405932274123683, 0.08201660953929758, -0.010594422460091629, 0.6461443292381807, 0.12391462600171017, -0.09915093263240482, -0.09999317806423114], [0.21124278200066587, 0.17182402074284528, 0.08225632072418446, -0.2958531604126401, -0.13643857378636184, -0.32192238571246073, 0.7838729976121276, -0.0035129083989395887, 0.25633954531967196, -0.03278238629577903, 0.015622528491597678, -0.124581787709961, 0.4470765716929396, 0.09400211809606056, 0.013742704070269765, 0.099486383160704], [-0.1073433084472904, 0.05577003536388402, -0.1411717469499634, -0.22691345721419665, -0.20626423403690972, -0.13646759849220225, 0.5329278570494187, 0.10785807848209604, 0.19719204752798583, -0.020695858670439965, 0.005757419974358563, -0.17620087656143818, 0.6780997015961653, 0.2035582922980276, -0.004366351666040732, -0.13024202523494288], [-0.06807603024393288, 0.055533923341780984, -0.30097983352574054, -0.1815697538089579, -0.1849782070130484, -0.3695199482415396, 0.36457892577774587, 0.04761838483172483, 0.004317247491351294, -0.18822532068848452, -0.048734447825555034, -0.07723136139200229, 0.7293930182321001, 0.3685854868315029, -0.2417073240083581, 0.04175768119669107], [0.1069647194116969, -0.09232181791309525, -0.35799635556020354, -0.8960928564191053, -0.09896417482395954, 1.317537142103064, -1.3598621456949536, -0.17376331403379727, -1.3714361640408268, -0.06105801872597142, 0.18562691542005968, -0.21488523987505614, -0.8451483533342945, 0.6297103363201825, 0.05533562972387923, -0.17176888216547928], [-0.035981857767666325, -0.12158232665587584, 0.04228253025408812, 0.21639262496416825, -0.17792754818793988, 0.47682083336879977, 0.6928003580235361, -0.1218634009498043, 0.07865712942866371, 0.07288408092743678, 0.22038368862908736, -0.07340815278416976, 0.25030062298052214, 0.4259331163865801, -0.18984740572855366, -0.20129728659835924], [-0.08762276754329935, -0.10207062278173404, 0.0752163468050738, 0.10004645072340072, -0.23528857197470002, 0.27307771752290566, 0.20365833548870058, -0.16283115251210736, 0.1309243588819232, -0.12836985291049438, -0.15596464096063872, -0.0485307540452167, 0.029855707788363967, 0.24370854926774835, 0.07010517312603486, 0.05484489944108803], [0.18797174202175054, -0.029280698570905213, 0.15395170538271616, -0.24347087993502484, -0.16416615948856042, 0.24183825565741018, -0.5967847300418067, -0.014625567816724668, -0.2594863226646024, 0.13400957365112978, 0.030759567971931155, -0.08958550091773804, -0.3306120071485634, -0.33109403080282457, -0.07992138265271369, 0.3507285799665646], [-0.22075463696349434, -0.07563447127648246, 0.12912253914931515, -0.43441454323482215, -0.32651980893641896, 0.41978499806303354, -0.6702791484704751, 0.005607286104734639, -0.30644470959390463, 0.27181657368507556, 0.04046017806133992, -0.17439536885804105, -0.6074507193227643, -0.3118797730437748, -0.16911865645985902, 0.21291748898998708], [0.033400992456803766, 0.05241416308244183, 0.612853733282166, 0.16564165741934742, 1.042438988066154, -0.10629866759731428, -0.5878505152328034, 0.11113805373583995, -0.4025914490674447, 0.07567872605885656, -0.30103595428990937, -0.019000343056802507, -0.698741631526968, -0.7282332037696087, 0.4312046174544487, 0.16021631901191424], [0.34956052406467, 0.12218510589895042, -0.4925043625353813, 0.09271685028350772, 0.12396663427657018, -0.2666079408766972, 0.9326017778078102, -0.037118521063130225, 0.11265965845978207, -0.06568061666026276, -0.13761648631621026, -0.22344056029851483, 0.5585725444765935, 0.45652859983732597, 0.03889848193693356, -0.24495656341161684], [0.12676110568839796, 0.0686496185426544, -0.303435943453418, 0.0029129221085408548, 0.45133607445814844, -0.3032090244370282, 0.11934693358973701, -0.20962631084673422, 0.22518346045926022, 0.08828974144263366, -0.06863792472447944, 0.037233349620642904, 0.40639767672819743, 0.0980353475354191, 0.008131910887008981, 0.19515438845014713], [0.1774670548918413, -0.08447134198467489, 0.15478594454365724, -0.19884591117457698, -0.09247952291265765, -0.10452320467457968, 0.34555348504674305, 0.18910750799024933, 0.10188222729054919, -0.17609428005568906, 0.03240637748204126, -0.09432401604506452, 0.2665769617779448, -0.004188129802167378, -0.2634847089476654, -0.17147515949071945], [-0.06493106426997157, -0.0526914719931773, 0.0418100605033292, -0.16467320975889443, 0.11740058511635283, -0.18840070955798996, 0.44768832521151547, 0.09956789169490285, 0.21457954283688727, -0.052963586133292946, 0.3438570987501676, 0.16567871572519777, 0.30803718364114585, 0.08793657449001262, -0.08812841874814904, -0.08191344380020121], [-0.007295524119584141, -0.14533391223415543, 0.1990063070813617, -0.22420873475208428, -0.0875795370513711, -0.18067949593908736, 0.574049771019404, 0.0941163912625607, 0.05165281947909014, -0.01236866505805366, -0.001533551989079062, 0.11116884189814964, 0.06908738051416254, 0.08170160912557957, 0.40139863736058745, 0.20946574502024992], [-0.10115040772766905, -0.1111674463689363, 0.315828380116675, -0.4762317560994344, -0.93753485308423, -0.1177965084001924, -0.003546182710693106, -0.24226999541756236, 0.10225763953747691, 0.23850059597257983, -0.0578523191356932, -0.02444573633543366, -0.12463693747684122, 0.2900028713432529, -0.04566304283961179, 0.1335511993815334], [0.08247708856482977, 0.14187959636276085, 0.16386066326609136, -0.03582029816153186, -0.21134650582160872, 0.4853316341697549, -0.2661038778273719, -0.10603028921281778, 0.5715558438570205, 0.1211775816264404, -0.12673282619977605, -0.0632166586458713, -0.8778447786336909, -1.0814831140419847, -0.12244090449759618, -0.0313289947866522], [-0.02988125146294116, -0.03660738729821849, 0.06411711400356254, -0.030554945109596273, -0.38078909389251203, 0.012896019561986542, -0.15554211266578863, -0.03223014842427911, 0.46313701389441647, -0.23873395888271928, 0.24588660441257087, 0.12708113890954525, -0.026657317057482727, 0.09684805596630675, -0.1386041267639344, -0.13271981525925647], [-0.049282670179331016, -0.14845508635241367, 0.1943924761746678, -0.012856942312760751, -0.033480949138091756, 0.4152008211631123, -0.09120477048528962, -0.16768282082652755, -0.023822153485765798, 0.041973936478870454, 0.015924885460285806, -0.0015151637541481976, -0.013558178145846388, 0.08556471957233482, 0.040226177817317584, 0.1149403566653594], [-0.02655162353505204, -0.05682204672659198, -0.3958866234851038, 0.008460281630589107, 0.35839525530030486, 0.06328168999513058, -0.2791291104809983, 0.25290608507703954, -0.45484402134728863, 0.0973308525564764, -0.019702513527279013, 0.19768445261420808, -0.5928873151991519, -0.4445450162431098, 0.06835363376798977, -0.02113574997710408], [0.10994379503116052, 0.008374022042613349, -0.030378655942253828, -0.196925503023984, 0.6165987943693756, 0.07756041272068585, -0.4475051376238945, 0.07816344563025482, -0.22899235995054115, -0.1585899700948903, 0.08573616678995427, 0.023592327863945883, -0.7748932465241987, -0.19063486041346858, -0.1218946206788421, 0.17305161798117052], [0.07710546381562143, -0.03316369361914998, -0.19647769314195665, 0.2677179372572145, 0.6476386986501653, -0.2840589213646505, 0.08352079177254136, 0.15993504015379317, 0.17444826421860515, 0.04780819067484182, -0.0704008732444013, 0.2136869779652554, -0.19600031367355966, -0.3540863050219775, -0.13744667343431347, -0.10075510429218422], [0.20645872209365623, 0.006199513167936123, 0.13761685541167754, -0.17020770056998863, 0.4551568178037924, -0.3341137507227665, -0.08299521533490707, -0.18973995590831322, -0.16766769237194515, 0.04071685482022099, -0.10258877597267733, -0.23727568502982374, -0.4072948240168336, -0.1991680467647037, 0.07860224864264129, 0.13439360211141657], [-0.05914407170215595, -0.13279814569833995, -0.058796229844576324, -0.2788235775799978, 0.04013785118067056, -0.41691512557721727, 0.4925593615378212, 0.10137623118504052, 0.35835366977434746, 0.13335732810998435, -0.027676394133022548, 0.0013053379075342786, 0.0042612813466158, 0.15472450745802963, 0.012700494177111839, -0.13430068155470798], [-0.11339584610093296, 0.2952541088709082, -0.13275006789918137, -0.007322503010245231, -0.023571336192643632, -0.10980586759659992, 0.23141752832791412, -0.0017353725037297517, -0.10688119231502385, -0.10274889430838073, -0.04946329268196931, -0.2413006399416802, 0.21440804523807105, 0.25974712500760416, -0.013863952615120693, 0.12263299034684344], [0.021821321367921934, 0.13569956912545897, -0.18379403945119574, 0.05451759423471316, 0.0873103673228485, -0.05579448887543528, 0.1087484526573048, 0.029950527072992637, 0.03974377304695526, -0.08085182211309579, -0.0962228992536712, 0.09380114794049625, 0.1549242717185827, 0.1653881976051181, -0.0015880227993538708, 0.08644534423340411], [-0.0477273959993198, 0.13571628583891193, 0.037050203112017274, 0.28143428657235126, -0.1755212315213049, 0.34747459578439766, -0.281773519339256, 0.018864234029657083, -0.14233352112262207, -0.0729164395386449, 0.05698487374507604, 0.034065813633359025, -0.33167197885033345, 0.0344910219815849, -0.13565611198655697, -0.06075776106034233], [0.19824896422102467, -0.006721462533393256, 0.03365109637535814, 0.18168762519472959, -0.18455312212322808, 0.47437158561003046, 0.4591259823120854, 0.07866908424387375, 0.010262832013018886, -0.02950797702149347, 0.1606266932811208, 0.15192558401108977, 0.0867996714471291, 0.20782216983088755, -0.026204087201617397, -0.0724791013586253], [0.0029470227739629607, 0.21991854707315867, -0.07027863562102242, 0.44340805667313565, 0.2546907306796114, 0.059406261215098184, 0.3212195791723884, -0.17487867155827833, 0.23577666019368573, -0.08416402192011177, 0.05778717559684624, 0.06131556864007968, -0.04664913330876679, -0.3168296453693029, -0.0036294573922846236, -0.1751457836532965], [0.025514504144695728, 0.13590516585784004, -0.22502879824460922, -0.16255853017649996, -0.045440347670277395, 0.3552038156424822, -0.17290372184908093, -0.12569097357271136, -0.08585425197379885, -0.03554333756092811, -0.13385617947078815, 0.020481576532883426, -0.45699106068669837, -0.19290724823316083, -0.012589746652276065, -0.08350828761442179], [-0.13062144699655054, -0.16731222864879128, 0.08662437981672069, -0.22967117185311192, 0.05821833095432114, 0.5042102845853118, -0.9114050810171157, 0.0375658283617056, -0.4627181034178371, -0.20407373803523132, 0.06478691354776019, -0.00143329715388857, -0.7866115692346173, -0.769596683576757, -0.156053942090949, 0.015141972755506614], [-0.014425286175113457, 0.011008456272997853, -0.07935500069163921, 0.04676794756801321, 0.1470747583514334, 0.24321795304177674, -0.04121092975723382, -0.2544984983826926, -0.13064947927312595, -0.03386980819441913, 0.028542245910042698, 0.08190858603886723, -0.3104764922320077, -0.08312182420688731, 0.14910855909010584, 0.0019974282554625794], [0.12612552180940398, 0.06790382848766592, 0.019376372858115495, 0.5888945208617091, 0.48140495731362065, -0.13694076293816604, -0.01989727293340131, -0.053643158995067976, -0.3686506647338317, -0.006782322276076754, -0.14032128332699179, -0.16620736001420414, -0.37417273750959845, -0.5512314793887193, 0.10278101572570277, -0.0686594601338109], [-0.031037629396139646, -0.04282011464530633, -0.1480881248259623, 0.08052151101559696, 0.3271107762536615, -0.06703178665823643, -0.09655806427972091, 0.10276116445459005, -0.25434316745080615, 0.02271722265992625, -0.08729242964859088, 0.08519612304840846, -0.4878169855450421, -0.43623398196514157, -0.02995760181487107, -0.1581406586341528], [0.10474803577531201, 0.17601054212331432, 0.14224960233083475, 0.036668080224795285, 0.01230018455162395, -0.08458462379388698, 0.042486173059942, 0.0045485785644245, -0.11152853505469522, -0.12016253201014909, -0.020228418101892093, 0.054209080273461004, 0.09972970674616267, -0.10819222711770503, 0.12187415234284758, 0.06847633221403593], [-0.0486210948462086, -0.1178259896117677, -0.015539771585330448, -0.13909905445555107, -0.018043065280940476, -0.22305647175669424, 0.19830444646278997, -0.15560996912077563, -0.02175020233416729, -0.0595800664163216, -0.21483120613772524, 0.11031273115043057, 0.3910313395686786, 0.06283311216328444, -0.19913745665959595, -0.012581205366262064], [-0.3110764109236557, -0.009960978126505834, 0.024367525366517453, -0.017490531192081223, 0.1404601770400355, -0.12714796794193284, 0.09066078262546219, -0.0643361246800907, 0.15123547387629407, 0.23213972477884412, -0.10670512659037035, -0.004339046695694471, 0.3531845909656292, 0.03957201275129736, 0.010790196050101848, 0.02518856494627019], [0.011501304582858862, 0.08188292983732212, -0.08341933022756721, 0.4685924341917473, -0.19945067674781092, 0.1829613187898228, 0.5640712417085794, 0.10006617481806374, 0.053702364369376455, 0.23251250565988674, -0.2827336057319232, -0.2758983832071431, 0.9507389448383295, 0.7942233863242089, -0.04405677491149966, 0.13725348997540987], [-0.0667742526740806, 0.033719945246730845, -0.07479141551779948, 0.43896629992603065, -0.02240132677156459, 0.11050705128489295, 0.782419115250176, -0.08748321828534315, 0.07887895899732167, -0.0922977820529002, -0.05329130246463609, 0.2664493036585307, 1.0340478858251612, 0.6627373783793519, 0.035485770251528985, 0.15216860551056915], [0.08215619310452625, 0.024942894589964716, 0.10445823045739792, 0.21625135197013345, 0.012126084556771388, -0.2986953872767688, 0.3781062859576295, -0.13978776971812662, 0.07823319250546835, -0.034998439422643274, -0.12869779979084656, 0.11430140511563543, 0.5158385965400066, 0.21025849648434436, 0.013155769444782433, -0.02734731485822607], [0.017173599680357456, 0.10994632374446725, -0.21999344095562343, 0.3175658212397384, -0.11428076313042768, 0.25517702600602926, -0.09341440801617769, -0.2637709374276837, 0.36577366456601057, -0.19787230632755126, -0.007464132292502132, -0.008337413218428997, 0.3178678629583943, 0.12424325791517933, -0.05560121417915691, -0.2831186367030733], [0.0617338624238336, 0.06554301609773817, 0.005453348262807965, 0.4418358225867366, 0.45773407582713127, 0.05130826465609766, 0.21866258707840358, -0.07085269366129017, 0.22022013434591034, 0.005497422117092742, 0.1265751081381319, -0.24842272393856915, 0.8270394751625761, -0.005038099460139707, 0.018123230631862948, 0.07125879652292953], [0.003192998262430188, 0.05904230126122691, 0.08579493304216787, 0.05226022849524779, -0.1625431017303618, 0.12633949502501415, 0.6184097890927289, -0.02090674271923018, 0.20264278448246445, 0.05980100922445844, 0.13225555822131008, -0.1870205060499375, 0.7752127209570224, 0.3751691729930576, -0.08291381440768524, 0.19201627845919006], [-0.22974496166022126, -0.15849024911835513, -0.10281859922955575, 0.5258986593634963, 0.1853198112194352, -0.13098327543065477, 0.33222310779668945, 0.07727387840780757, -0.2906355185969567, 0.007597399949422468, -0.03323158390832765, -0.17784310381221471, 0.0005949956526715211, -0.26636934326503625, 0.0034088391402918128, -0.12003889637359495], [0.05020193646264694, 0.013717181814277076, -0.14635493118889784, 0.026045436817579364, 0.31928738083206437, 0.05653499285838352, 0.006239839939238229, -0.006500411133042846, -0.417168353173292, -0.006783360626132581, 0.05806587480565692, -0.12308494824875901, -0.28379525510217013, -0.616108721888353, 0.26247558467507376, 0.020920086542726788], [-0.13817442044034037, 0.005101813751725026, -0.0380339930111303, -0.019207506979982344, -0.0266929422936456, -0.20296099910786752, 0.17893729714448728, -0.05790681160125995, 0.012733650006492389, -0.17058020336402593, 0.012329684613788762, 0.12837971168014928, -0.009917737572398293, -0.033997648837726706, 0.08077059664149222, -0.10260661304097804], [0.10572965814819735, -0.06299731540933157, 0.1726499850747337, -0.05565863444147052, -0.06429864381439084, -0.03877343359454122, 0.047038358900518044, 0.06371692046336262, -0.045323242863855605, 0.03380820423453482, 0.32107252876770853, -0.293026961233375, 0.18692099351860716, -0.1669674970157004, 0.06447773642522762, -0.14768868279819852], [0.1533771230038691, 0.1804239073794806, -0.023697324461183725, -0.06331493626555747, 0.0594090923609275, -0.2359320506236925, 0.20391656338928785, -0.1420248805066101, 0.07188475223817145, -0.04751467704184581, -0.16357092965907133, -0.2782512713311294, -0.13257734672883895, 0.13768833032861796, 0.04622490730220765, -0.04905289416675867], [-0.048569320217645456, -0.08410840283906673, 0.2401752685883473, 0.3965238268138028, -0.06275188859730306, -0.18120462843511073, 0.022922844035666773, 0.042860694347588074, 0.16301102188927824, 0.09072144027264431, -0.13921531802931447, -0.21722958130380327, 0.010348741326931362, 0.004779750867587179, -0.09271708363853051, -0.03609297155633054], [-0.020118547895659, 0.1293530421863692, 0.08552516503094104, 0.24690234272583017, -0.0002383769885271479, -0.11353632622252073, -0.0020294837984187776, -0.2691656657740772, -0.04886514605454536, 0.02038508233827122, -0.053810695045443044, 0.05463197109552565, 0.03502415133078481, -0.14889496298803293, 0.07187919788276799, -0.19194065731878973], [0.02090406222602586, 0.09793311176134854, 0.17173408773354157, 0.2367585695858083, -0.046191993338130684, -0.0743118206469931, 0.3641651852370737, 0.027092545447861733, 0.06152979396505164, -0.013129332830603923, -0.05405370085505932, -0.08938295447431881, 0.23011395218213293, -0.258696912165895, -0.2333943200771539, 0.07664798132873189], [-0.014762203686150924, -0.03663443175311167, 0.2728790051618143, 0.5688360146938806, 0.12961241124166373, 0.028366442280394016, 0.18273712930350244, -0.12143005456625176, 0.27937575009117027, 0.0072234226568925804, 0.14416890262885163, -0.17786504572359418, 0.4653591059662735, -0.05064157207393206, 0.233907321933188, 0.012106889436695594], [0.01429023237255216, 0.022472815928126753, -0.08967129276023975, 1.1682033987557492, -0.3956691337139386, 0.7057638918276307, 0.010679445138133375, 0.013171006019558274, 0.21845636721248873, 0.01792619937506442, -0.08150372674370981, -0.19482854318143503, -0.03290247716744377, -0.765728989225065, 0.018772246043740927, 0.19363457538114795], [-0.1306557845726393, -0.002037415018798141, 0.030853473242121027, 1.0976920921397453, -0.19229206045206876, 0.3668120143627077, 0.017770644746792786, 0.0227962418685212, 0.3599117655260785, -0.04985352351959522, -0.21606118035682656, 0.01614463936752442, 0.06868639249092633, -0.41047868546629873, -0.11273899107992115, 0.17623353136989509], [0.0184261815494987, 0.20373397542719238, -0.890943966573994, -0.45967195991773685, 0.2262700558922976, 0.7370978815057598, -0.8129947357312483, 0.02662837024646978, -0.9834560719292377, -0.1072364605881654, 0.1161022979885993, -0.016256146329783207, 0.24199218445454593, 0.6877763207297471, 0.01531329990859595, -0.20371125534166223], [0.0019187147434062103, -0.03213296997284225, 0.14085072502877366, 0.6495853460292391, 0.332781720320352, 0.04573515974056736, 0.3296245341108961, -0.23620462325905112, -0.47187120446642944, 0.08161099378548076, 0.0430835787440174, 0.03478127867478837, -0.05326207357456066, -0.2316313023895542, -0.16200546835635993, -0.25403957996960697], [-0.1097175704674857, 0.10714346039375941, 0.006203547341694761, -0.163775362735498, -0.01919428703439837, -0.1407189748713779, 0.47105952664141243, -0.07385371692209307, 0.0855942247936318, -0.012612469309842361, -0.2171416577110238, -0.100387843752711, 0.17385000023086858, 0.23438016380635904, 0.16527343651550763, 0.07497249092610567], [-0.09815972591806964, 0.10563593851417628, -0.14268841607016633, 0.04180929733672734, 0.14261951899005293, 0.004816417262450372, 0.46103125915428395, 0.04738235692627014, 0.005485296511806394, 0.05885727682633226, -0.019259029609362852, 0.017733528662867454, 0.2003972737808899, 0.05631489832034299, -0.037169038801285456, 0.06095520866833488], [0.06566352185721117, -0.12127660786284841, -0.28000578343658394, 0.103193478548488, 0.13190824688378477, -0.1059661535260237, -0.025010181618079646, -0.1318466145980024, 0.13450579760689413, -0.2916460424729007, -0.13146392916181013, 0.05465502167411072, -0.06647023673122886, -0.007535141802729618, 0.0712448038799311, -0.04518315732570139], [-0.07795193526277915, 0.03232682256476593, -0.0030722534975404525, 0.11970674084696359, 0.1418385632823436, -0.04662945670798532, 0.32302396364608443, 0.07079662053549649, -0.0042610027799120515, 0.08375175814773561, 0.008584393248834074, 0.15368219028635613, 0.009920431760750116, -0.11181673691523694, -0.05531648196392125, -0.06414672515546992], [0.011545512593274057, -0.06552861004067956, -0.017222740509996427, 0.06560469203108665, 0.033172788181207453, -0.03078788669096669, 0.226273940480402, -0.08644744697695413, 0.1908169389643072, -0.13415069737210084, 0.11527860049622722, 0.15055248902329832, 0.17368899658559153, 0.1003719653886598, 0.053770739336884164, -0.09515775387569064], [0.12465886456433088, -0.08360330163140949, 0.07848276392922399, 0.22402122839928948, 0.05924102630628236, -0.10779467225541292, 0.1734791998338234, 0.06826225881407466, 0.02240078436970937, 0.06218737332066987, 0.0818844828132721, 0.13463077202727472, -0.03815980677563734, -0.25105109072515397, 0.0031542422018966732, -0.004131933602081964], [0.060916031200624915, 0.18931008712253414, -0.04283887395025634, 0.36432241521132835, -0.07538626987025206, -0.10112653820273886, 0.18592899733132384, 0.1046290047667406, 0.30494603964429207, -0.08259185575559166, -0.027770520668555877, 0.07024205298015324, -0.1220247266543655, -0.06824733954577296, 0.1548983561065279, -0.0271957805728635], [0.050904425179153265, 0.08695125384590585, -0.35133303804681243, 0.7123030996569049, -0.28253524307436423, -0.25628916967229093, 0.1793535062867208, -0.02635174317395466, 0.10942894271628302, 0.10830422579485176, 0.14223541381764274, -0.05022883039221351, 0.23487547261621222, -0.2045311034548769, 0.19257220346191062, 0.08694155473682391], [-0.05101910846952268, 0.10298806014173645, 0.06740211541732107, 0.19958476283784513, 0.01130721239915548, -0.0060217172712098985, 0.5344371983910807, 0.12116219559206061, 0.36181002149031455, 0.1705490629386595, -0.10627665219132397, 0.22836410635295865, 0.609533214935613, -0.05463582848904882, -0.05379655291813444, -0.0018549760968840352], [0.09564061647487422, 0.021645070806106063, -0.1419676964539398, -0.06484079701607634, -0.09910831733732955, -0.4247893946113878, 1.0440273168569438, 0.15733499557414882, 0.2006680515131562, -0.32583406275753446, 0.22024730953532917, 0.07774765596935604, 0.9291077392336382, 0.7182355771014355, 0.04307265338947991, -0.045352345396015147], [0.10285896757607094, 0.016925824697873453, -0.09097053140330247, 0.17269563845494088, -0.07490582839302268, -0.29591962505629604, 0.38186974858699874, -0.07854273403597195, 0.14232082029107151, -0.06524038882506818, -0.06636714667485195, 0.21570456122222317, 0.31004812235704815, -0.12880746802856818, 0.11585371886628439, -0.12492593034708956], [0.21882850775941184, -0.02804124204408192, -0.12946880052124393, 0.19280374532669256, -0.12406648979124782, -0.07425131742851396, 0.1203420251429134, -0.1844036331689378, -0.021369368672334993, 0.11352881925173468, -0.12367186313393483, 0.09508441417956677, 0.1322747901016412, -0.10570036964049734, -0.08402972229387855, 0.1468177378334982], [0.01536252739710276, 0.042242898872991534, -0.02986164124590982, 0.030135591265988908, 0.2008946572895069, -0.049508950408305136, 0.22741586760485644, -0.007983887488609608, -0.00611104247106566, 0.18117201949512926, 0.004379246066376463, 0.2576283561628755, -0.10894982658817824, 0.15206471480848524, 0.006981461573565376, -0.15846124458616362], [-0.0036061708618691114, 0.04461056075598838, 0.09121324477535339, 0.15129189472978719, -0.012853932452067581, -0.02519235404920939, 0.17516873838005745, -0.23190867698046178, 0.029348845604058392, -0.03311895394997912, -0.12056338684874444, -0.09377503737704482, 0.13054697213660504, 0.20755048273456717, -0.017572763381919255, 0.2392666563692109], [-0.3849226219377321, -0.03593049786189559, 0.001909988875133363, 0.37187526935364956, 0.0050076971765137005, -0.003742692053290987, 0.9439186630882009, -0.03382095540459777, 0.5065892811375096, -0.06521114513723457, -0.14488172615359587, -0.005668874961642608, 1.0233437724418808, 0.8249137641556084, -0.18942018777904568, -0.11131420238602444]], "bias": [[-0.024262789139728343, -0.09615732600348574, 0.05274483429017099, 0.10722108538039168, -0.038948997831958196, -0.38960128346977746, 0.5345490116574461, -0.06953945988600187, 0.2213835692227966, -0.018420358778290232, -0.005697260358523993, 0.08326325210155615, 0.546836591952933, 0.378528469004422, -0.07975364554054654, 0.06510425163267365]], "mWeights": [[0.0, 0.0, 0.0, 0.0, 0.0, 0.0, 0.0, 0.0, 0.0, 0.0, 0.0, 0.0, 0.0, 0.0, 0.0, 0.0], [0.0, 0.0, 0.0, 0.0, 0.0, 0.0, 0.0, 0.0, 0.0, 0.0, 0.0, 0.0, 0.0, 0.0, 0.0, 0.0], [0.0, 0.0, 0.0, 0.0, 0.0, 0.0, 0.0, 0.0, 0.0, 0.0, 0.0, 0.0, 0.0, 0.0, 0.0, 0.0], [0.0, 0.0, 0.0, 0.0, 0.0, 0.0, 0.0, 0.0, 0.0, 0.0, 0.0, 0.0, 0.0, 0.0, 0.0, 0.0], [0.0, 0.0, 0.0, 0.0, 0.0, 0.0, 0.0, 0.0, 0.0, 0.0, 0.0, 0.0, 0.0, 0.0, 0.0, 0.0], [0.0, 0.0, 0.0, 0.0, 0.0, 0.0, 0.0, 0.0, 0.0, 0.0, 0.0, 0.0, 0.0, 0.0, 0.0, 0.0], [0.0, 0.0, 0.0, 0.0, 0.0, 0.0, 0.0, 0.0, 0.0, 0.0, 0.0, 0.0, 0.0, 0.0, 0.0, 0.0], [0.0, 0.0, 0.0, 0.0, 0.0, 0.0, 0.0, 0.0, 0.0, 0.0, 0.0, 0.0, 0.0, 0.0, 0.0, 0.0], [0.0, 0.0, 0.0, 0.0, 0.0, 0.0, 0.0, 0.0, 0.0, 0.0, 0.0, 0.0, 0.0, 0.0, 0.0, 0.0], [0.0, 0.0, 0.0, 0.0, 0.0, 0.0, 0.0, 0.0, 0.0, 0.0, 0.0, 0.0, 0.0, 0.0, 0.0, 0.0], [0.0, 0.0, 0.0, 0.0, 0.0, 0.0, 0.0, 0.0, 0.0, 0.0, 0.0, 0.0, 0.0, 0.0, 0.0, 0.0], [0.0, 0.0, 0.0, 0.0, 0.0, 0.0, 0.0, 0.0, 0.0, 0.0, 0.0, 0.0, 0.0, 0.0, 0.0, 0.0], [0.0, 0.0, 0.0, 0.0, 0.0, 0.0, 0.0, 0.0, 0.0, 0.0, 0.0, 0.0, 0.0, 0.0, 0.0, 0.0], [0.0, 0.0, 0.0, 0.0, 0.0, 0.0, 0.0, 0.0, 0.0, 0.0, 0.0, 0.0, 0.0, 0.0, 0.0, 0.0], [0.0, 0.0, 0.0, 0.0, 0.0, 0.0, 0.0, 0.0, 0.0, 0.0, 0.0, 0.0, 0.0, 0.0, 0.0, 0.0], [0.0, 0.0, 0.0, 0.0, 0.0, 0.0, 0.0, 0.0, 0.0, 0.0, 0.0, 0.0, 0.0, 0.0, 0.0, 0.0], [0.0, 0.0, 0.0, 0.0, 0.0, 0.0, 0.0, 0.0, 0.0, 0.0, 0.0, 0.0, 0.0, 0.0, 0.0, 0.0], [0.0, 0.0, 0.0, 0.0, 0.0, 0.0, 0.0, 0.0, 0.0, 0.0, 0.0, 0.0, 0.0, 0.0, 0.0, 0.0], [0.0, 0.0, 0.0, 0.0, 0.0, 0.0, 0.0, 0.0, 0.0, 0.0, 0.0, 0.0, 0.0, 0.0, 0.0, 0.0], [0.0, 0.0, 0.0, 0.0, 0.0, 0.0, 0.0, 0.0, 0.0, 0.0, 0.0, 0.0, 0.0, 0.0, 0.0, 0.0], [0.0, 0.0, 0.0, 0.0, 0.0, 0.0, 0.0, 0.0, 0.0, 0.0, 0.0, 0.0, 0.0, 0.0, 0.0, 0.0], [0.0, 0.0, 0.0, 0.0, 0.0, 0.0, 0.0, 0.0, 0.0, 0.0, 0.0, 0.0, 0.0, 0.0, 0.0, 0.0], [0.0, 0.0, 0.0, 0.0, 0.0, 0.0, 0.0, 0.0, 0.0, 0.0, 0.0, 0.0, 0.0, 0.0, 0.0, 0.0], [0.0, 0.0, 0.0, 0.0, 0.0, 0.0, 0.0, 0.0, 0.0, 0.0, 0.0, 0.0, 0.0, 0.0, 0.0, 0.0], [0.0, 0.0, 0.0, 0.0, 0.0, 0.0, 0.0, 0.0, 0.0, 0.0, 0.0, 0.0, 0.0, 0.0, 0.0, 0.0], [0.0, 0.0, 0.0, 0.0, 0.0, 0.0, 0.0, 0.0, 0.0, 0.0, 0.0, 0.0, 0.0, 0.0, 0.0, 0.0], [0.0, 0.0, 0.0, 0.0, 0.0, 0.0, 0.0, 0.0, 0.0, 0.0, 0.0, 0.0, 0.0, 0.0, 0.0, 0.0], [0.0, 0.0, 0.0, 0.0, 0.0, 0.0, 0.0, 0.0, 0.0, 0.0, 0.0, 0.0, 0.0, 0.0, 0.0, 0.0], [0.0, 0.0, 0.0, 0.0, 0.0, 0.0, 0.0, 0.0, 0.0, 0.0, 0.0, 0.0, 0.0, 0.0, 0.0, 0.0], [0.0, 0.0, 0.0, 0.0, 0.0, 0.0, 0.0, 0.0, 0.0, 0.0, 0.0, 0.0, 0.0, 0.0, 0.0, 0.0], [0.0, 0.0, 0.0, 0.0, 0.0, 0.0, 0.0, 0.0, 0.0, 0.0, 0.0, 0.0, 0.0, 0.0, 0.0, 0.0], [0.0, 0.0, 0.0, 0.0, 0.0, 0.0, 0.0, 0.0, 0.0, 0.0, 0.0, 0.0, 0.0, 0.0, 0.0, 0.0], [0.0, 0.0, 0.0, 0.0, 0.0, 0.0, 0.0, 0.0, 0.0, 0.0, 0.0, 0.0, 0.0, 0.0, 0.0, 0.0], [0.0, 0.0, 0.0, 0.0, 0.0, 0.0, 0.0, 0.0, 0.0, 0.0, 0.0, 0.0, 0.0, 0.0, 0.0, 0.0], [0.0, 0.0, 0.0, 0.0, 0.0, 0.0, 0.0, 0.0, 0.0, 0.0, 0.0, 0.0, 0.0, 0.0, 0.0, 0.0], [0.0, 0.0, 0.0, 0.0, 0.0, 0.0, 0.0, 0.0, 0.0, 0.0, 0.0, 0.0, 0.0, 0.0, 0.0, 0.0], [0.0, 0.0, 0.0, 0.0, 0.0, 0.0, 0.0, 0.0, 0.0, 0.0, 0.0, 0.0, 0.0, 0.0, 0.0, 0.0], [0.0, 0.0, 0.0, 0.0, 0.0, 0.0, 0.0, 0.0, 0.0, 0.0, 0.0, 0.0, 0.0, 0.0, 0.0, 0.0], [0.0, 0.0, 0.0, 0.0, 0.0, 0.0, 0.0, 0.0, 0.0, 0.0, 0.0, 0.0, 0.0, 0.0, 0.0, 0.0], [0.0, 0.0, 0.0, 0.0, 0.0, 0.0, 0.0, 0.0, 0.0, 0.0, 0.0, 0.0, 0.0, 0.0, 0.0, 0.0], [0.0, 0.0, 0.0, 0.0, 0.0, 0.0, 0.0, 0.0, 0.0, 0.0, 0.0, 0.0, 0.0, 0.0, 0.0, 0.0], [0.0, 0.0, 0.0, 0.0, 0.0, 0.0, 0.0, 0.0, 0.0, 0.0, 0.0, 0.0, 0.0, 0.0, 0.0, 0.0], [0.0, 0.0, 0.0, 0.0, 0.0, 0.0, 0.0, 0.0, 0.0, 0.0, 0.0, 0.0, 0.0, 0.0, 0.0, 0.0], [0.0, 0.0, 0.0, 0.0, 0.0, 0.0, 0.0, 0.0, 0.0, 0.0, 0.0, 0.0, 0.0, 0.0, 0.0, 0.0], [0.0, 0.0, 0.0, 0.0, 0.0, 0.0, 0.0, 0.0, 0.0, 0.0, 0.0, 0.0, 0.0, 0.0, 0.0, 0.0], [0.0, 0.0, 0.0, 0.0, 0.0, 0.0, 0.0, 0.0, 0.0, 0.0, 0.0, 0.0, 0.0, 0.0, 0.0, 0.0], [0.0, 0.0, 0.0, 0.0, 0.0, 0.0, 0.0, 0.0, 0.0, 0.0, 0.0, 0.0, 0.0, 0.0, 0.0, 0.0], [0.0, 0.0, 0.0, 0.0, 0.0, 0.0, 0.0, 0.0, 0.0, 0.0, 0.0, 0.0, 0.0, 0.0, 0.0, 0.0], [0.0, 0.0, 0.0, 0.0, 0.0, 0.0, 0.0, 0.0, 0.0, 0.0, 0.0, 0.0, 0.0, 0.0, 0.0, 0.0], [0.0, 0.0, 0.0, 0.0, 0.0, 0.0, 0.0, 0.0, 0.0, 0.0, 0.0, 0.0, 0.0, 0.0, 0.0, 0.0], [0.0, 0.0, 0.0, 0.0, 0.0, 0.0, 0.0, 0.0, 0.0, 0.0, 0.0, 0.0, 0.0, 0.0, 0.0, 0.0], [0.0, 0.0, 0.0, 0.0, 0.0, 0.0, 0.0, 0.0, 0.0, 0.0, 0.0, 0.0, 0.0, 0.0, 0.0, 0.0], [0.0, 0.0, 0.0, 0.0, 0.0, 0.0, 0.0, 0.0, 0.0, 0.0, 0.0, 0.0, 0.0, 0.0, 0.0, 0.0], [0.0, 0.0, 0.0, 0.0, 0.0, 0.0, 0.0, 0.0, 0.0, 0.0, 0.0, 0.0, 0.0, 0.0, 0.0, 0.0], [0.0, 0.0, 0.0, 0.0, 0.0, 0.0, 0.0, 0.0, 0.0, 0.0, 0.0, 0.0, 0.0, 0.0, 0.0, 0.0], [0.0, 0.0, 0.0, 0.0, 0.0, 0.0, 0.0, 0.0, 0.0, 0.0, 0.0, 0.0, 0.0, 0.0, 0.0, 0.0], [0.0, 0.0, 0.0, 0.0, 0.0, 0.0, 0.0, 0.0, 0.0, 0.0, 0.0, 0.0, 0.0, 0.0, 0.0, 0.0], [0.0, 0.0, 0.0, 0.0, 0.0, 0.0, 0.0, 0.0, 0.0, 0.0, 0.0, 0.0, 0.0, 0.0, 0.0, 0.0], [0.0, 0.0, 0.0, 0.0, 0.0, 0.0, 0.0, 0.0, 0.0, 0.0, 0.0, 0.0, 0.0, 0.0, 0.0, 0.0], [0.0, 0.0, 0.0, 0.0, 0.0, 0.0, 0.0, 0.0, 0.0, 0.0, 0.0, 0.0, 0.0, 0.0, 0.0, 0.0], [0.0, 0.0, 0.0, 0.0, 0.0, 0.0, 0.0, 0.0, 0.0, 0.0, 0.0, 0.0, 0.0, 0.0, 0.0, 0.0], [0.0, 0.0, 0.0, 0.0, 0.0, 0.0, 0.0, 0.0, 0.0, 0.0, 0.0, 0.0, 0.0, 0.0, 0.0, 0.0], [0.0, 0.0, 0.0, 0.0, 0.0, 0.0, 0.0, 0.0, 0.0, 0.0, 0.0, 0.0, 0.0, 0.0, 0.0, 0.0], [0.0, 0.0, 0.0, 0.0, 0.0, 0.0, 0.0, 0.0, 0.0, 0.0, 0.0, 0.0, 0.0, 0.0, 0.0, 0.0], [0.0, 0.0, 0.0, 0.0, 0.0, 0.0, 0.0, 0.0, 0.0, 0.0, 0.0, 0.0, 0.0, 0.0, 0.0, 0.0], [0.0, 0.0, 0.0, 0.0, 0.0, 0.0, 0.0, 0.0, 0.0, 0.0, 0.0, 0.0, 0.0, 0.0, 0.0, 0.0], [0.0, 0.0, 0.0, 0.0, 0.0, 0.0, 0.0, 0.0, 0.0, 0.0, 0.0, 0.0, 0.0, 0.0, 0.0, 0.0], [0.0, 0.0, 0.0, 0.0, 0.0, 0.0, 0.0, 0.0, 0.0, 0.0, 0.0, 0.0, 0.0, 0.0, 0.0, 0.0], [0.0, 0.0, 0.0, 0.0, 0.0, 0.0, 0.0, 0.0, 0.0, 0.0, 0.0, 0.0, 0.0, 0.0, 0.0, 0.0], [0.0, 0.0, 0.0, 0.0, 0.0, 0.0, 0.0, 0.0, 0.0, 0.0, 0.0, 0.0, 0.0, 0.0, 0.0, 0.0], [0.0, 0.0, 0.0, 0.0, 0.0, 0.0, 0.0, 0.0, 0.0, 0.0, 0.0, 0.0, 0.0, 0.0, 0.0, 0.0], [0.0, 0.0, 0.0, 0.0, 0.0, 0.0, 0.0, 0.0, 0.0, 0.0, 0.0, 0.0, 0.0, 0.0, 0.0, 0.0], [0.0, 0.0, 0.0, 0.0, 0.0, 0.0, 0.0, 0.0, 0.0, 0.0, 0.0, 0.0, 0.0, 0.0, 0.0, 0.0], [0.0, 0.0, 0.0, 0.0, 0.0, 0.0, 0.0, 0.0, 0.0, 0.0, 0.0, 0.0, 0.0, 0.0, 0.0, 0.0], [0.0, 0.0, 0.0, 0.0, 0.0, 0.0, 0.0, 0.0, 0.0, 0.0, 0.0, 0.0, 0.0, 0.0, 0.0, 0.0], [0.0, 0.0, 0.0, 0.0, 0.0, 0.0, 0.0, 0.0, 0.0, 0.0, 0.0, 0.0, 0.0, 0.0, 0.0, 0.0], [0.0, 0.0, 0.0, 0.0, 0.0, 0.0, 0.0, 0.0, 0.0, 0.0, 0.0, 0.0, 0.0, 0.0, 0.0, 0.0], [0.0, 0.0, 0.0, 0.0, 0.0, 0.0, 0.0, 0.0, 0.0, 0.0, 0.0, 0.0, 0.0, 0.0, 0.0, 0.0], [0.0, 0.0, 0.0, 0.0, 0.0, 0.0, 0.0, 0.0, 0.0, 0.0, 0.0, 0.0, 0.0, 0.0, 0.0, 0.0], [0.0, 0.0, 0.0, 0.0, 0.0, 0.0, 0.0, 0.0, 0.0, 0.0, 0.0, 0.0, 0.0, 0.0, 0.0, 0.0], [0.0, 0.0, 0.0, 0.0, 0.0, 0.0, 0.0, 0.0, 0.0, 0.0, 0.0, 0.0, 0.0, 0.0, 0.0, 0.0], [0.0, 0.0, 0.0, 0.0, 0.0, 0.0, 0.0, 0.0, 0.0, 0.0, 0.0, 0.0, 0.0, 0.0, 0.0, 0.0], [0.0, 0.0, 0.0, 0.0, 0.0, 0.0, 0.0, 0.0, 0.0, 0.0, 0.0, 0.0, 0.0, 0.0, 0.0, 0.0], [0.0, 0.0, 0.0, 0.0, 0.0, 0.0, 0.0, 0.0, 0.0, 0.0, 0.0, 0.0, 0.0, 0.0, 0.0, 0.0], [0.0, 0.0, 0.0, 0.0, 0.0, 0.0, 0.0, 0.0, 0.0, 0.0, 0.0, 0.0, 0.0, 0.0, 0.0, 0.0], [0.0, 0.0, 0.0, 0.0, 0.0, 0.0, 0.0, 0.0, 0.0, 0.0, 0.0, 0.0, 0.0, 0.0, 0.0, 0.0], [0.0, 0.0, 0.0, 0.0, 0.0, 0.0, 0.0, 0.0, 0.0, 0.0, 0.0, 0.0, 0.0, 0.0, 0.0, 0.0], [0.0, 0.0, 0.0, 0.0, 0.0, 0.0, 0.0, 0.0, 0.0, 0.0, 0.0, 0.0, 0.0, 0.0, 0.0, 0.0], [0.0, 0.0, 0.0, 0.0, 0.0, 0.0, 0.0, 0.0, 0.0, 0.0, 0.0, 0.0, 0.0, 0.0, 0.0, 0.0], [0.0, 0.0, 0.0, 0.0, 0.0, 0.0, 0.0, 0.0, 0.0, 0.0, 0.0, 0.0, 0.0, 0.0, 0.0, 0.0], [0.0, 0.0, 0.0, 0.0, 0.0, 0.0, 0.0, 0.0, 0.0, 0.0, 0.0, 0.0, 0.0, 0.0, 0.0, 0.0], [0.0, 0.0, 0.0, 0.0, 0.0, 0.0, 0.0, 0.0, 0.0, 0.0, 0.0, 0.0, 0.0, 0.0, 0.0, 0.0], [0.0, 0.0, 0.0, 0.0, 0.0, 0.0, 0.0, 0.0, 0.0, 0.0, 0.0, 0.0, 0.0, 0.0, 0.0, 0.0], [0.0, 0.0, 0.0, 0.0, 0.0, 0.0, 0.0, 0.0, 0.0, 0.0, 0.0, 0.0, 0.0, 0.0, 0.0, 0.0], [0.0, 0.0, 0.0, 0.0, 0.0, 0.0, 0.0, 0.0, 0.0, 0.0, 0.0, 0.0, 0.0, 0.0, 0.0, 0.0], [0.0, 0.0, 0.0, 0.0, 0.0, 0.0, 0.0, 0.0, 0.0, 0.0, 0.0, 0.0, 0.0, 0.0, 0.0, 0.0], [0.0, 0.0, 0.0, 0.0, 0.0, 0.0, 0.0, 0.0, 0.0, 0.0, 0.0, 0.0, 0.0, 0.0, 0.0, 0.0], [0.0, 0.0, 0.0, 0.0, 0.0, 0.0, 0.0, 0.0, 0.0, 0.0, 0.0, 0.0, 0.0, 0.0, 0.0, 0.0], [0.0, 0.0, 0.0, 0.0, 0.0, 0.0, 0.0, 0.0, 0.0, 0.0, 0.0, 0.0, 0.0, 0.0, 0.0, 0.0], [0.0, 0.0, 0.0, 0.0, 0.0, 0.0, 0.0, 0.0, 0.0, 0.0, 0.0, 0.0, 0.0, 0.0, 0.0, 0.0], [0.0, 0.0, 0.0, 0.0, 0.0, 0.0, 0.0, 0.0, 0.0, 0.0, 0.0, 0.0, 0.0, 0.0, 0.0, 0.0], [0.0, 0.0, 0.0, 0.0, 0.0, 0.0, 0.0, 0.0, 0.0, 0.0, 0.0, 0.0, 0.0, 0.0, 0.0, 0.0], [0.0, 0.0, 0.0, 0.0, 0.0, 0.0, 0.0, 0.0, 0.0, 0.0, 0.0, 0.0, 0.0, 0.0, 0.0, 0.0], [0.0, 0.0, 0.0, 0.0, 0.0, 0.0, 0.0, 0.0, 0.0, 0.0, 0.0, 0.0, 0.0, 0.0, 0.0, 0.0], [0.0, 0.0, 0.0, 0.0, 0.0, 0.0, 0.0, 0.0, 0.0, 0.0, 0.0, 0.0, 0.0, 0.0, 0.0, 0.0], [0.0, 0.0, 0.0, 0.0, 0.0, 0.0, 0.0, 0.0, 0.0, 0.0, 0.0, 0.0, 0.0, 0.0, 0.0, 0.0], [0.0, 0.0, 0.0, 0.0, 0.0, 0.0, 0.0, 0.0, 0.0, 0.0, 0.0, 0.0, 0.0, 0.0, 0.0, 0.0], [0.0, 0.0, 0.0, 0.0, 0.0, 0.0, 0.0, 0.0, 0.0, 0.0, 0.0, 0.0, 0.0, 0.0, 0.0, 0.0], [0.0, 0.0, 0.0, 0.0, 0.0, 0.0, 0.0, 0.0, 0.0, 0.0, 0.0, 0.0, 0.0, 0.0, 0.0, 0.0], [0.0, 0.0, 0.0, 0.0, 0.0, 0.0, 0.0, 0.0, 0.0, 0.0, 0.0, 0.0, 0.0, 0.0, 0.0, 0.0], [0.0, 0.0, 0.0, 0.0, 0.0, 0.0, 0.0, 0.0, 0.0, 0.0, 0.0, 0.0, 0.0, 0.0, 0.0, 0.0], [0.0, 0.0, 0.0, 0.0, 0.0, 0.0, 0.0, 0.0, 0.0, 0.0, 0.0, 0.0, 0.0, 0.0, 0.0, 0.0], [0.0, 0.0, 0.0, 0.0, 0.0, 0.0, 0.0, 0.0, 0.0, 0.0, 0.0, 0.0, 0.0, 0.0, 0.0, 0.0], [0.0, 0.0, 0.0, 0.0, 0.0, 0.0, 0.0, 0.0, 0.0, 0.0, 0.0, 0.0, 0.0, 0.0, 0.0, 0.0], [0.0, 0.0, 0.0, 0.0, 0.0, 0.0, 0.0, 0.0, 0.0, 0.0, 0.0, 0.0, 0.0, 0.0, 0.0, 0.0], [0.0, 0.0, 0.0, 0.0, 0.0, 0.0, 0.0, 0.0, 0.0, 0.0, 0.0, 0.0, 0.0, 0.0, 0.0, 0.0], [0.0, 0.0, 0.0, 0.0, 0.0, 0.0, 0.0, 0.0, 0.0, 0.0, 0.0, 0.0, 0.0, 0.0, 0.0, 0.0], [0.0, 0.0, 0.0, 0.0, 0.0, 0.0, 0.0, 0.0, 0.0, 0.0, 0.0, 0.0, 0.0, 0.0, 0.0, 0.0], [0.0, 0.0, 0.0, 0.0, 0.0, 0.0, 0.0, 0.0, 0.0, 0.0, 0.0, 0.0, 0.0, 0.0, 0.0, 0.0], [0.0, 0.0, 0.0, 0.0, 0.0, 0.0, 0.0, 0.0, 0.0, 0.0, 0.0, 0.0, 0.0, 0.0, 0.0, 0.0], [0.0, 0.0, 0.0, 0.0, 0.0, 0.0, 0.0, 0.0, 0.0, 0.0, 0.0, 0.0, 0.0, 0.0, 0.0, 0.0], [0.0, 0.0, 0.0, 0.0, 0.0, 0.0, 0.0, 0.0, 0.0, 0.0, 0.0, 0.0, 0.0, 0.0, 0.0, 0.0]], "vWeights": [[0.0, 0.0, 0.0, 0.0, 0.0, 0.0, 0.0, 0.0, 0.0, 0.0, 0.0, 0.0, 0.0, 0.0, 0.0, 0.0], [0.0, 0.0, 0.0, 0.0, 0.0, 0.0, 0.0, 0.0, 0.0, 0.0, 0.0, 0.0, 0.0, 0.0, 0.0, 0.0], [0.0, 0.0, 0.0, 0.0, 0.0, 0.0, 0.0, 0.0, 0.0, 0.0, 0.0, 0.0, 0.0, 0.0, 0.0, 0.0], [0.0, 0.0, 0.0, 0.0, 0.0, 0.0, 0.0, 0.0, 0.0, 0.0, 0.0, 0.0, 0.0, 0.0, 0.0, 0.0], [0.0, 0.0, 0.0, 0.0, 0.0, 0.0, 0.0, 0.0, 0.0, 0.0, 0.0, 0.0, 0.0, 0.0, 0.0, 0.0], [0.0, 0.0, 0.0, 0.0, 0.0, 0.0, 0.0, 0.0, 0.0, 0.0, 0.0, 0.0, 0.0, 0.0, 0.0, 0.0], [0.0, 0.0, 0.0, 0.0, 0.0, 0.0, 0.0, 0.0, 0.0, 0.0, 0.0, 0.0, 0.0, 0.0, 0.0, 0.0], [0.0, 0.0, 0.0, 0.0, 0.0, 0.0, 0.0, 0.0, 0.0, 0.0, 0.0, 0.0, 0.0, 0.0, 0.0, 0.0], [0.0, 0.0, 0.0, 0.0, 0.0, 0.0, 0.0, 0.0, 0.0, 0.0, 0.0, 0.0, 0.0, 0.0, 0.0, 0.0], [0.0, 0.0, 0.0, 0.0, 0.0, 0.0, 0.0, 0.0, 0.0, 0.0, 0.0, 0.0, 0.0, 0.0, 0.0, 0.0], [0.0, 0.0, 0.0, 0.0, 0.0, 0.0, 0.0, 0.0, 0.0, 0.0, 0.0, 0.0, 0.0, 0.0, 0.0, 0.0], [0.0, 0.0, 0.0, 0.0, 0.0, 0.0, 0.0, 0.0, 0.0, 0.0, 0.0, 0.0, 0.0, 0.0, 0.0, 0.0], [0.0, 0.0, 0.0, 0.0, 0.0, 0.0, 0.0, 0.0, 0.0, 0.0, 0.0, 0.0, 0.0, 0.0, 0.0, 0.0], [0.0, 0.0, 0.0, 0.0, 0.0, 0.0, 0.0, 0.0, 0.0, 0.0, 0.0, 0.0, 0.0, 0.0, 0.0, 0.0], [0.0, 0.0, 0.0, 0.0, 0.0, 0.0, 0.0, 0.0, 0.0, 0.0, 0.0, 0.0, 0.0, 0.0, 0.0, 0.0], [0.0, 0.0, 0.0, 0.0, 0.0, 0.0, 0.0, 0.0, 0.0, 0.0, 0.0, 0.0, 0.0, 0.0, 0.0, 0.0], [0.0, 0.0, 0.0, 0.0, 0.0, 0.0, 0.0, 0.0, 0.0, 0.0, 0.0, 0.0, 0.0, 0.0, 0.0, 0.0], [0.0, 0.0, 0.0, 0.0, 0.0, 0.0, 0.0, 0.0, 0.0, 0.0, 0.0, 0.0, 0.0, 0.0, 0.0, 0.0], [0.0, 0.0, 0.0, 0.0, 0.0, 0.0, 0.0, 0.0, 0.0, 0.0, 0.0, 0.0, 0.0, 0.0, 0.0, 0.0], [0.0, 0.0, 0.0, 0.0, 0.0, 0.0, 0.0, 0.0, 0.0, 0.0, 0.0, 0.0, 0.0, 0.0, 0.0, 0.0], [0.0, 0.0, 0.0, 0.0, 0.0, 0.0, 0.0, 0.0, 0.0, 0.0, 0.0, 0.0, 0.0, 0.0, 0.0, 0.0], [0.0, 0.0, 0.0, 0.0, 0.0, 0.0, 0.0, 0.0, 0.0, 0.0, 0.0, 0.0, 0.0, 0.0, 0.0, 0.0], [0.0, 0.0, 0.0, 0.0, 0.0, 0.0, 0.0, 0.0, 0.0, 0.0, 0.0, 0.0, 0.0, 0.0, 0.0, 0.0], [0.0, 0.0, 0.0, 0.0, 0.0, 0.0, 0.0, 0.0, 0.0, 0.0, 0.0, 0.0, 0.0, 0.0, 0.0, 0.0], [0.0, 0.0, 0.0, 0.0, 0.0, 0.0, 0.0, 0.0, 0.0, 0.0, 0.0, 0.0, 0.0, 0.0, 0.0, 0.0], [0.0, 0.0, 0.0, 0.0, 0.0, 0.0, 0.0, 0.0, 0.0, 0.0, 0.0, 0.0, 0.0, 0.0, 0.0, 0.0], [0.0, 0.0, 0.0, 0.0, 0.0, 0.0, 0.0, 0.0, 0.0, 0.0, 0.0, 0.0, 0.0, 0.0, 0.0, 0.0], [0.0, 0.0, 0.0, 0.0, 0.0, 0.0, 0.0, 0.0, 0.0, 0.0, 0.0, 0.0, 0.0, 0.0, 0.0, 0.0], [0.0, 0.0, 0.0, 0.0, 0.0, 0.0, 0.0, 0.0, 0.0, 0.0, 0.0, 0.0, 0.0, 0.0, 0.0, 0.0], [0.0, 0.0, 0.0, 0.0, 0.0, 0.0, 0.0, 0.0, 0.0, 0.0, 0.0, 0.0, 0.0, 0.0, 0.0, 0.0], [0.0, 0.0, 0.0, 0.0, 0.0, 0.0, 0.0, 0.0, 0.0, 0.0, 0.0, 0.0, 0.0, 0.0, 0.0, 0.0], [0.0, 0.0, 0.0, 0.0, 0.0, 0.0, 0.0, 0.0, 0.0, 0.0, 0.0, 0.0, 0.0, 0.0, 0.0, 0.0], [0.0, 0.0, 0.0, 0.0, 0.0, 0.0, 0.0, 0.0, 0.0, 0.0, 0.0, 0.0, 0.0, 0.0, 0.0, 0.0], [0.0, 0.0, 0.0, 0.0, 0.0, 0.0, 0.0, 0.0, 0.0, 0.0, 0.0, 0.0, 0.0, 0.0, 0.0, 0.0], [0.0, 0.0, 0.0, 0.0, 0.0, 0.0, 0.0, 0.0, 0.0, 0.0, 0.0, 0.0, 0.0, 0.0, 0.0, 0.0], [0.0, 0.0, 0.0, 0.0, 0.0, 0.0, 0.0, 0.0, 0.0, 0.0, 0.0, 0.0, 0.0, 0.0, 0.0, 0.0], [0.0, 0.0, 0.0, 0.0, 0.0, 0.0, 0.0, 0.0, 0.0, 0.0, 0.0, 0.0, 0.0, 0.0, 0.0, 0.0], [0.0, 0.0, 0.0, 0.0, 0.0, 0.0, 0.0, 0.0, 0.0, 0.0, 0.0, 0.0, 0.0, 0.0, 0.0, 0.0], [0.0, 0.0, 0.0, 0.0, 0.0, 0.0, 0.0, 0.0, 0.0, 0.0, 0.0, 0.0, 0.0, 0.0, 0.0, 0.0], [0.0, 0.0, 0.0, 0.0, 0.0, 0.0, 0.0, 0.0, 0.0, 0.0, 0.0, 0.0, 0.0, 0.0, 0.0, 0.0], [0.0, 0.0, 0.0, 0.0, 0.0, 0.0, 0.0, 0.0, 0.0, 0.0, 0.0, 0.0, 0.0, 0.0, 0.0, 0.0], [0.0, 0.0, 0.0, 0.0, 0.0, 0.0, 0.0, 0.0, 0.0, 0.0, 0.0, 0.0, 0.0, 0.0, 0.0, 0.0], [0.0, 0.0, 0.0, 0.0, 0.0, 0.0, 0.0, 0.0, 0.0, 0.0, 0.0, 0.0, 0.0, 0.0, 0.0, 0.0], [0.0, 0.0, 0.0, 0.0, 0.0, 0.0, 0.0, 0.0, 0.0, 0.0, 0.0, 0.0, 0.0, 0.0, 0.0, 0.0], [0.0, 0.0, 0.0, 0.0, 0.0, 0.0, 0.0, 0.0, 0.0, 0.0, 0.0, 0.0, 0.0, 0.0, 0.0, 0.0], [0.0, 0.0, 0.0, 0.0, 0.0, 0.0, 0.0, 0.0, 0.0, 0.0, 0.0, 0.0, 0.0, 0.0, 0.0, 0.0], [0.0, 0.0, 0.0, 0.0, 0.0, 0.0, 0.0, 0.0, 0.0, 0.0, 0.0, 0.0, 0.0, 0.0, 0.0, 0.0], [0.0, 0.0, 0.0, 0.0, 0.0, 0.0, 0.0, 0.0, 0.0, 0.0, 0.0, 0.0, 0.0, 0.0, 0.0, 0.0], [0.0, 0.0, 0.0, 0.0, 0.0, 0.0, 0.0, 0.0, 0.0, 0.0, 0.0, 0.0, 0.0, 0.0, 0.0, 0.0], [0.0, 0.0, 0.0, 0.0, 0.0, 0.0, 0.0, 0.0, 0.0, 0.0, 0.0, 0.0, 0.0, 0.0, 0.0, 0.0], [0.0, 0.0, 0.0, 0.0, 0.0, 0.0, 0.0, 0.0, 0.0, 0.0, 0.0, 0.0, 0.0, 0.0, 0.0, 0.0], [0.0, 0.0, 0.0, 0.0, 0.0, 0.0, 0.0, 0.0, 0.0, 0.0, 0.0, 0.0, 0.0, 0.0, 0.0, 0.0], [0.0, 0.0, 0.0, 0.0, 0.0, 0.0, 0.0, 0.0, 0.0, 0.0, 0.0, 0.0, 0.0, 0.0, 0.0, 0.0], [0.0, 0.0, 0.0, 0.0, 0.0, 0.0, 0.0, 0.0, 0.0, 0.0, 0.0, 0.0, 0.0, 0.0, 0.0, 0.0], [0.0, 0.0, 0.0, 0.0, 0.0, 0.0, 0.0, 0.0, 0.0, 0.0, 0.0, 0.0, 0.0, 0.0, 0.0, 0.0], [0.0, 0.0, 0.0, 0.0, 0.0, 0.0, 0.0, 0.0, 0.0, 0.0, 0.0, 0.0, 0.0, 0.0, 0.0, 0.0], [0.0, 0.0, 0.0, 0.0, 0.0, 0.0, 0.0, 0.0, 0.0, 0.0, 0.0, 0.0, 0.0, 0.0, 0.0, 0.0], [0.0, 0.0, 0.0, 0.0, 0.0, 0.0, 0.0, 0.0, 0.0, 0.0, 0.0, 0.0, 0.0, 0.0, 0.0, 0.0], [0.0, 0.0, 0.0, 0.0, 0.0, 0.0, 0.0, 0.0, 0.0, 0.0, 0.0, 0.0, 0.0, 0.0, 0.0, 0.0], [0.0, 0.0, 0.0, 0.0, 0.0, 0.0, 0.0, 0.0, 0.0, 0.0, 0.0, 0.0, 0.0, 0.0, 0.0, 0.0], [0.0, 0.0, 0.0, 0.0, 0.0, 0.0, 0.0, 0.0, 0.0, 0.0, 0.0, 0.0, 0.0, 0.0, 0.0, 0.0], [0.0, 0.0, 0.0, 0.0, 0.0, 0.0, 0.0, 0.0, 0.0, 0.0, 0.0, 0.0, 0.0, 0.0, 0.0, 0.0], [0.0, 0.0, 0.0, 0.0, 0.0, 0.0, 0.0, 0.0, 0.0, 0.0, 0.0, 0.0, 0.0, 0.0, 0.0, 0.0], [0.0, 0.0, 0.0, 0.0, 0.0, 0.0, 0.0, 0.0, 0.0, 0.0, 0.0, 0.0, 0.0, 0.0, 0.0, 0.0], [0.0, 0.0, 0.0, 0.0, 0.0, 0.0, 0.0, 0.0, 0.0, 0.0, 0.0, 0.0, 0.0, 0.0, 0.0, 0.0], [0.0, 0.0, 0.0, 0.0, 0.0, 0.0, 0.0, 0.0, 0.0, 0.0, 0.0, 0.0, 0.0, 0.0, 0.0, 0.0], [0.0, 0.0, 0.0, 0.0, 0.0, 0.0, 0.0, 0.0, 0.0, 0.0, 0.0, 0.0, 0.0, 0.0, 0.0, 0.0], [0.0, 0.0, 0.0, 0.0, 0.0, 0.0, 0.0, 0.0, 0.0, 0.0, 0.0, 0.0, 0.0, 0.0, 0.0, 0.0], [0.0, 0.0, 0.0, 0.0, 0.0, 0.0, 0.0, 0.0, 0.0, 0.0, 0.0, 0.0, 0.0, 0.0, 0.0, 0.0], [0.0, 0.0, 0.0, 0.0, 0.0, 0.0, 0.0, 0.0, 0.0, 0.0, 0.0, 0.0, 0.0, 0.0, 0.0, 0.0], [0.0, 0.0, 0.0, 0.0, 0.0, 0.0, 0.0, 0.0, 0.0, 0.0, 0.0, 0.0, 0.0, 0.0, 0.0, 0.0], [0.0, 0.0, 0.0, 0.0, 0.0, 0.0, 0.0, 0.0, 0.0, 0.0, 0.0, 0.0, 0.0, 0.0, 0.0, 0.0], [0.0, 0.0, 0.0, 0.0, 0.0, 0.0, 0.0, 0.0, 0.0, 0.0, 0.0, 0.0, 0.0, 0.0, 0.0, 0.0], [0.0, 0.0, 0.0, 0.0, 0.0, 0.0, 0.0, 0.0, 0.0, 0.0, 0.0, 0.0, 0.0, 0.0, 0.0, 0.0], [0.0, 0.0, 0.0, 0.0, 0.0, 0.0, 0.0, 0.0, 0.0, 0.0, 0.0, 0.0, 0.0, 0.0, 0.0, 0.0], [0.0, 0.0, 0.0, 0.0, 0.0, 0.0, 0.0, 0.0, 0.0, 0.0, 0.0, 0.0, 0.0, 0.0, 0.0, 0.0], [0.0, 0.0, 0.0, 0.0, 0.0, 0.0, 0.0, 0.0, 0.0, 0.0, 0.0, 0.0, 0.0, 0.0, 0.0, 0.0], [0.0, 0.0, 0.0, 0.0, 0.0, 0.0, 0.0, 0.0, 0.0, 0.0, 0.0, 0.0, 0.0, 0.0, 0.0, 0.0], [0.0, 0.0, 0.0, 0.0, 0.0, 0.0, 0.0, 0.0, 0.0, 0.0, 0.0, 0.0, 0.0, 0.0, 0.0, 0.0], [0.0, 0.0, 0.0, 0.0, 0.0, 0.0, 0.0, 0.0, 0.0, 0.0, 0.0, 0.0, 0.0, 0.0, 0.0, 0.0], [0.0, 0.0, 0.0, 0.0, 0.0, 0.0, 0.0, 0.0, 0.0, 0.0, 0.0, 0.0, 0.0, 0.0, 0.0, 0.0], [0.0, 0.0, 0.0, 0.0, 0.0, 0.0, 0.0, 0.0, 0.0, 0.0, 0.0, 0.0, 0.0, 0.0, 0.0, 0.0], [0.0, 0.0, 0.0, 0.0, 0.0, 0.0, 0.0, 0.0, 0.0, 0.0, 0.0, 0.0, 0.0, 0.0, 0.0, 0.0], [0.0, 0.0, 0.0, 0.0, 0.0, 0.0, 0.0, 0.0, 0.0, 0.0, 0.0, 0.0, 0.0, 0.0, 0.0, 0.0], [0.0, 0.0, 0.0, 0.0, 0.0, 0.0, 0.0, 0.0, 0.0, 0.0, 0.0, 0.0, 0.0, 0.0, 0.0, 0.0], [0.0, 0.0, 0.0, 0.0, 0.0, 0.0, 0.0, 0.0, 0.0, 0.0, 0.0, 0.0, 0.0, 0.0, 0.0, 0.0], [0.0, 0.0, 0.0, 0.0, 0.0, 0.0, 0.0, 0.0, 0.0, 0.0, 0.0, 0.0, 0.0, 0.0, 0.0, 0.0], [0.0, 0.0, 0.0, 0.0, 0.0, 0.0, 0.0, 0.0, 0.0, 0.0, 0.0, 0.0, 0.0, 0.0, 0.0, 0.0], [0.0, 0.0, 0.0, 0.0, 0.0, 0.0, 0.0, 0.0, 0.0, 0.0, 0.0, 0.0, 0.0, 0.0, 0.0, 0.0], [0.0, 0.0, 0.0, 0.0, 0.0, 0.0, 0.0, 0.0, 0.0, 0.0, 0.0, 0.0, 0.0, 0.0, 0.0, 0.0], [0.0, 0.0, 0.0, 0.0, 0.0, 0.0, 0.0, 0.0, 0.0, 0.0, 0.0, 0.0, 0.0, 0.0, 0.0, 0.0], [0.0, 0.0, 0.0, 0.0, 0.0, 0.0, 0.0, 0.0, 0.0, 0.0, 0.0, 0.0, 0.0, 0.0, 0.0, 0.0], [0.0, 0.0, 0.0, 0.0, 0.0, 0.0, 0.0, 0.0, 0.0, 0.0, 0.0, 0.0, 0.0, 0.0, 0.0, 0.0], [0.0, 0.0, 0.0, 0.0, 0.0, 0.0, 0.0, 0.0, 0.0, 0.0, 0.0, 0.0, 0.0, 0.0, 0.0, 0.0], [0.0, 0.0, 0.0, 0.0, 0.0, 0.0, 0.0, 0.0, 0.0, 0.0, 0.0, 0.0, 0.0, 0.0, 0.0, 0.0], [0.0, 0.0, 0.0, 0.0, 0.0, 0.0, 0.0, 0.0, 0.0, 0.0, 0.0, 0.0, 0.0, 0.0, 0.0, 0.0], [0.0, 0.0, 0.0, 0.0, 0.0, 0.0, 0.0, 0.0, 0.0, 0.0, 0.0, 0.0, 0.0, 0.0, 0.0, 0.0], [0.0, 0.0, 0.0, 0.0, 0.0, 0.0, 0.0, 0.0, 0.0, 0.0, 0.0, 0.0, 0.0, 0.0, 0.0, 0.0], [0.0, 0.0, 0.0, 0.0, 0.0, 0.0, 0.0, 0.0, 0.0, 0.0, 0.0, 0.0, 0.0, 0.0, 0.0, 0.0], [0.0, 0.0, 0.0, 0.0, 0.0, 0.0, 0.0, 0.0, 0.0, 0.0, 0.0, 0.0, 0.0, 0.0, 0.0, 0.0], [0.0, 0.0, 0.0, 0.0, 0.0, 0.0, 0.0, 0.0, 0.0, 0.0, 0.0, 0.0, 0.0, 0.0, 0.0, 0.0], [0.0, 0.0, 0.0, 0.0, 0.0, 0.0, 0.0, 0.0, 0.0, 0.0, 0.0, 0.0, 0.0, 0.0, 0.0, 0.0], [0.0, 0.0, 0.0, 0.0, 0.0, 0.0, 0.0, 0.0, 0.0, 0.0, 0.0, 0.0, 0.0, 0.0, 0.0, 0.0], [0.0, 0.0, 0.0, 0.0, 0.0, 0.0, 0.0, 0.0, 0.0, 0.0, 0.0, 0.0, 0.0, 0.0, 0.0, 0.0], [0.0, 0.0, 0.0, 0.0, 0.0, 0.0, 0.0, 0.0, 0.0, 0.0, 0.0, 0.0, 0.0, 0.0, 0.0, 0.0], [0.0, 0.0, 0.0, 0.0, 0.0, 0.0, 0.0, 0.0, 0.0, 0.0, 0.0, 0.0, 0.0, 0.0, 0.0, 0.0], [0.0, 0.0, 0.0, 0.0, 0.0, 0.0, 0.0, 0.0, 0.0, 0.0, 0.0, 0.0, 0.0, 0.0, 0.0, 0.0], [0.0, 0.0, 0.0, 0.0, 0.0, 0.0, 0.0, 0.0, 0.0, 0.0, 0.0, 0.0, 0.0, 0.0, 0.0, 0.0], [0.0, 0.0, 0.0, 0.0, 0.0, 0.0, 0.0, 0.0, 0.0, 0.0, 0.0, 0.0, 0.0, 0.0, 0.0, 0.0], [0.0, 0.0, 0.0, 0.0, 0.0, 0.0, 0.0, 0.0, 0.0, 0.0, 0.0, 0.0, 0.0, 0.0, 0.0, 0.0], [0.0, 0.0, 0.0, 0.0, 0.0, 0.0, 0.0, 0.0, 0.0, 0.0, 0.0, 0.0, 0.0, 0.0, 0.0, 0.0], [0.0, 0.0, 0.0, 0.0, 0.0, 0.0, 0.0, 0.0, 0.0, 0.0, 0.0, 0.0, 0.0, 0.0, 0.0, 0.0], [0.0, 0.0, 0.0, 0.0, 0.0, 0.0, 0.0, 0.0, 0.0, 0.0, 0.0, 0.0, 0.0, 0.0, 0.0, 0.0], [0.0, 0.0, 0.0, 0.0, 0.0, 0.0, 0.0, 0.0, 0.0, 0.0, 0.0, 0.0, 0.0, 0.0, 0.0, 0.0], [0.0, 0.0, 0.0, 0.0, 0.0, 0.0, 0.0, 0.0, 0.0, 0.0, 0.0, 0.0, 0.0, 0.0, 0.0, 0.0], [0.0, 0.0, 0.0, 0.0, 0.0, 0.0, 0.0, 0.0, 0.0, 0.0, 0.0, 0.0, 0.0, 0.0, 0.0, 0.0], [0.0, 0.0, 0.0, 0.0, 0.0, 0.0, 0.0, 0.0, 0.0, 0.0, 0.0, 0.0, 0.0, 0.0, 0.0, 0.0], [0.0, 0.0, 0.0, 0.0, 0.0, 0.0, 0.0, 0.0, 0.0, 0.0, 0.0, 0.0, 0.0, 0.0, 0.0, 0.0], [0.0, 0.0, 0.0, 0.0, 0.0, 0.0, 0.0, 0.0, 0.0, 0.0, 0.0, 0.0, 0.0, 0.0, 0.0, 0.0], [0.0, 0.0, 0.0, 0.0, 0.0, 0.0, 0.0, 0.0, 0.0, 0.0, 0.0, 0.0, 0.0, 0.0, 0.0, 0.0], [0.0, 0.0, 0.0, 0.0, 0.0, 0.0, 0.0, 0.0, 0.0, 0.0, 0.0, 0.0, 0.0, 0.0, 0.0, 0.0], [0.0, 0.0, 0.0, 0.0, 0.0, 0.0, 0.0, 0.0, 0.0, 0.0, 0.0, 0.0, 0.0, 0.0, 0.0, 0.0]], "mBiases": [[0.0, 0.0, 0.0, 0.0, 0.0, 0.0, 0.0, 0.0, 0.0, 0.0, 0.0, 0.0, 0.0, 0.0, 0.0, 0.0]], "vBiases": [[0.0, 0.0, 0.0, 0.0, 0.0, 0.0, 0.0, 0.0, 0.0, 0.0, 0.0, 0.0, 0.0, 0.0, 0.0, 0.0]], "beta1": 0.9, "beta2": 0.999, "epsilon": 1e-08}, {"inputSize": 16, "outputSize": 4, "activation": "softmax", "weights": [[-0.06385075371528136, 0.12987928578757185, -0.2131218464360149, 0.12741725655830952], [0.1669804303539301, -0.5750748909663833, 0.4635973915936809, -0.20261616230710125], [0.8881604049255255, -1.8771400689753361, 0.36821250932023303, -0.42840575079457205], [-0.822053531425415, -0.03420947741057944, 0.3419880946619046, -1.142344848111658], [0.731731837289504, -1.031031157692851, 0.8995068573907019, 0.40069558913272935], [0.2593960701617802, 0.9745369257500505, -0.6590790772160738, 0.9493258025514205], [-0.7427903925155377, -1.3377361821421194, -0.7955118187258072, -1.0907901025865558], [-0.6116408068478321, 0.0943182371711681, 0.04995085343173163, 0.807852657522098], [-0.26181944715886424, -0.1828703422198817, -0.949296120709957, -1.3655788413456016], [0.441559958614163, -0.2576060371479159, 0.058509408692803924, 0.11210478039112369], [0.1916042112403878, -0.20863970647909563, 0.26235387558492435, -0.0858504586413385], [0.40581482365903626, -0.30574564218179123, 0.19483427439178888, -0.3905501142323449], [-1.1875705833101402, -1.0733181037358694, -1.0499278963925058, -0.7932366963129174], [-0.8291531701466627, -0.6703764198869343, -1.038499831772366, -0.11972937994107752], [-0.47093871846444785, 0.45126668791477353, -0.1485291153181029, 0.4209853037917579], [0.7367242849186157, 0.2310546844288389, -0.12877582427983947, 0.07268875051588665]], "bias": [[-0.21639390048828033, -0.5436376996785073, -0.2903941304358556, -0.03999947290310991]], "mWeights": [[0.0, 0.0, 0.0, 0.0], [0.0, 0.0, 0.0, 0.0], [0.0, 0.0, 0.0, 0.0], [0.0, 0.0, 0.0, 0.0], [0.0, 0.0, 0.0, 0.0], [0.0, 0.0, 0.0, 0.0], [0.0, 0.0, 0.0, 0.0], [0.0, 0.0, 0.0, 0.0], [0.0, 0.0, 0.0, 0.0], [0.0, 0.0, 0.0, 0.0], [0.0, 0.0, 0.0, 0.0], [0.0, 0.0, 0.0, 0.0], [0.0, 0.0, 0.0, 0.0], [0.0, 0.0, 0.0, 0.0], [0.0, 0.0, 0.0, 0.0], [0.0, 0.0, 0.0, 0.0]], "vWeights": [[0.0, 0.0, 0.0, 0.0], [0.0, 0.0, 0.0, 0.0], [0.0, 0.0, 0.0, 0.0], [0.0, 0.0, 0.0, 0.0], [0.0, 0.0, 0.0, 0.0], [0.0, 0.0, 0.0, 0.0], [0.0, 0.0, 0.0, 0.0], [0.0, 0.0, 0.0, 0.0], [0.0, 0.0, 0.0, 0.0], [0.0, 0.0, 0.0, 0.0], [0.0, 0.0, 0.0, 0.0], [0.0, 0.0, 0.0, 0.0], [0.0, 0.0, 0.0, 0.0], [0.0, 0.0, 0.0, 0.0], [0.0, 0.0, 0.0, 0.0], [0.0, 0.0, 0.0, 0.0]], "mBiases": [[0.0, 0.0, 0.0, 0.0]], "vBiases": [[0.0, 0.0, 0.0, 0.0]], "beta1": 0.9, "beta2": 0.999, "epsilon": 1e-08}], "name": "snake", "accuracy": 0}