{"layers": [{"inputSize": 122, "outputSize": 16, "activation": "relu", "weights": [[-0.25761923448670243, 0.23386854079324443, -0.1652336394518209, -0.06582489637670172, -0.19378226495043385, -0.05590885033758612, -0.1554325207279717, 0.19711111563558675, 0.12273812081480565, -0.17772473728078264, 0.11043263873650197, -0.12354313750892998, 0.3187655769009628, 0.07843328871766905, -0.1371793768505284, 0.28426266578608905], [-0.02050667970936811, 0.31267265001078787, -0.05160233452816306, -0.06812849429007314, -0.08839945189024855, 0.10020510182172093, 0.16057917944314215, 0.17290314695488362, -0.028574603565514858, -0.0942109059242599, 0.01800439690577345, 0.10792195975774949, 0.03842029420397808, -0.018220253812951247, -0.003267037124362488, 0.1283720600202899], [0.09307136527166562, -0.15916128580566571, 0.0292972183565209, -0.04008151329678073, -0.059285743666459, 0.1250253371532176, 0.2765487264547998, -0.008202361628950328, -0.020723912758425382, -0.26452885979519364, 0.2711814708197228, 0.09945178605593633, 0.47735004984728385, 0.243872854571166, 0.04833362656993279, 0.218447759461964], [-0.0016202347733993558, 0.09383846771093254, 0.05314659015207555, -0.2500503444955081, -0.1448180918714217, 0.37469028420946715, 0.33340124136116306, 0.05716900870973792, -0.0856660521001764, -0.10809116635909188, -0.054290953325398135, -0.10386566200005815, 0.2677458134594058, 0.25217516258929706, -0.1315559468691784, 0.0743357323222996], [-0.016268825957219613, 0.12332886117677855, -0.03164796583659469, -0.03411413177200252, -0.08970811651131876, 0.06677124426095768, 0.27766010387348145, -0.08724265035991044, 0.07506010251818845, 0.1641408653903843, 0.021939693946244638, -0.01966118478120838, 0.3876123122961836, 0.4626298167682173, -0.06244032142731421, 0.08719573250142336], [-0.2352296531431951, -0.0038012620335897305, 0.14494261944602385, -0.15722610081075555, -0.052968977778822014, -0.04986096696992153, 0.31558533987865106, -0.18858956806007576, 0.032041125940397715, -0.02925077463272243, 0.03460840431088788, 0.0031240488230103616, 0.3028469859249766, 0.2946396128316173, 0.009341058444197857, 0.0528705626619258], [-0.06988783261854556, 0.024866980859797553, -0.14960990093982238, -0.12126734106074431, -0.17682452344188002, -0.03505419397702064, 0.5084080721098858, -0.09818641207788519, 0.07817305923737411, -0.04767925987400635, -0.0774391378430278, 0.07278142437470017, 0.5456313258858894, 0.5516205948052503, -0.17497922265925403, -0.052413029876165966], [0.2503987001617354, 0.07597466310605046, -0.027637182743188472, -0.27017189234952765, 0.031145577493469148, -0.20317113880403787, 0.25864849237910403, 0.0932714576516747, 0.14976684136075966, -0.09529634057704303, -0.059562057490902466, -0.004447020392866064, 0.29654291201956684, 0.18953286564970168, -0.01945861994507627, 0.19760792586068207], [0.055410964622461194, 0.23309058806354363, 0.09502796065973271, -0.05443066308366631, 0.14029132501151884, 0.24438334314903432, 0.20094024591039847, 0.15396220916250974, 0.11932869007165932, -0.2577797483451101, 0.04220473245507338, -0.27969621141655693, 0.12694433156976412, 0.3136125228947852, 0.19481593672319977, 0.29863728495615666], [0.013887099988626021, 0.26511689877719236, 0.1350669229393372, -0.34726484966141075, 0.2445689053689718, -0.20247946658406718, -0.05088984112514607, 0.09583524927208929, 0.06972134903130586, 0.10385549055794684, 0.17390659385188192, -0.10208232477346725, 0.05608331299030288, 0.28140166337366324, -0.10960174465723173, -0.288621589210063], [-0.014031343023325139, -0.003529034953182117, -0.027560907920610715, -0.20303419675523462, 0.005912792756333695, -0.0005539452101063391, 0.004601132883615655, -0.027481026552722818, -0.10736335087968404, -0.10204713224271475, -0.0636666622208047, 0.18364221273936848, -0.05073953714137969, -0.13924099271162357, 0.20842232328601812, -0.052260093928845924], [-0.00016829394649193048, -0.102525359655921, 0.0180334641891155, 0.13482144091538217, -0.16573762034674083, 0.09873134169353225, 0.18661251311065408, 0.1030519357887998, -0.059855270420144525, -0.04703439976562548, 0.2481497177087324, 0.037350673651573914, 0.3354102786017651, 0.21417278404414253, -0.07908217450863518, -0.06096760159003483], [0.03426910388289264, 0.06245917886074019, -0.12087222898404744, 0.07063667208368564, -0.04503017712111623, 0.10523065745524895, 0.3737080391516832, 0.026116899922826595, 0.1382335501674021, -0.02558718613131186, -0.02821876813976441, 0.2668387660267092, 0.8267538302793028, 0.6315450582991797, -0.14461458666292124, -0.14595277760064887], [0.07922966414208887, -0.0333986002153217, -0.06204677494850913, -0.014319144086078366, 0.03032170121281602, 0.18969996292645194, 0.6268436537048939, 0.14608772072724863, 0.23231606787221876, -0.14697455653086713, 0.0572644978637093, -0.20134174802700483, 0.45259558175768594, 0.6611189728359502, -0.1273231123855528, -0.020152433466369923], [-0.20948363790929925, 0.04013096019626641, -0.004709938231076314, -0.025467365598844858, -0.188738404544219, 0.10002229483772351, 0.5049151723557652, 0.021734787554874454, 0.09629194875151105, 0.032096903349829266, 0.06696099427469383, 0.21828628209315404, 0.4818464382414146, 0.5930671187515495, 0.06287597947337899, -0.14237261735210305], [-0.14400066126356897, -0.14161752935454613, 0.21418945894124233, 0.19183320061557407, -0.04427035353688615, -0.12274397641120514, 0.7260390859069537, -0.06364560583496287, 0.3531382553722155, 0.14512618282730472, -0.19861767506606637, 0.24526524256973692, 1.3117100657584202, 0.869011614932609, -0.10124949719707096, -0.017695974502119217], [0.06116766961237915, -0.6573098617549079, -2.240657753190133, -2.569999434329199, 0.5365031822695362, -0.14537753753389146, -2.776809148217738, -0.11931502679954153, -2.400057660326859, -0.00704284051295005, 0.18266722769504642, -3.120907314707632, -2.260835289562831, -2.6199973345918166, -0.1166735503359132, 0.16825725654396168], [-0.1528223572135193, -0.3903410347484489, -1.9611986319244852, -1.5658077504377934, 1.6544055797917039, -0.2919563775532566, -2.6365046806083665, 0.03850621706958977, -2.4903962861864817, -0.07271387445582901, -0.04313911760480231, -2.977609444797911, -2.5850568911557534, -2.6557510254922505, -0.1550063517224024, -0.053703291959066], [-0.09890644619893235, -0.4476580692695492, -2.214670590084239, -3.085368144832655, 2.633280158676911, -0.04725460992486657, -3.0393628936548516, -0.16767139527997085, -3.309333235763976, 0.3820747474540959, -0.0812023617009259, -3.2088607856635822, -2.5650104862842955, -2.25310031084087, 0.10110746122078534, -0.013697776338498703], [-0.03356171998984, 0.019504765015803747, 0.04314123842411589, -0.28827074491292504, 0.20224722974281523, -0.20575831325468735, -0.08606926375823483, -0.21147241515358792, -0.12247603566214213, -0.09145708513704567, -0.07536377209195541, -0.12845607586387986, 0.3303235932712559, 0.18256467272573346, -0.029667836316326537, 0.09136234740612684], [-0.009602806879106071, 0.014534284295490195, -0.05653541006027683, -0.10307876386453169, -0.21640125659569942, -0.03541333651669271, 0.31231236770530896, -0.1398857741347858, -0.010480667278018642, 0.11376497220255655, 0.13225353018591718, -0.036350000524595284, 0.43196107171867654, 0.45361087575132303, -0.18906565485074492, 0.155584853698864], [0.11924588467961265, 0.12284037929796122, 0.20557958216906433, -0.10952783481308978, 0.05655425179854831, 0.03590883548648794, 0.07652656096760944, -0.2614932190787946, 0.019735750776073854, -0.03767407993712757, -0.12907484325272914, 0.011799518843903754, 0.1088636511623272, 0.11578455048492861, -0.07647194373321524, 0.03673821443041018], [-0.010827168374816249, -0.05594642317298018, -0.11508373062967613, 0.37653019214784517, -0.16796569522698812, 0.2249950192601607, 0.2833961307817119, 0.11845360510940314, -0.06386201271107286, 0.06181604642485744, -0.15466522600608731, 0.15043187479474324, 0.7040102945697345, 0.4131901851621084, 0.046024118252855704, -0.08779367929082794], [-0.04359461810241924, -0.0921984342364289, 0.015495850150712044, 0.3041682656616391, -0.0580587318731976, 0.2912538109891035, 0.6067084682553141, -0.13237515834255906, 0.33103619212862057, 0.25589308104935965, 0.10365168984143773, -0.009721355780530662, 1.0271319022436316, 0.7618727382199204, -0.01880671266261018, 0.13816910631425347], [0.0862196331904895, 0.03246320726222382, -0.13370543533612997, 0.16110920219768676, -0.21574336894165222, 0.2217895566971928, 0.4611613010918985, -0.045529117729543864, 0.19000414241311697, 0.1779702781646715, -0.06547438057681837, -0.10543023478723745, 1.1261617718780974, 0.530973327218499, 0.02556885764133371, 0.08057634638120073], [0.27249993112285514, 0.021392326335746847, -0.04876581329930931, 0.18151116062803074, 0.024314489725226474, 0.08086121898299364, 0.25984844309888444, 0.016495401301618043, 0.13595339935809184, -0.3094124304705673, -0.0075139249267918255, 0.09874646854855615, 0.8524096874057302, 0.3377041905496674, 0.21927225327292224, -0.07168101371461875], [0.008028363821364175, 0.03710223015732051, 0.14005325214596578, 0.6389670279321693, -0.661485228356617, 0.10936549246663418, 1.86709171606428, 0.03430681578082855, 0.7510759317900708, -0.12215052701582371, -0.12710172867274264, 0.1312762203052774, 2.168541703800246, 1.4328070510439663, -0.08504648351103752, 0.061842782763507416], [-0.08996744243399454, -0.13301117590476091, -2.9371813156209203, -0.37649879886451243, 3.0036948922647198, -1.6540015652947933, -0.8892004387233822, 0.04449882322791176, -1.8428333105076697, 0.2380389940906951, 0.1655912818669685, -2.2403870026992743, -0.6475989158676683, -1.9657234546826845, -0.16511710900436732, -0.12522285167942696], [0.1518783945436275, -0.2259589842860905, -2.3506669780448077, -3.945479504411327, 3.502426591091688, 0.19170844720472355, -3.3082621593128883, -0.249104088806456, -3.05139094384575, 0.15273204305422117, 0.16621261418151, -3.122666024525729, -3.304761021593335, -3.176311896140396, -0.049010431138047476, -0.06422486459845425], [0.005785520556848514, -0.43700358131688644, -2.165963699314382, -2.8503006728025615, 2.3514186634393592, -0.06520647693379439, -2.664119154710613, 0.07084835065998048, -2.7988224052142736, 0.2937348044138632, -0.037384340639887714, -2.705825704247162, -2.2939158567916906, -2.176617570183718, 0.20142193194920663, -0.07281692967396386], [0.13416997313654414, -0.029350834988558644, -0.08074617891566345, -0.4762817522418958, 0.1957387038807678, -0.14050883957154528, -0.03427921525121956, 0.09928835971234155, -0.2884843881663016, 0.08688223286896253, 0.12736721436124007, -0.007727737233092576, 0.07142565543556677, -0.12198181075720566, 0.03394809608268952, 0.03477408218523398], [-0.015568959728467825, 0.47852321245258184, -0.07515461186179924, -0.2356111658816164, 0.17174907069221784, 0.040708116271612346, 0.26150030110389466, -0.023525583958404556, -0.1328466610092804, 0.03231899105307874, -0.14516090377149668, -0.004329497620890342, 0.3341448026395254, 0.17602542068769292, -0.2758622300758327, -0.0866029091299981], [0.033632139792926334, 0.05475424366607712, -0.025473362567500234, -0.27286443506490343, -0.07311950391344638, 0.040918206525078375, 0.39020505125309884, 0.26924052062454734, 0.12105139765369782, 0.016822072308676314, -0.03269134380392825, -0.24151319851263017, 0.233834747788946, 0.02285613929189985, 0.009200865388202051, 0.005391598588532934], [0.14432509137007812, 0.03159148545073828, 0.0680741121134711, 0.528768765870654, 0.009950599455298236, 0.2775430034441, 0.14745872611178873, 0.09912067573302955, -0.02135009738965869, -0.18616772634029274, -0.10441112353931224, 0.0743986460972954, 1.2718402401761888, 0.7353558750591193, -0.210426128481923, 0.10526972461299534], [0.05057743434140482, -0.2878668302914624, -0.06523233024090712, 0.3445435163121704, -0.04291223631075871, 0.09817371716750833, 0.7159354400974581, -0.00856119674862347, 0.3859820460415968, 0.12102242460660786, -0.0395931264508418, -0.15754764507118668, 1.415905053555944, 0.6630279376789783, -0.24647947987582353, -0.0814234320666683], [0.10048897062040428, -0.06745538544436652, -0.06765085939949071, 0.23193743001395714, -0.1397122954961774, 0.10152624773303978, 0.8170805537993496, -0.10019795896156469, 0.3024266678458925, 0.16032528743184973, 0.05150008221759014, -0.07707543001617068, 0.8783239408227603, 0.9107298303038095, 0.11803655359277251, -0.10413320549795518], [0.05218233104639155, 0.06472736205376546, -0.0002980400767025787, 0.45727047196125026, -0.23990630649938188, 0.13802454788012142, 0.5515078012403941, 0.06753199272831067, 0.20384824697197454, -0.0716409565041487, -0.06017251849422455, -0.016137211316999536, 0.5837164828548632, 1.0443206209018743, 0.09693812716754648, -0.03109740529880888], [-0.12415785623749358, -0.1924147631225827, 1.9960864608803557, 1.4033791129352118, -1.4179621894850216, 0.7631496068394755, 3.34241940092017, 0.001636896850143051, 2.2605509920903457, -0.11318567437249936, 0.07695333921891848, 1.8176271254055427, 3.653260797104334, 3.3835719645302813, -0.18380631037100423, 0.2645690569781078], [-0.12715645614655113, -0.06667969654921269, 0.4807080822564589, -1.1633269859662392, 0.5291748505170278, 2.654262208379258, -0.11589805762972911, -0.051997201424048234, -0.09404130936408175, -0.08240880588158411, 0.014090276567479505, -0.14328822805339989, -0.4948423425210583, -0.7578796673337972, 0.06820032383985362, -0.11051911045738923], [-0.00568680216347016, -0.07891622505230778, -2.630903393005274, -1.9312012295939962, 2.6837615447183016, 0.25730661386790565, -1.6259393654090446, -0.4954940276872658, -2.4168237533991808, 0.15054811195138026, -0.1592156481611934, -2.5838833478259535, -1.786734740388325, -2.006471571711745, -0.03548461603918702, 0.12329847963419477], [0.16485516073474452, -0.36819832698236993, -1.8714428098832463, -2.5957070511749074, 1.9168692345713723, 0.02036495589723444, -1.9257952884198477, 0.012870908290057177, -2.052430863650014, 0.18771815472180953, -0.05233596791184976, -2.459810594397423, -1.4441316858605295, -1.9352400138694676, -0.033093102822841135, 0.09078400986137652], [-0.06719536198829834, -0.0088136400152621, -0.184264668048763, -0.5814596567153186, 0.3257156437189921, 0.02989766894413666, 0.21584972583263765, -0.09619568164073683, -0.25943235802752734, 0.10528443114934281, -0.030706260296500098, -0.148668429813136, 0.4323361444767223, -0.13673847765790448, 0.20850098783741478, -0.1541609413544489], [-0.06054581567156908, -0.05169259869436212, -0.016046980860927065, -0.19500185806102663, -0.10623189910848542, -0.1334608952629401, 0.5330080823954805, 0.006609311887293805, 0.24796969886697068, 0.03275553301610273, 0.15321908174093649, 0.19420892322817987, 0.5513050097675247, 0.28389243436401534, -0.07039664239689246, 0.11558881198864662], [0.04182875074734123, -0.10939042282467197, 0.040811227504006266, 0.04590398433585451, -0.04568912539419677, 0.00890674487508415, 0.7523963712269622, -0.003696278746970263, -0.007592696575556188, 0.08156513757328329, 0.01466747530217617, 0.01637678501447965, 0.7974994996225632, 0.6644430401203156, -0.04452314731802489, 0.004417000326172933], [0.04374947170961265, 0.08888383194530154, -0.2122300003409594, -0.1162020051777913, -0.20414346652189666, 0.4460782018147028, -0.3148629364986609, -0.006719664514059108, -0.5586352510526224, -0.1425232842415398, -0.1096371541606445, -0.07283428017306659, 0.10834897135945702, 0.5214927514640455, -0.23464358344289493, -0.040328875682931455], [-0.14251133121293288, -0.04089558362317492, -0.028921118640808215, 0.16086951818886067, -0.28298595793961706, 0.275825497151576, 0.6393604505901086, -0.2410296436255342, 0.18273328692102328, -0.11817881017331576, 0.08596477178619305, -0.20289343561517426, 0.703067012170909, 0.4057260342109577, -0.03614305652676055, 0.08921864894704956], [-0.09365892252977316, -0.015919884799628685, 0.12671695212808912, 0.5162506926463495, -0.32861484508815664, 0.3769823899211691, 1.139303142987309, 0.015139980907215666, 0.6151176195008236, 0.13820117979951496, 0.19052957759215838, 0.17577754819085248, 1.0215818626710333, 1.0998609939560084, -0.01447683198752266, 0.07398214105620776], [0.12093252847199192, -0.002575087742323108, -0.1933984026330686, -0.1001094316690964, 0.19514667512054845, 0.35721323895608903, 0.27731631335040985, -0.009858623166095662, 0.16717737220293508, 0.13262296665522427, -0.018859256452896753, 0.21119928538292854, -0.09379242212664562, 0.5598864365939095, 0.042877298962088015, 0.03975675775963348], [0.0191502822780865, -0.2464388915917379, -1.866524285834695, -0.6043379937943292, 0.7309965957875547, 1.377539566726666, -0.3531230004508474, -0.0481647559780258, -0.6774091400960867, 0.015927585345287387, -0.06490887662567868, 0.13060539256713216, -0.7470771705462335, 0.16149571262999834, 0.05142662582774855, -0.023329751355785855], [-0.09058018578275318, 0.255652173663447, 0.5089631179105861, 2.872670783647764, -0.4962850852489198, 0.19491573402417345, 2.9497074092151165, -0.04027081503288279, 2.6234519245714694, -0.21661745573970528, 0.3131625405241884, 3.0315255434171777, 3.322812216596835, 3.103640895627097, 0.21744430962628328, 0.08087221231131098], [0.272294357691863, -0.09712787284016569, -1.164703220736446, -0.7865443306720418, 1.8556440587730632, 0.3204766829976081, 0.03166462208516994, -0.002322272054035669, -1.1588997867814217, 0.09527931397119495, -0.01967911217708806, -1.8926829398658767, -0.4587336028679255, -1.0296783292429121, 0.32109408525179856, -0.04409478815497916], [-0.026090435090356415, -0.184046657426628, -1.8358579089037943, -2.4160630489495394, 1.4151383677607792, -0.31689537152513353, -1.9050671010259463, 0.05016028758247598, -1.1071958091158038, -0.12881689085177633, 0.08201660953929758, -2.5722658424030245, -1.8891541406039947, -2.456211551523019, -0.09915093263240482, -0.09999317806423114], [0.21124278200066587, -0.11053710498874587, -2.001057328037718, -2.3437047425493414, 1.2641545504633223, -0.5056499570382308, -1.6513106840415366, -0.0035129083989395887, -1.9998319128365103, 0.0615511774344257, 0.015622528491597678, -2.8227075373090185, -1.7404128373023011, -2.003090069801919, 0.013742704070269765, 0.09294990067805456], [-0.1073433084472904, 0.09906099666152188, 0.283872909562675, 0.22906552986131112, -0.16532651112292981, -0.14952412918592284, 1.1178098973739468, 0.10785807848209604, 0.7321524638560342, -0.009657026241077431, 0.005757419974358563, 0.3944672705402291, 1.2064310017671738, 0.6292535818101974, -0.004366351666040732, -0.13024202523494288], [-0.06807603024393288, 0.0669222398448936, 0.000868491133779632, -0.02985008024020229, -0.2001764422333239, -0.3695199482415396, 0.6347795292494686, 0.04761838483172483, 0.2747200510636737, -0.18822532068848452, -0.048734447825555034, 0.2962111740421674, 0.9720071467747297, 0.5729130668644843, -0.2417073240083581, 0.04175768119669107], [0.1069647194116969, -0.3313868876900144, -2.7615534424218544, -3.659939779627435, 2.6905808725011515, 4.445079281584809, -4.148194387059689, -0.17376331403379727, -4.156065578608014, -0.009782701535895428, 0.1978188093420775, -2.822094811354116, -3.62166018043196, -0.7937637081976473, 0.05533562972387923, -0.17176888216547928], [-0.035981857767666325, -0.1009099733137867, 1.2687679504142992, 1.8342918446448484, -0.45308990890106304, 0.4819419174852326, 3.1777962005667884, -0.1218634009498043, 2.283670199612203, -0.03929706927489193, 0.21795333455956825, 2.0446388170718546, 2.496302998106203, 2.612690261874452, -0.18984740572855366, -0.20129728659835924], [-0.08762276754329935, -0.05433485773477399, 1.1063381207298653, 1.5216306964492512, -0.5855223971771668, 0.28306427963880487, 2.6710105968682565, -0.16283115251210736, 2.127991185702308, -0.13780028654316717, -0.15596464096063872, 1.9187577252688113, 2.1722374442494905, 2.327503130120012, 0.07010517312603486, 0.0385326880507553], [0.18797174202175054, -0.21417061205406493, 0.7435321701651681, 0.8162337883032313, -0.48125558889633524, 0.2648291726108729, 0.7860020811576137, -0.014625567816724668, 1.1691499618421288, -0.02320464331575327, 0.030759567971931155, 1.0984705101155186, 1.026324436960584, 1.1037980224034638, -0.07992138265271369, 0.32642474252064874], [-0.22075463696349434, -0.138333334246852, -0.07036029366847325, -0.5378550324026061, -0.7288818742236478, 1.6577693781153129, -0.9964426267664475, 0.01770417587910142, -0.15530092255825143, 0.24501901241455915, 0.05127629120535379, -0.2630927352137937, -0.7421875400675907, -0.16940834810898528, -0.16911865645985902, 0.21630782132029214], [0.033400992456803766, -0.1941442008672121, 1.9436718134443016, 2.2239269863228284, 1.3208211109621097, 1.7874685102294665, 0.2941340379193993, 0.11113805373583995, 0.4196957233070632, 0.0656268253975799, -0.30103595428990937, 1.34179454736191, 0.19883979127282217, 0.13437522540221872, 0.41604840957548006, 0.17304639702247673], [0.35132009753756693, 0.1172927159037525, -2.23090547350761, -1.51753106781636, 2.2131885814835446, -0.2923291321821343, -0.83293580336872, -0.03672684185594169, -2.2577383717785984, 0.0659220095448931, -0.1393762123351803, -1.8495261793897941, -0.9201266423115608, -0.7497399452623564, 0.037140520398705905, -0.24495656341161684], [0.12696042609676617, 0.01828084644237676, -1.022432743117391, -1.390368073132226, 1.9587731980885326, -0.3221830819570431, -0.29406969817892165, -0.20962631084673422, -0.7448846985338875, 0.26330779512730196, -0.06612507448067181, -0.3046647734856158, -0.12118919001708799, -0.26394892941152615, 0.005604648860258581, 0.19099680565641602], [0.1774670548918413, -0.12886666888481452, -0.5687843745760465, -2.4432051410016538, 2.21538752306914, -0.10492746298252792, -1.7655436617719362, 0.18569929696485715, -1.7000102154118473, 0.052785322386636094, 0.033917224427973465, -1.8753097477736178, -1.8644828974551853, -2.0454047249936425, -0.2634847089476654, -0.17147515949071945], [-0.06493106426997157, -0.03490346963738342, 0.1656219616918412, 0.14812896468089337, -0.11485615145352782, -0.18840070955798996, 0.8754515814131569, 0.0961626883867153, 0.5991652185475118, -0.04751799207783994, 0.3453638303221605, 0.5276758047380964, 0.6687529371357458, 0.3750156765278155, -0.08812841874814904, -0.08191344380020121], [-0.007295524119584141, -0.14482726465497892, 0.4443468747343188, -0.1700122936091362, -0.12594541441137103, -0.18067949593908736, 0.7340908318796011, 0.0941163912625607, 0.22530894626734652, -0.01236866505805366, -0.001533551989079062, 0.4412858354478476, 0.17695735949034086, 0.12322966569201596, 0.40139863736058745, 0.20946574502024992], [-0.08877892901124937, 0.013429887964959185, 1.041446629731416, 1.1530296693081477, -0.7349867087266865, 1.208308339823071, 2.1118106761305806, -0.2435803684571804, 2.4960408706706514, 0.27451079718268917, -0.05030024120872408, 1.6996388422115674, 1.7987090366462983, 1.975582760963348, -0.06081452166354205, 0.10591303701887876], [0.08247708856482977, 0.30630473473208336, 1.2471704984783758, 1.9005446049263108, -0.7735668758871507, 0.4496478730462309, 2.4852027278235393, -0.10603028921281778, 3.4796034899517974, 0.1342232167102418, -0.12673282619977605, 1.8532371587818437, 2.01992322257884, 1.8922918172005299, -0.12244090449759618, -0.0313289947866522], [-0.02988125146294116, 0.2593829717764729, 1.2777451321349684, 2.090314080610178, -1.2999585871275, -0.10698814053859977, 3.058881985912935, -0.03223014842427911, 3.163579037060076, -0.2142488578425239, 0.24588660441257087, 2.8887642492177004, 3.3600514154872805, 3.867578675701051, -0.1386041267639344, -0.13271981525925647], [-0.049282670179331016, 0.08518034019477336, 1.4675742227551904, 2.2500090092928304, -0.8256278456662349, 0.4533328321876034, 2.7972427791222105, -0.16768282082652755, 2.843002441685755, 0.04407037161087847, 0.015924885460285806, 2.1182806808713455, 2.8564206598895843, 2.8761863964768946, 0.040226177817317584, 0.11338475394781515], [-0.02655162353505204, -0.03222695965718007, 0.2514659680785212, 1.0549033494198443, 0.33862913187215066, 0.33299493593511076, 1.6930852242025611, 0.26069788008503236, 1.028750393666375, 0.13038608871477717, -0.006300959671036388, 1.9048925582944307, 1.2512654885048284, 1.3760249652476506, 0.06835363376798977, -0.03202385419072502], [0.10994379503116052, 0.08646908557482058, 0.2958483334895634, 0.8864541726918861, 0.625155021553711, 0.1825253682367717, 1.3612205568356188, 0.07816344563025482, 1.4299902012590064, -0.10899577381935292, 0.08981435169809741, 1.2055432917424185, 0.9129299577964908, 1.5421646152461683, -0.1218946206788421, 0.17392460810793697], [0.07710546381562143, -0.021161100737958034, -1.7323746873483448, -0.6838534930472995, 1.9925009604527804, -0.3452884916419392, 0.05955425892860443, 0.16032717201558855, 0.2953835858343214, 0.3018965490204985, -0.0704008732444013, -0.051253222928304774, -0.35472268266085094, -0.42765737777270024, -0.13744667343431347, -0.10075510429218422], [0.2190370151731352, -0.008780177712883782, 0.10911377315687185, 0.4014981273481505, 0.37059787072017736, -0.33076136213153146, 0.24783662448225455, -0.18973995590831322, 0.22878807442638016, 0.04702187950953191, -0.10043059946343341, -0.025333078894355286, -0.08709284238314374, 0.1463251626751547, 0.07611232241794641, 0.13127546226828773], [-0.05914407170215595, -0.13765921378993046, -0.08162583813459724, -0.24865654514818475, 0.017700280763536386, -0.41691512557721727, 0.5314674517217288, 0.10137623118504052, 0.4995009065673466, 0.1340537599069185, -0.027676394133022548, 0.07540129500821643, 0.047341293731426475, 0.2065169831401598, 0.012700494177111839, -0.13430068155470798], [-0.11339584610093296, 0.3048527866439505, -0.029622824258654767, 0.11640227175647616, -0.09580248934777835, -0.10980586759659992, 0.3345232968289009, -0.0017353725037297517, -0.008839430448175738, -0.10354176513579391, -0.04946329268196931, -0.14444598974066997, 0.31721364110422795, 0.3398891178879752, -0.013863952615120693, 0.12263299034684344], [0.021821321367921934, 0.13569956912545897, -0.14764257022470959, 0.12820946565607946, 0.06787666388044239, -0.05579448887543528, 0.18525387712489177, 0.029950527072992637, 0.09875000614507838, -0.08085182211309579, -0.0962228992536712, 0.1702530088646815, 0.20464967866710523, 0.164768502599061, -0.0015880227993538708, 0.08644534423340411], [-0.0477273959993198, 0.10795767490704314, 0.05378117791242549, 0.4392998147369434, -0.32676797321023815, 0.3898650765846422, -0.11456162575128018, 0.018864234029657083, 0.09082266627577361, -0.08964532446446469, 0.05698487374507604, 0.011848664869937225, -0.14784422689670412, 0.16387652675880462, -0.13565611198655697, -0.06075776106034233], [0.19824896422102467, -0.023060921679091854, -0.19022275531358515, 0.008374615976612388, -0.11945053655077623, 0.4818398793731985, 0.3581178936696212, 0.07866908424387375, -0.012709868027474418, -0.029131597040634442, 0.1606266932811208, 0.003057108032307331, 0.009358744784226481, 0.25293403041327805, -0.026204087201617397, -0.0724791013586253], [0.0029470227739629607, 0.21943006924436118, -0.04186818969881875, 0.7130471724555909, 0.06253809106338559, 0.019573808199617515, 1.0343464214221083, -0.17487867155827833, 0.8148194972761915, -0.046346553127514976, 0.05778717559684624, 0.5660109846114458, 0.8122008672889086, 0.867354131564335, -0.0036294573922846236, -0.1751457836532965], [0.025514504144695728, 0.10340658971380295, -0.16179087722548113, 0.07900434591810342, -0.2636304739461901, 0.3158538631728191, 0.34584108723187307, -0.12569097357271136, 0.4677731868627069, -0.02729594163200765, -0.13385617947078815, 0.3840288855588152, 0.03279721463052713, 0.4300793130456111, -0.012589746652276065, -0.08350828761442179], [-0.13062144699655054, -0.3193907804641651, -0.04755246957834371, -0.2060958533344184, -0.5918103026872805, 0.7830688036890505, -0.5542151167072042, 0.034968145784132355, -0.1619538548011995, -0.20711725534045086, 0.06727885813756415, 0.332862973771866, -0.2841572660908146, 0.22872605578371602, -0.156053942090949, 0.008912516231581572], [-0.014425286175113457, 0.018417156398441787, -0.13902066789135786, 0.1197562736916676, 0.20032910935722062, 0.37945962056381305, -0.17124100462358377, -0.2544984983826926, -0.22789133619994106, -0.03652649347149947, 0.028542245910042698, 0.03758841489817579, -0.4528813511090877, -0.12202586829154867, 0.14910855909010584, 0.0019974282554625794], [0.12612552180940398, 0.19232339371710902, -0.3640820130279604, 0.49220217766026914, 1.1457651073592476, -0.12501579423354786, -0.5398559019466803, -0.053643158995067976, -0.9806688078737937, 0.008483072789641255, -0.14032128332699179, -0.3368853961265018, -0.8963864313900343, -1.1244122262158938, 0.10278101572570277, -0.0686594601338109], [-0.031037629396139646, -0.04483769416581622, -0.08459017109521245, 0.18936608304542973, 0.39326160413616107, -0.050733356298964194, -0.10233937235921618, 0.10276116445459005, -0.2433173015180994, 0.030770711515561062, -0.08729242964859088, 0.1543808784246143, -0.49987862766293745, -0.43455092220186237, -0.02995760181487107, -0.1581406586341528], [0.10474803577531201, 0.17601054212331432, 0.14238277147158138, 0.03851839588345276, 0.012882645282314873, -0.08458462379388698, 0.041923310341901464, 0.0045485785644245, -0.11207843812218417, -0.12016253201014909, -0.020228418101892093, 0.05363090976395028, 0.09916474829281495, -0.10876022581443216, 0.12187415234284758, 0.06847633221403593], [-0.0486210948462086, -0.11147798067176241, 0.0625342091898536, -0.03950439829615138, -0.06295656737678083, -0.22305647175669424, 0.26274329159273013, -0.15560996912077563, 0.03780144477432265, -0.060372937243734756, -0.21483120613772524, 0.18290878783903433, 0.4553116761749202, 0.11642986401960059, -0.19913745665959595, -0.012581205366262064], [-0.3110764109236557, -0.009960978126505834, 0.02932109315995408, -0.014842024765718404, 0.13799831768828788, -0.12714796794193284, 0.09605311936144727, -0.0643361246800907, 0.15336350961049547, 0.23213972477884412, -0.10670512659037035, 0.00048088372689254045, 0.35856954836272853, 0.04494069491043168, 0.010790196050101848, 0.02518856494627019], [0.011501304582858862, 0.07089659568884435, 0.12573125654244016, 0.7711189663599044, -0.3145722734215361, 0.17528229330073677, 0.8781064864255331, 0.10006617481806374, 0.3179495264982871, 0.2082998318706796, -0.2827336057319232, -0.08539705524143172, 1.263685667905221, 1.0310603387364374, -0.04405677491149966, 0.13725348997540987], [-0.0667742526740806, 0.02911422924177199, -0.06706236370178063, 0.45994223606050566, 0.034814468066511575, 0.10762759139527461, 0.8550338523686835, -0.08748321828534315, 0.14683412804601553, -0.09351237156325891, -0.05329130246463609, 0.322382580736151, 1.12525674562164, 0.8115657431073401, 0.035485770251528985, 0.15216860551056915], [0.08215619310452625, 0.08215735769038467, 0.6566049013428525, 0.9230954673258432, -0.2541581885898964, -0.29423283131056854, 1.1646204819185682, -0.13978776971812662, 0.7770665286779085, -0.03310108993883949, -0.12869779979084656, 0.8645910172620681, 1.4070572078942138, 1.2732731014052086, 0.013155769444782433, -0.02734731485822607], [0.017173599680357456, 0.0706246911173632, 0.01017395513694834, 0.48126879761521607, -0.3003844359866042, 0.3489076269156993, 0.09862036455955972, -0.2637709374276837, 0.624499170018078, -0.1990079245451796, -0.007464132292502132, 0.24901472011592765, 0.5169890404809189, 0.4005009397793075, -0.05560121417915691, -0.2831186367030733], [0.0617338624238336, 0.01112556365079217, -0.34934919421946636, 0.13435998756060258, 1.000215763718742, 0.8431539796349422, -0.37689320460620956, -0.07085269366129017, -0.3825104387035627, 0.02732156957924089, 0.12648602365298522, -0.6316547551675141, 0.20334686717107148, -0.376795753089128, 0.018123230631862948, 0.06503701099041377], [0.003192998262430188, 0.05784298469155995, 0.09452487416008756, 0.04687190516666842, -0.18908714124699216, 0.2725508726319049, 0.581195622238566, -0.02090674271923018, 0.18746624460178082, 0.06195572515730186, 0.13225555822131008, -0.20081102227142816, 0.7334199725009595, 0.3914184135332423, -0.08291381440768524, 0.19201627845919006], [-0.22974496166022126, -0.07051460471944361, -0.06779458641961876, 0.8404222830245457, 0.5881222028893325, -0.07885147038058714, -0.04495041252018198, 0.07727387840780757, -0.6892395821614614, -0.057867126280814564, -0.03323158390832765, -0.3399103738931476, -0.3835464718122779, -0.6638320472760885, 0.0034088391402918128, -0.12003889637359495], [0.05020193646264694, 0.00024517453193703453, -0.028308707216290547, 0.08676220275488085, 0.2571239749577496, 0.09803526188290679, 0.10593847512503879, -0.006500411133042846, -0.29611072278677564, -0.0085742120810939, 0.05806587480565692, -0.011127533169404244, -0.19472041557793415, -0.5101907324937339, 0.26247558467507376, 0.020920086542726788], [-0.13817442044034037, 0.005101813751725026, -0.03624974291453877, 0.0003996743688835075, -0.018175297919724755, -0.20296099910786752, 0.17084298322707606, -0.05790681160125995, -0.001186340734084452, -0.17058020336402593, 0.012329684613788762, 0.1237216666841895, -0.01786035120841872, -0.0420899958558672, 0.08077059664149222, -0.10260661304097804], [0.10572965814819735, -0.06119120442250853, 0.22409338961686956, 0.021424779811907543, -0.0793669830887525, -0.03877343359454122, 0.08079381056938285, 0.06371692046336262, -0.016695379090926644, 0.03273915427123413, 0.32107252876770853, -0.24698581020325852, 0.2208349420797363, -0.14057596428643027, 0.06447773642522762, -0.14768868279819852], [0.1533771230038691, 0.1804239073794806, -0.020463069575122436, -0.05611352146407586, 0.06013373799600595, -0.2359320506236925, 0.21118994849346812, -0.1420248805066101, 0.07909048080743246, -0.04751467704184581, -0.16357092965907133, -0.27096218474808453, -0.12534055550814754, 0.14488588517691772, 0.04622490730220765, -0.04905289416675867], [-0.048569320217645456, -0.1204019435288108, 0.46982826296951846, 0.749881326463657, -0.20000226169606436, -0.22433391352406656, 0.43915493829186897, 0.042860694347588074, 0.5167713780844939, 0.0661549565364652, -0.13921531802931447, 0.1048321697222168, 0.418508305362855, 0.36353822536022806, -0.09271708363853051, -0.03609297155633054], [-0.020118547895659, 0.1230289517996647, 0.12629523698943887, 0.3767297007414413, -0.12837753575551217, -0.11838780719646542, 0.22977889455072878, -0.2691656657740772, 0.1678025504297738, 0.018462047971805968, -0.053810695045443044, 0.258600308613091, 0.3101770758227813, 0.20529877319570064, 0.07187919788276799, -0.19194065731878973], [0.02090406222602586, 0.00969373008774637, 0.18109280267712757, 0.508255962936353, -0.24515225304592764, -0.07386098192452419, 0.776065292972772, 0.027092545447861733, 0.33284655604790225, -0.0017587254288366724, -0.05405370085505932, 0.29345072716088105, 0.7755492540217468, 0.5317353756927405, -0.2333943200771539, 0.07664798132873189], [-0.014762203686150924, -0.07518713115347753, 0.4181875555033438, 0.6715544289128172, 0.008467854391108124, 0.06366868743541863, 0.3219416624561127, -0.12143005456625176, 0.45008369560623684, 0.0034404198714488845, 0.14416890262885163, -0.02793084931690689, 0.604626607964906, 0.08152603308035378, 0.233907321933188, 0.012106889436695594], [0.01429023237255216, -0.11177565985159249, -1.2954536387871798, 0.5292528192534519, 0.8952277093214398, 2.528211645376478, -1.9627982504533248, 0.013171006019558274, -1.5803092972459192, 0.03829592211012526, -0.08150372674370981, -1.6678986468760617, -2.006351358468784, -2.7110531703225926, 0.018772246043740927, 0.19363457538114795], [-0.1306557845726393, 0.03411276264580129, -1.1219832280253357, 0.5080148862409143, 0.7957518369443266, 3.1396587137941654, -1.443050266917616, 0.0227962418685212, -0.7874566459418862, 0.03351980570483809, -0.21606118035682656, -1.5711435092933248, -1.2285527069022464, -1.6322008470833944, -0.11273899107992115, 0.17623353136989509], [0.0184261815494987, 0.1814362393913436, -1.621326009625109, -0.5781572126024009, 1.0618345237860176, 1.4830632306784488, -1.2491706032351857, 0.02662837024646978, -1.53265157538812, -0.011301012730568296, 0.1161022979885993, -0.04975005406791137, -0.33831798724421375, -0.18913158775474526, 0.01531329990859595, -0.20371125534166223], [0.0019187147434062103, -0.04456977894425957, 0.22348462706323724, 0.6637944286864786, 0.16029566546298035, 0.11276028282081742, 0.4998263968433193, -0.23620462325905112, -0.28880196795096197, 0.0788131231826574, 0.0430835787440174, 0.13455133693663257, 0.11732310598416247, -0.04341518990187645, -0.16200546835635993, -0.25403957996960697], [-0.1097175704674857, 0.4113878355571918, 1.527679800066957, 1.3948534757074063, -1.1373331306619312, -0.13814040867282523, 2.0233776842223152, -0.07385371692209307, 1.650074762538959, -0.05790316792060682, -0.2171416577110238, 1.4374290350109784, 1.7172891711462257, 1.7535581971487206, 0.16527343651550763, 0.07497249092610567], [-0.09815972591806964, 0.10666026354848171, -0.10840424415864133, 0.09100237116626282, 0.13382377045198307, 0.005339077090545007, 0.4977867743117604, 0.04738235692627014, 0.04206681850368619, 0.057771230585146056, -0.019259029609362852, 0.05920251292447667, 0.23686547917930506, 0.08836017836968528, -0.037169038801285456, 0.06095520866833488], [0.06566352185721117, -0.12127660786284841, -0.27761157785506363, 0.11290732502636015, 0.1368382422035622, -0.1059661535260237, -0.01891995951223218, -0.1318466145980024, 0.14039058482262123, -0.2916460424729007, -0.13146392916181013, 0.06440948141245455, -0.06057250334103894, -0.0016642957925726383, 0.0712448038799311, -0.04518315732570139], [-0.07795193526277915, -0.034275460117803205, 0.1736840935456754, 0.4403520084944326, 0.03972878015735548, -0.07326187309796701, 0.6440790506299103, 0.07079662053549649, 0.31787713746746105, 0.05576858585685126, 0.008584393248834074, 0.4536139093864559, 0.32386227890209723, 0.1471894016614222, -0.05531648196392125, -0.06414672515546992], [0.011545512593274057, -0.16767341554194815, 0.29850603048328095, 0.5740548244960342, -0.06797841880856874, -0.03546609883115267, 0.7331625895572095, -0.08644744697695413, 0.6986772252005911, -0.15195622315263338, 0.11527860049622722, 0.6552500459057407, 0.6803789957609703, 0.596633175927517, 0.053770739336884164, -0.09515775387569064], [0.12465886456433088, 0.0668074525025862, 0.8174508340563437, 0.5991043972096444, 0.3791502827257212, 0.021080297607192582, 2.0680221045834237, 0.06826225881407466, 1.0364179781190155, 0.2581050173498822, 0.0818844828132721, 1.6123552887916421, 1.9551486656656611, 2.0267639488125835, 0.0031542422018966732, -0.004131933602081964], [0.060916031200624915, 0.18283848222192112, -0.03235380450419018, 0.390390402973823, -0.09058907836586205, -0.1028470985937581, 0.20378750100937576, 0.1046290047667406, 0.3226896741216299, -0.08330403789204721, -0.027770520668555877, 0.0885777575012764, -0.10468436952885779, -0.05691027238607825, 0.1548983561065279, -0.0271957805728635], [0.050904425179153265, 0.07676469530717878, -0.3216354217389248, 0.7675726835316218, -0.29742642534194763, -0.24630176812089408, 0.17580670152202368, -0.02635174317395466, 0.10667346959680385, 0.10759204365839621, 0.14223541381764274, -0.0015602416190274256, 0.23265904369218599, -0.20498503849533967, 0.19257220346191062, 0.08694155473682391], [-0.05101910846952268, 0.1062296377078058, 0.10654779132843513, 0.24994876954602502, -0.001382281504302558, -0.007301370067480233, 0.6233236017691964, 0.12116219559206061, 0.40707786671404805, 0.17130121854443026, -0.10627665219132397, 0.32067757586118134, 0.6950477280488883, 0.012910082687731365, -0.05379655291813444, -0.0018549760968840352], [0.09564061647487422, 0.03516484081699696, -0.06953767405763232, -0.03582520198032984, -0.17876449819476134, -0.4278080616377201, 1.3093054009186789, 0.15733499557414882, 0.41136929432163283, -0.32426995589140767, 0.22078687207671271, 0.27545468910201426, 1.1933125092276589, 0.9747705344972173, 0.04307265338947991, -0.045352345396015147], [0.10285896757607094, 0.017432601012668178, -0.039232249166257324, 0.1876244288650238, -0.1713984817568923, -0.2585119311421539, 0.5619871893261171, -0.07854273403597195, 0.3100446505647794, -0.06528101668804855, -0.06636714667485195, 0.357428407191078, 0.48917673307922727, 0.04256824101013466, 0.11585371886628439, -0.12492593034708956], [0.21882850775941184, -0.022121494632093903, -0.09415018257970255, 0.2666980862148038, -0.13215480986759118, -0.07435244259886063, 0.17751505822878758, -0.1844036331689378, 0.03440224336755216, 0.1156250940961833, -0.12367186313393483, 0.15728497002620379, 0.18903581401293218, -0.06957668567201437, -0.08402972229387855, 0.1468177378334982], [0.01536252739710276, 0.04702279198920799, 0.0020747189883479084, 0.08016782037440615, 0.19921089830490557, -0.04892775405511635, 0.2562932435986879, -0.007983887488609608, 0.022466340068562803, 0.1821989515692737, 0.004379246066376463, 0.2969741924420686, -0.08050185482408563, 0.1736087816455084, 0.006981461573565376, -0.15846124458616362], [-0.0036061708618691114, 0.0450001604664638, 0.09446253640105055, 0.15445382583955658, -0.01597789812230272, -0.02519235404920939, 0.1783771488769773, -0.23190867698046178, 0.03251428297557141, -0.03311895394997912, -0.12056338684874444, -0.09055463680054013, 0.13373844600966348, 0.2107291646727725, -0.017572763381919255, 0.2392666563692109], [-0.3705986912189481, 0.08973694096577293, 1.5928074960042096, 2.706331630360427, 0.03032992295755046, -0.07187604483078604, 3.551444589704388, -0.027434431516990026, 3.2251845288604484, -0.004366783064412339, -0.1291963750569198, 2.754181159608615, 3.6775833994858678, 3.4646937268560167, -0.20808493771292377, -0.16046210001197594]], "bias": [[-0.009939414852844488, 0.04601964406746903, 1.0316048171333905, 1.3362712462551116, -0.11137753989104729, -0.48071858317758787, 2.0719226792557865, -0.06313185867664324, 1.6479874256456601, 0.06306566435549782, 0.009942850266910698, 1.8180059188162192, 2.07790233403092, 1.9035752855401527, -0.09839682153313477, 0.015911957812399024]], "mWeights": [[0.0, 0.0, 0.0, 0.0, 0.0, 0.0, 0.0, 0.0, 0.0, 0.0, 0.0, 0.0, 0.0, 0.0, 0.0, 0.0], [0.0, 0.0, 0.0, 0.0, 0.0, 0.0, 0.0, 0.0, 0.0, 0.0, 0.0, 0.0, 0.0, 0.0, 0.0, 0.0], [0.0, 0.0, 0.0, 0.0, 0.0, 0.0, 0.0, 0.0, 0.0, 0.0, 0.0, 0.0, 0.0, 0.0, 0.0, 0.0], [0.0, 0.0, 0.0, 0.0, 0.0, 0.0, 0.0, 0.0, 0.0, 0.0, 0.0, 0.0, 0.0, 0.0, 0.0, 0.0], [0.0, 0.0, 0.0, 0.0, 0.0, 0.0, 0.0, 0.0, 0.0, 0.0, 0.0, 0.0, 0.0, 0.0, 0.0, 0.0], [0.0, 0.0, 0.0, 0.0, 0.0, 0.0, 0.0, 0.0, 0.0, 0.0, 0.0, 0.0, 0.0, 0.0, 0.0, 0.0], [0.0, 0.0, 0.0, 0.0, 0.0, 0.0, 0.0, 0.0, 0.0, 0.0, 0.0, 0.0, 0.0, 0.0, 0.0, 0.0], [0.0, 0.0, 0.0, 0.0, 0.0, 0.0, 0.0, 0.0, 0.0, 0.0, 0.0, 0.0, 0.0, 0.0, 0.0, 0.0], [0.0, 0.0, 0.0, 0.0, 0.0, 0.0, 0.0, 0.0, 0.0, 0.0, 0.0, 0.0, 0.0, 0.0, 0.0, 0.0], [0.0, 0.0, 0.0, 0.0, 0.0, 0.0, 0.0, 0.0, 0.0, 0.0, 0.0, 0.0, 0.0, 0.0, 0.0, 0.0], [0.0, 0.0, 0.0, 0.0, 0.0, 0.0, 0.0, 0.0, 0.0, 0.0, 0.0, 0.0, 0.0, 0.0, 0.0, 0.0], [0.0, 0.0, 0.0, 0.0, 0.0, 0.0, 0.0, 0.0, 0.0, 0.0, 0.0, 0.0, 0.0, 0.0, 0.0, 0.0], [0.0, 0.0, 0.0, 0.0, 0.0, 0.0, 0.0, 0.0, 0.0, 0.0, 0.0, 0.0, 0.0, 0.0, 0.0, 0.0], [0.0, 0.0, 0.0, 0.0, 0.0, 0.0, 0.0, 0.0, 0.0, 0.0, 0.0, 0.0, 0.0, 0.0, 0.0, 0.0], [0.0, 0.0, 0.0, 0.0, 0.0, 0.0, 0.0, 0.0, 0.0, 0.0, 0.0, 0.0, 0.0, 0.0, 0.0, 0.0], [0.0, 0.0, 0.0, 0.0, 0.0, 0.0, 0.0, 0.0, 0.0, 0.0, 0.0, 0.0, 0.0, 0.0, 0.0, 0.0], [0.0, 0.0, 0.0, 0.0, 0.0, 0.0, 0.0, 0.0, 0.0, 0.0, 0.0, 0.0, 0.0, 0.0, 0.0, 0.0], [0.0, 0.0, 0.0, 0.0, 0.0, 0.0, 0.0, 0.0, 0.0, 0.0, 0.0, 0.0, 0.0, 0.0, 0.0, 0.0], [0.0, 0.0, 0.0, 0.0, 0.0, 0.0, 0.0, 0.0, 0.0, 0.0, 0.0, 0.0, 0.0, 0.0, 0.0, 0.0], [0.0, 0.0, 0.0, 0.0, 0.0, 0.0, 0.0, 0.0, 0.0, 0.0, 0.0, 0.0, 0.0, 0.0, 0.0, 0.0], [0.0, 0.0, 0.0, 0.0, 0.0, 0.0, 0.0, 0.0, 0.0, 0.0, 0.0, 0.0, 0.0, 0.0, 0.0, 0.0], [0.0, 0.0, 0.0, 0.0, 0.0, 0.0, 0.0, 0.0, 0.0, 0.0, 0.0, 0.0, 0.0, 0.0, 0.0, 0.0], [0.0, 0.0, 0.0, 0.0, 0.0, 0.0, 0.0, 0.0, 0.0, 0.0, 0.0, 0.0, 0.0, 0.0, 0.0, 0.0], [0.0, 0.0, 0.0, 0.0, 0.0, 0.0, 0.0, 0.0, 0.0, 0.0, 0.0, 0.0, 0.0, 0.0, 0.0, 0.0], [0.0, 0.0, 0.0, 0.0, 0.0, 0.0, 0.0, 0.0, 0.0, 0.0, 0.0, 0.0, 0.0, 0.0, 0.0, 0.0], [0.0, 0.0, 0.0, 0.0, 0.0, 0.0, 0.0, 0.0, 0.0, 0.0, 0.0, 0.0, 0.0, 0.0, 0.0, 0.0], [0.0, 0.0, 0.0, 0.0, 0.0, 0.0, 0.0, 0.0, 0.0, 0.0, 0.0, 0.0, 0.0, 0.0, 0.0, 0.0], [0.0, 0.0, 0.0, 0.0, 0.0, 0.0, 0.0, 0.0, 0.0, 0.0, 0.0, 0.0, 0.0, 0.0, 0.0, 0.0], [0.0, 0.0, 0.0, 0.0, 0.0, 0.0, 0.0, 0.0, 0.0, 0.0, 0.0, 0.0, 0.0, 0.0, 0.0, 0.0], [0.0, 0.0, 0.0, 0.0, 0.0, 0.0, 0.0, 0.0, 0.0, 0.0, 0.0, 0.0, 0.0, 0.0, 0.0, 0.0], [0.0, 0.0, 0.0, 0.0, 0.0, 0.0, 0.0, 0.0, 0.0, 0.0, 0.0, 0.0, 0.0, 0.0, 0.0, 0.0], [0.0, 0.0, 0.0, 0.0, 0.0, 0.0, 0.0, 0.0, 0.0, 0.0, 0.0, 0.0, 0.0, 0.0, 0.0, 0.0], [0.0, 0.0, 0.0, 0.0, 0.0, 0.0, 0.0, 0.0, 0.0, 0.0, 0.0, 0.0, 0.0, 0.0, 0.0, 0.0], [0.0, 0.0, 0.0, 0.0, 0.0, 0.0, 0.0, 0.0, 0.0, 0.0, 0.0, 0.0, 0.0, 0.0, 0.0, 0.0], [0.0, 0.0, 0.0, 0.0, 0.0, 0.0, 0.0, 0.0, 0.0, 0.0, 0.0, 0.0, 0.0, 0.0, 0.0, 0.0], [0.0, 0.0, 0.0, 0.0, 0.0, 0.0, 0.0, 0.0, 0.0, 0.0, 0.0, 0.0, 0.0, 0.0, 0.0, 0.0], [0.0, 0.0, 0.0, 0.0, 0.0, 0.0, 0.0, 0.0, 0.0, 0.0, 0.0, 0.0, 0.0, 0.0, 0.0, 0.0], [0.0, 0.0, 0.0, 0.0, 0.0, 0.0, 0.0, 0.0, 0.0, 0.0, 0.0, 0.0, 0.0, 0.0, 0.0, 0.0], [0.0, 0.0, 0.0, 0.0, 0.0, 0.0, 0.0, 0.0, 0.0, 0.0, 0.0, 0.0, 0.0, 0.0, 0.0, 0.0], [0.0, 0.0, 0.0, 0.0, 0.0, 0.0, 0.0, 0.0, 0.0, 0.0, 0.0, 0.0, 0.0, 0.0, 0.0, 0.0], [0.0, 0.0, 0.0, 0.0, 0.0, 0.0, 0.0, 0.0, 0.0, 0.0, 0.0, 0.0, 0.0, 0.0, 0.0, 0.0], [0.0, 0.0, 0.0, 0.0, 0.0, 0.0, 0.0, 0.0, 0.0, 0.0, 0.0, 0.0, 0.0, 0.0, 0.0, 0.0], [0.0, 0.0, 0.0, 0.0, 0.0, 0.0, 0.0, 0.0, 0.0, 0.0, 0.0, 0.0, 0.0, 0.0, 0.0, 0.0], [0.0, 0.0, 0.0, 0.0, 0.0, 0.0, 0.0, 0.0, 0.0, 0.0, 0.0, 0.0, 0.0, 0.0, 0.0, 0.0], [0.0, 0.0, 0.0, 0.0, 0.0, 0.0, 0.0, 0.0, 0.0, 0.0, 0.0, 0.0, 0.0, 0.0, 0.0, 0.0], [0.0, 0.0, 0.0, 0.0, 0.0, 0.0, 0.0, 0.0, 0.0, 0.0, 0.0, 0.0, 0.0, 0.0, 0.0, 0.0], [0.0, 0.0, 0.0, 0.0, 0.0, 0.0, 0.0, 0.0, 0.0, 0.0, 0.0, 0.0, 0.0, 0.0, 0.0, 0.0], [0.0, 0.0, 0.0, 0.0, 0.0, 0.0, 0.0, 0.0, 0.0, 0.0, 0.0, 0.0, 0.0, 0.0, 0.0, 0.0], [0.0, 0.0, 0.0, 0.0, 0.0, 0.0, 0.0, 0.0, 0.0, 0.0, 0.0, 0.0, 0.0, 0.0, 0.0, 0.0], [0.0, 0.0, 0.0, 0.0, 0.0, 0.0, 0.0, 0.0, 0.0, 0.0, 0.0, 0.0, 0.0, 0.0, 0.0, 0.0], [0.0, 0.0, 0.0, 0.0, 0.0, 0.0, 0.0, 0.0, 0.0, 0.0, 0.0, 0.0, 0.0, 0.0, 0.0, 0.0], [0.0, 0.0, 0.0, 0.0, 0.0, 0.0, 0.0, 0.0, 0.0, 0.0, 0.0, 0.0, 0.0, 0.0, 0.0, 0.0], [0.0, 0.0, 0.0, 0.0, 0.0, 0.0, 0.0, 0.0, 0.0, 0.0, 0.0, 0.0, 0.0, 0.0, 0.0, 0.0], [0.0, 0.0, 0.0, 0.0, 0.0, 0.0, 0.0, 0.0, 0.0, 0.0, 0.0, 0.0, 0.0, 0.0, 0.0, 0.0], [0.0, 0.0, 0.0, 0.0, 0.0, 0.0, 0.0, 0.0, 0.0, 0.0, 0.0, 0.0, 0.0, 0.0, 0.0, 0.0], [0.0, 0.0, 0.0, 0.0, 0.0, 0.0, 0.0, 0.0, 0.0, 0.0, 0.0, 0.0, 0.0, 0.0, 0.0, 0.0], [0.0, 0.0, 0.0, 0.0, 0.0, 0.0, 0.0, 0.0, 0.0, 0.0, 0.0, 0.0, 0.0, 0.0, 0.0, 0.0], [0.0, 0.0, 0.0, 0.0, 0.0, 0.0, 0.0, 0.0, 0.0, 0.0, 0.0, 0.0, 0.0, 0.0, 0.0, 0.0], [0.0, 0.0, 0.0, 0.0, 0.0, 0.0, 0.0, 0.0, 0.0, 0.0, 0.0, 0.0, 0.0, 0.0, 0.0, 0.0], [0.0, 0.0, 0.0, 0.0, 0.0, 0.0, 0.0, 0.0, 0.0, 0.0, 0.0, 0.0, 0.0, 0.0, 0.0, 0.0], [0.0, 0.0, 0.0, 0.0, 0.0, 0.0, 0.0, 0.0, 0.0, 0.0, 0.0, 0.0, 0.0, 0.0, 0.0, 0.0], [0.0, 0.0, 0.0, 0.0, 0.0, 0.0, 0.0, 0.0, 0.0, 0.0, 0.0, 0.0, 0.0, 0.0, 0.0, 0.0], [0.0, 0.0, 0.0, 0.0, 0.0, 0.0, 0.0, 0.0, 0.0, 0.0, 0.0, 0.0, 0.0, 0.0, 0.0, 0.0], [0.0, 0.0, 0.0, 0.0, 0.0, 0.0, 0.0, 0.0, 0.0, 0.0, 0.0, 0.0, 0.0, 0.0, 0.0, 0.0], [0.0, 0.0, 0.0, 0.0, 0.0, 0.0, 0.0, 0.0, 0.0, 0.0, 0.0, 0.0, 0.0, 0.0, 0.0, 0.0], [0.0, 0.0, 0.0, 0.0, 0.0, 0.0, 0.0, 0.0, 0.0, 0.0, 0.0, 0.0, 0.0, 0.0, 0.0, 0.0], [0.0, 0.0, 0.0, 0.0, 0.0, 0.0, 0.0, 0.0, 0.0, 0.0, 0.0, 0.0, 0.0, 0.0, 0.0, 0.0], [0.0, 0.0, 0.0, 0.0, 0.0, 0.0, 0.0, 0.0, 0.0, 0.0, 0.0, 0.0, 0.0, 0.0, 0.0, 0.0], [0.0, 0.0, 0.0, 0.0, 0.0, 0.0, 0.0, 0.0, 0.0, 0.0, 0.0, 0.0, 0.0, 0.0, 0.0, 0.0], [0.0, 0.0, 0.0, 0.0, 0.0, 0.0, 0.0, 0.0, 0.0, 0.0, 0.0, 0.0, 0.0, 0.0, 0.0, 0.0], [0.0, 0.0, 0.0, 0.0, 0.0, 0.0, 0.0, 0.0, 0.0, 0.0, 0.0, 0.0, 0.0, 0.0, 0.0, 0.0], [0.0, 0.0, 0.0, 0.0, 0.0, 0.0, 0.0, 0.0, 0.0, 0.0, 0.0, 0.0, 0.0, 0.0, 0.0, 0.0], [0.0, 0.0, 0.0, 0.0, 0.0, 0.0, 0.0, 0.0, 0.0, 0.0, 0.0, 0.0, 0.0, 0.0, 0.0, 0.0], [0.0, 0.0, 0.0, 0.0, 0.0, 0.0, 0.0, 0.0, 0.0, 0.0, 0.0, 0.0, 0.0, 0.0, 0.0, 0.0], [0.0, 0.0, 0.0, 0.0, 0.0, 0.0, 0.0, 0.0, 0.0, 0.0, 0.0, 0.0, 0.0, 0.0, 0.0, 0.0], [0.0, 0.0, 0.0, 0.0, 0.0, 0.0, 0.0, 0.0, 0.0, 0.0, 0.0, 0.0, 0.0, 0.0, 0.0, 0.0], [0.0, 0.0, 0.0, 0.0, 0.0, 0.0, 0.0, 0.0, 0.0, 0.0, 0.0, 0.0, 0.0, 0.0, 0.0, 0.0], [0.0, 0.0, 0.0, 0.0, 0.0, 0.0, 0.0, 0.0, 0.0, 0.0, 0.0, 0.0, 0.0, 0.0, 0.0, 0.0], [0.0, 0.0, 0.0, 0.0, 0.0, 0.0, 0.0, 0.0, 0.0, 0.0, 0.0, 0.0, 0.0, 0.0, 0.0, 0.0], [0.0, 0.0, 0.0, 0.0, 0.0, 0.0, 0.0, 0.0, 0.0, 0.0, 0.0, 0.0, 0.0, 0.0, 0.0, 0.0], [0.0, 0.0, 0.0, 0.0, 0.0, 0.0, 0.0, 0.0, 0.0, 0.0, 0.0, 0.0, 0.0, 0.0, 0.0, 0.0], [0.0, 0.0, 0.0, 0.0, 0.0, 0.0, 0.0, 0.0, 0.0, 0.0, 0.0, 0.0, 0.0, 0.0, 0.0, 0.0], [0.0, 0.0, 0.0, 0.0, 0.0, 0.0, 0.0, 0.0, 0.0, 0.0, 0.0, 0.0, 0.0, 0.0, 0.0, 0.0], [0.0, 0.0, 0.0, 0.0, 0.0, 0.0, 0.0, 0.0, 0.0, 0.0, 0.0, 0.0, 0.0, 0.0, 0.0, 0.0], [0.0, 0.0, 0.0, 0.0, 0.0, 0.0, 0.0, 0.0, 0.0, 0.0, 0.0, 0.0, 0.0, 0.0, 0.0, 0.0], [0.0, 0.0, 0.0, 0.0, 0.0, 0.0, 0.0, 0.0, 0.0, 0.0, 0.0, 0.0, 0.0, 0.0, 0.0, 0.0], [0.0, 0.0, 0.0, 0.0, 0.0, 0.0, 0.0, 0.0, 0.0, 0.0, 0.0, 0.0, 0.0, 0.0, 0.0, 0.0], [0.0, 0.0, 0.0, 0.0, 0.0, 0.0, 0.0, 0.0, 0.0, 0.0, 0.0, 0.0, 0.0, 0.0, 0.0, 0.0], [0.0, 0.0, 0.0, 0.0, 0.0, 0.0, 0.0, 0.0, 0.0, 0.0, 0.0, 0.0, 0.0, 0.0, 0.0, 0.0], [0.0, 0.0, 0.0, 0.0, 0.0, 0.0, 0.0, 0.0, 0.0, 0.0, 0.0, 0.0, 0.0, 0.0, 0.0, 0.0], [0.0, 0.0, 0.0, 0.0, 0.0, 0.0, 0.0, 0.0, 0.0, 0.0, 0.0, 0.0, 0.0, 0.0, 0.0, 0.0], [0.0, 0.0, 0.0, 0.0, 0.0, 0.0, 0.0, 0.0, 0.0, 0.0, 0.0, 0.0, 0.0, 0.0, 0.0, 0.0], [0.0, 0.0, 0.0, 0.0, 0.0, 0.0, 0.0, 0.0, 0.0, 0.0, 0.0, 0.0, 0.0, 0.0, 0.0, 0.0], [0.0, 0.0, 0.0, 0.0, 0.0, 0.0, 0.0, 0.0, 0.0, 0.0, 0.0, 0.0, 0.0, 0.0, 0.0, 0.0], [0.0, 0.0, 0.0, 0.0, 0.0, 0.0, 0.0, 0.0, 0.0, 0.0, 0.0, 0.0, 0.0, 0.0, 0.0, 0.0], [0.0, 0.0, 0.0, 0.0, 0.0, 0.0, 0.0, 0.0, 0.0, 0.0, 0.0, 0.0, 0.0, 0.0, 0.0, 0.0], [0.0, 0.0, 0.0, 0.0, 0.0, 0.0, 0.0, 0.0, 0.0, 0.0, 0.0, 0.0, 0.0, 0.0, 0.0, 0.0], [0.0, 0.0, 0.0, 0.0, 0.0, 0.0, 0.0, 0.0, 0.0, 0.0, 0.0, 0.0, 0.0, 0.0, 0.0, 0.0], [0.0, 0.0, 0.0, 0.0, 0.0, 0.0, 0.0, 0.0, 0.0, 0.0, 0.0, 0.0, 0.0, 0.0, 0.0, 0.0], [0.0, 0.0, 0.0, 0.0, 0.0, 0.0, 0.0, 0.0, 0.0, 0.0, 0.0, 0.0, 0.0, 0.0, 0.0, 0.0], [0.0, 0.0, 0.0, 0.0, 0.0, 0.0, 0.0, 0.0, 0.0, 0.0, 0.0, 0.0, 0.0, 0.0, 0.0, 0.0], [0.0, 0.0, 0.0, 0.0, 0.0, 0.0, 0.0, 0.0, 0.0, 0.0, 0.0, 0.0, 0.0, 0.0, 0.0, 0.0], [0.0, 0.0, 0.0, 0.0, 0.0, 0.0, 0.0, 0.0, 0.0, 0.0, 0.0, 0.0, 0.0, 0.0, 0.0, 0.0], [0.0, 0.0, 0.0, 0.0, 0.0, 0.0, 0.0, 0.0, 0.0, 0.0, 0.0, 0.0, 0.0, 0.0, 0.0, 0.0], [0.0, 0.0, 0.0, 0.0, 0.0, 0.0, 0.0, 0.0, 0.0, 0.0, 0.0, 0.0, 0.0, 0.0, 0.0, 0.0], [0.0, 0.0, 0.0, 0.0, 0.0, 0.0, 0.0, 0.0, 0.0, 0.0, 0.0, 0.0, 0.0, 0.0, 0.0, 0.0], [0.0, 0.0, 0.0, 0.0, 0.0, 0.0, 0.0, 0.0, 0.0, 0.0, 0.0, 0.0, 0.0, 0.0, 0.0, 0.0], [0.0, 0.0, 0.0, 0.0, 0.0, 0.0, 0.0, 0.0, 0.0, 0.0, 0.0, 0.0, 0.0, 0.0, 0.0, 0.0], [0.0, 0.0, 0.0, 0.0, 0.0, 0.0, 0.0, 0.0, 0.0, 0.0, 0.0, 0.0, 0.0, 0.0, 0.0, 0.0], [0.0, 0.0, 0.0, 0.0, 0.0, 0.0, 0.0, 0.0, 0.0, 0.0, 0.0, 0.0, 0.0, 0.0, 0.0, 0.0], [0.0, 0.0, 0.0, 0.0, 0.0, 0.0, 0.0, 0.0, 0.0, 0.0, 0.0, 0.0, 0.0, 0.0, 0.0, 0.0], [0.0, 0.0, 0.0, 0.0, 0.0, 0.0, 0.0, 0.0, 0.0, 0.0, 0.0, 0.0, 0.0, 0.0, 0.0, 0.0], [0.0, 0.0, 0.0, 0.0, 0.0, 0.0, 0.0, 0.0, 0.0, 0.0, 0.0, 0.0, 0.0, 0.0, 0.0, 0.0], [0.0, 0.0, 0.0, 0.0, 0.0, 0.0, 0.0, 0.0, 0.0, 0.0, 0.0, 0.0, 0.0, 0.0, 0.0, 0.0], [0.0, 0.0, 0.0, 0.0, 0.0, 0.0, 0.0, 0.0, 0.0, 0.0, 0.0, 0.0, 0.0, 0.0, 0.0, 0.0], [0.0, 0.0, 0.0, 0.0, 0.0, 0.0, 0.0, 0.0, 0.0, 0.0, 0.0, 0.0, 0.0, 0.0, 0.0, 0.0], [0.0, 0.0, 0.0, 0.0, 0.0, 0.0, 0.0, 0.0, 0.0, 0.0, 0.0, 0.0, 0.0, 0.0, 0.0, 0.0], [0.0, 0.0, 0.0, 0.0, 0.0, 0.0, 0.0, 0.0, 0.0, 0.0, 0.0, 0.0, 0.0, 0.0, 0.0, 0.0], [0.0, 0.0, 0.0, 0.0, 0.0, 0.0, 0.0, 0.0, 0.0, 0.0, 0.0, 0.0, 0.0, 0.0, 0.0, 0.0], [0.0, 0.0, 0.0, 0.0, 0.0, 0.0, 0.0, 0.0, 0.0, 0.0, 0.0, 0.0, 0.0, 0.0, 0.0, 0.0], [0.0, 0.0, 0.0, 0.0, 0.0, 0.0, 0.0, 0.0, 0.0, 0.0, 0.0, 0.0, 0.0, 0.0, 0.0, 0.0], [0.0, 0.0, 0.0, 0.0, 0.0, 0.0, 0.0, 0.0, 0.0, 0.0, 0.0, 0.0, 0.0, 0.0, 0.0, 0.0]], "vWeights": [[0.0, 0.0, 0.0, 0.0, 0.0, 0.0, 0.0, 0.0, 0.0, 0.0, 0.0, 0.0, 0.0, 0.0, 0.0, 0.0], [0.0, 0.0, 0.0, 0.0, 0.0, 0.0, 0.0, 0.0, 0.0, 0.0, 0.0, 0.0, 0.0, 0.0, 0.0, 0.0], [0.0, 0.0, 0.0, 0.0, 0.0, 0.0, 0.0, 0.0, 0.0, 0.0, 0.0, 0.0, 0.0, 0.0, 0.0, 0.0], [0.0, 0.0, 0.0, 0.0, 0.0, 0.0, 0.0, 0.0, 0.0, 0.0, 0.0, 0.0, 0.0, 0.0, 0.0, 0.0], [0.0, 0.0, 0.0, 0.0, 0.0, 0.0, 0.0, 0.0, 0.0, 0.0, 0.0, 0.0, 0.0, 0.0, 0.0, 0.0], [0.0, 0.0, 0.0, 0.0, 0.0, 0.0, 0.0, 0.0, 0.0, 0.0, 0.0, 0.0, 0.0, 0.0, 0.0, 0.0], [0.0, 0.0, 0.0, 0.0, 0.0, 0.0, 0.0, 0.0, 0.0, 0.0, 0.0, 0.0, 0.0, 0.0, 0.0, 0.0], [0.0, 0.0, 0.0, 0.0, 0.0, 0.0, 0.0, 0.0, 0.0, 0.0, 0.0, 0.0, 0.0, 0.0, 0.0, 0.0], [0.0, 0.0, 0.0, 0.0, 0.0, 0.0, 0.0, 0.0, 0.0, 0.0, 0.0, 0.0, 0.0, 0.0, 0.0, 0.0], [0.0, 0.0, 0.0, 0.0, 0.0, 0.0, 0.0, 0.0, 0.0, 0.0, 0.0, 0.0, 0.0, 0.0, 0.0, 0.0], [0.0, 0.0, 0.0, 0.0, 0.0, 0.0, 0.0, 0.0, 0.0, 0.0, 0.0, 0.0, 0.0, 0.0, 0.0, 0.0], [0.0, 0.0, 0.0, 0.0, 0.0, 0.0, 0.0, 0.0, 0.0, 0.0, 0.0, 0.0, 0.0, 0.0, 0.0, 0.0], [0.0, 0.0, 0.0, 0.0, 0.0, 0.0, 0.0, 0.0, 0.0, 0.0, 0.0, 0.0, 0.0, 0.0, 0.0, 0.0], [0.0, 0.0, 0.0, 0.0, 0.0, 0.0, 0.0, 0.0, 0.0, 0.0, 0.0, 0.0, 0.0, 0.0, 0.0, 0.0], [0.0, 0.0, 0.0, 0.0, 0.0, 0.0, 0.0, 0.0, 0.0, 0.0, 0.0, 0.0, 0.0, 0.0, 0.0, 0.0], [0.0, 0.0, 0.0, 0.0, 0.0, 0.0, 0.0, 0.0, 0.0, 0.0, 0.0, 0.0, 0.0, 0.0, 0.0, 0.0], [0.0, 0.0, 0.0, 0.0, 0.0, 0.0, 0.0, 0.0, 0.0, 0.0, 0.0, 0.0, 0.0, 0.0, 0.0, 0.0], [0.0, 0.0, 0.0, 0.0, 0.0, 0.0, 0.0, 0.0, 0.0, 0.0, 0.0, 0.0, 0.0, 0.0, 0.0, 0.0], [0.0, 0.0, 0.0, 0.0, 0.0, 0.0, 0.0, 0.0, 0.0, 0.0, 0.0, 0.0, 0.0, 0.0, 0.0, 0.0], [0.0, 0.0, 0.0, 0.0, 0.0, 0.0, 0.0, 0.0, 0.0, 0.0, 0.0, 0.0, 0.0, 0.0, 0.0, 0.0], [0.0, 0.0, 0.0, 0.0, 0.0, 0.0, 0.0, 0.0, 0.0, 0.0, 0.0, 0.0, 0.0, 0.0, 0.0, 0.0], [0.0, 0.0, 0.0, 0.0, 0.0, 0.0, 0.0, 0.0, 0.0, 0.0, 0.0, 0.0, 0.0, 0.0, 0.0, 0.0], [0.0, 0.0, 0.0, 0.0, 0.0, 0.0, 0.0, 0.0, 0.0, 0.0, 0.0, 0.0, 0.0, 0.0, 0.0, 0.0], [0.0, 0.0, 0.0, 0.0, 0.0, 0.0, 0.0, 0.0, 0.0, 0.0, 0.0, 0.0, 0.0, 0.0, 0.0, 0.0], [0.0, 0.0, 0.0, 0.0, 0.0, 0.0, 0.0, 0.0, 0.0, 0.0, 0.0, 0.0, 0.0, 0.0, 0.0, 0.0], [0.0, 0.0, 0.0, 0.0, 0.0, 0.0, 0.0, 0.0, 0.0, 0.0, 0.0, 0.0, 0.0, 0.0, 0.0, 0.0], [0.0, 0.0, 0.0, 0.0, 0.0, 0.0, 0.0, 0.0, 0.0, 0.0, 0.0, 0.0, 0.0, 0.0, 0.0, 0.0], [0.0, 0.0, 0.0, 0.0, 0.0, 0.0, 0.0, 0.0, 0.0, 0.0, 0.0, 0.0, 0.0, 0.0, 0.0, 0.0], [0.0, 0.0, 0.0, 0.0, 0.0, 0.0, 0.0, 0.0, 0.0, 0.0, 0.0, 0.0, 0.0, 0.0, 0.0, 0.0], [0.0, 0.0, 0.0, 0.0, 0.0, 0.0, 0.0, 0.0, 0.0, 0.0, 0.0, 0.0, 0.0, 0.0, 0.0, 0.0], [0.0, 0.0, 0.0, 0.0, 0.0, 0.0, 0.0, 0.0, 0.0, 0.0, 0.0, 0.0, 0.0, 0.0, 0.0, 0.0], [0.0, 0.0, 0.0, 0.0, 0.0, 0.0, 0.0, 0.0, 0.0, 0.0, 0.0, 0.0, 0.0, 0.0, 0.0, 0.0], [0.0, 0.0, 0.0, 0.0, 0.0, 0.0, 0.0, 0.0, 0.0, 0.0, 0.0, 0.0, 0.0, 0.0, 0.0, 0.0], [0.0, 0.0, 0.0, 0.0, 0.0, 0.0, 0.0, 0.0, 0.0, 0.0, 0.0, 0.0, 0.0, 0.0, 0.0, 0.0], [0.0, 0.0, 0.0, 0.0, 0.0, 0.0, 0.0, 0.0, 0.0, 0.0, 0.0, 0.0, 0.0, 0.0, 0.0, 0.0], [0.0, 0.0, 0.0, 0.0, 0.0, 0.0, 0.0, 0.0, 0.0, 0.0, 0.0, 0.0, 0.0, 0.0, 0.0, 0.0], [0.0, 0.0, 0.0, 0.0, 0.0, 0.0, 0.0, 0.0, 0.0, 0.0, 0.0, 0.0, 0.0, 0.0, 0.0, 0.0], [0.0, 0.0, 0.0, 0.0, 0.0, 0.0, 0.0, 0.0, 0.0, 0.0, 0.0, 0.0, 0.0, 0.0, 0.0, 0.0], [0.0, 0.0, 0.0, 0.0, 0.0, 0.0, 0.0, 0.0, 0.0, 0.0, 0.0, 0.0, 0.0, 0.0, 0.0, 0.0], [0.0, 0.0, 0.0, 0.0, 0.0, 0.0, 0.0, 0.0, 0.0, 0.0, 0.0, 0.0, 0.0, 0.0, 0.0, 0.0], [0.0, 0.0, 0.0, 0.0, 0.0, 0.0, 0.0, 0.0, 0.0, 0.0, 0.0, 0.0, 0.0, 0.0, 0.0, 0.0], [0.0, 0.0, 0.0, 0.0, 0.0, 0.0, 0.0, 0.0, 0.0, 0.0, 0.0, 0.0, 0.0, 0.0, 0.0, 0.0], [0.0, 0.0, 0.0, 0.0, 0.0, 0.0, 0.0, 0.0, 0.0, 0.0, 0.0, 0.0, 0.0, 0.0, 0.0, 0.0], [0.0, 0.0, 0.0, 0.0, 0.0, 0.0, 0.0, 0.0, 0.0, 0.0, 0.0, 0.0, 0.0, 0.0, 0.0, 0.0], [0.0, 0.0, 0.0, 0.0, 0.0, 0.0, 0.0, 0.0, 0.0, 0.0, 0.0, 0.0, 0.0, 0.0, 0.0, 0.0], [0.0, 0.0, 0.0, 0.0, 0.0, 0.0, 0.0, 0.0, 0.0, 0.0, 0.0, 0.0, 0.0, 0.0, 0.0, 0.0], [0.0, 0.0, 0.0, 0.0, 0.0, 0.0, 0.0, 0.0, 0.0, 0.0, 0.0, 0.0, 0.0, 0.0, 0.0, 0.0], [0.0, 0.0, 0.0, 0.0, 0.0, 0.0, 0.0, 0.0, 0.0, 0.0, 0.0, 0.0, 0.0, 0.0, 0.0, 0.0], [0.0, 0.0, 0.0, 0.0, 0.0, 0.0, 0.0, 0.0, 0.0, 0.0, 0.0, 0.0, 0.0, 0.0, 0.0, 0.0], [0.0, 0.0, 0.0, 0.0, 0.0, 0.0, 0.0, 0.0, 0.0, 0.0, 0.0, 0.0, 0.0, 0.0, 0.0, 0.0], [0.0, 0.0, 0.0, 0.0, 0.0, 0.0, 0.0, 0.0, 0.0, 0.0, 0.0, 0.0, 0.0, 0.0, 0.0, 0.0], [0.0, 0.0, 0.0, 0.0, 0.0, 0.0, 0.0, 0.0, 0.0, 0.0, 0.0, 0.0, 0.0, 0.0, 0.0, 0.0], [0.0, 0.0, 0.0, 0.0, 0.0, 0.0, 0.0, 0.0, 0.0, 0.0, 0.0, 0.0, 0.0, 0.0, 0.0, 0.0], [0.0, 0.0, 0.0, 0.0, 0.0, 0.0, 0.0, 0.0, 0.0, 0.0, 0.0, 0.0, 0.0, 0.0, 0.0, 0.0], [0.0, 0.0, 0.0, 0.0, 0.0, 0.0, 0.0, 0.0, 0.0, 0.0, 0.0, 0.0, 0.0, 0.0, 0.0, 0.0], [0.0, 0.0, 0.0, 0.0, 0.0, 0.0, 0.0, 0.0, 0.0, 0.0, 0.0, 0.0, 0.0, 0.0, 0.0, 0.0], [0.0, 0.0, 0.0, 0.0, 0.0, 0.0, 0.0, 0.0, 0.0, 0.0, 0.0, 0.0, 0.0, 0.0, 0.0, 0.0], [0.0, 0.0, 0.0, 0.0, 0.0, 0.0, 0.0, 0.0, 0.0, 0.0, 0.0, 0.0, 0.0, 0.0, 0.0, 0.0], [0.0, 0.0, 0.0, 0.0, 0.0, 0.0, 0.0, 0.0, 0.0, 0.0, 0.0, 0.0, 0.0, 0.0, 0.0, 0.0], [0.0, 0.0, 0.0, 0.0, 0.0, 0.0, 0.0, 0.0, 0.0, 0.0, 0.0, 0.0, 0.0, 0.0, 0.0, 0.0], [0.0, 0.0, 0.0, 0.0, 0.0, 0.0, 0.0, 0.0, 0.0, 0.0, 0.0, 0.0, 0.0, 0.0, 0.0, 0.0], [0.0, 0.0, 0.0, 0.0, 0.0, 0.0, 0.0, 0.0, 0.0, 0.0, 0.0, 0.0, 0.0, 0.0, 0.0, 0.0], [0.0, 0.0, 0.0, 0.0, 0.0, 0.0, 0.0, 0.0, 0.0, 0.0, 0.0, 0.0, 0.0, 0.0, 0.0, 0.0], [0.0, 0.0, 0.0, 0.0, 0.0, 0.0, 0.0, 0.0, 0.0, 0.0, 0.0, 0.0, 0.0, 0.0, 0.0, 0.0], [0.0, 0.0, 0.0, 0.0, 0.0, 0.0, 0.0, 0.0, 0.0, 0.0, 0.0, 0.0, 0.0, 0.0, 0.0, 0.0], [0.0, 0.0, 0.0, 0.0, 0.0, 0.0, 0.0, 0.0, 0.0, 0.0, 0.0, 0.0, 0.0, 0.0, 0.0, 0.0], [0.0, 0.0, 0.0, 0.0, 0.0, 0.0, 0.0, 0.0, 0.0, 0.0, 0.0, 0.0, 0.0, 0.0, 0.0, 0.0], [0.0, 0.0, 0.0, 0.0, 0.0, 0.0, 0.0, 0.0, 0.0, 0.0, 0.0, 0.0, 0.0, 0.0, 0.0, 0.0], [0.0, 0.0, 0.0, 0.0, 0.0, 0.0, 0.0, 0.0, 0.0, 0.0, 0.0, 0.0, 0.0, 0.0, 0.0, 0.0], [0.0, 0.0, 0.0, 0.0, 0.0, 0.0, 0.0, 0.0, 0.0, 0.0, 0.0, 0.0, 0.0, 0.0, 0.0, 0.0], [0.0, 0.0, 0.0, 0.0, 0.0, 0.0, 0.0, 0.0, 0.0, 0.0, 0.0, 0.0, 0.0, 0.0, 0.0, 0.0], [0.0, 0.0, 0.0, 0.0, 0.0, 0.0, 0.0, 0.0, 0.0, 0.0, 0.0, 0.0, 0.0, 0.0, 0.0, 0.0], [0.0, 0.0, 0.0, 0.0, 0.0, 0.0, 0.0, 0.0, 0.0, 0.0, 0.0, 0.0, 0.0, 0.0, 0.0, 0.0], [0.0, 0.0, 0.0, 0.0, 0.0, 0.0, 0.0, 0.0, 0.0, 0.0, 0.0, 0.0, 0.0, 0.0, 0.0, 0.0], [0.0, 0.0, 0.0, 0.0, 0.0, 0.0, 0.0, 0.0, 0.0, 0.0, 0.0, 0.0, 0.0, 0.0, 0.0, 0.0], [0.0, 0.0, 0.0, 0.0, 0.0, 0.0, 0.0, 0.0, 0.0, 0.0, 0.0, 0.0, 0.0, 0.0, 0.0, 0.0], [0.0, 0.0, 0.0, 0.0, 0.0, 0.0, 0.0, 0.0, 0.0, 0.0, 0.0, 0.0, 0.0, 0.0, 0.0, 0.0], [0.0, 0.0, 0.0, 0.0, 0.0, 0.0, 0.0, 0.0, 0.0, 0.0, 0.0, 0.0, 0.0, 0.0, 0.0, 0.0], [0.0, 0.0, 0.0, 0.0, 0.0, 0.0, 0.0, 0.0, 0.0, 0.0, 0.0, 0.0, 0.0, 0.0, 0.0, 0.0], [0.0, 0.0, 0.0, 0.0, 0.0, 0.0, 0.0, 0.0, 0.0, 0.0, 0.0, 0.0, 0.0, 0.0, 0.0, 0.0], [0.0, 0.0, 0.0, 0.0, 0.0, 0.0, 0.0, 0.0, 0.0, 0.0, 0.0, 0.0, 0.0, 0.0, 0.0, 0.0], [0.0, 0.0, 0.0, 0.0, 0.0, 0.0, 0.0, 0.0, 0.0, 0.0, 0.0, 0.0, 0.0, 0.0, 0.0, 0.0], [0.0, 0.0, 0.0, 0.0, 0.0, 0.0, 0.0, 0.0, 0.0, 0.0, 0.0, 0.0, 0.0, 0.0, 0.0, 0.0], [0.0, 0.0, 0.0, 0.0, 0.0, 0.0, 0.0, 0.0, 0.0, 0.0, 0.0, 0.0, 0.0, 0.0, 0.0, 0.0], [0.0, 0.0, 0.0, 0.0, 0.0, 0.0, 0.0, 0.0, 0.0, 0.0, 0.0, 0.0, 0.0, 0.0, 0.0, 0.0], [0.0, 0.0, 0.0, 0.0, 0.0, 0.0, 0.0, 0.0, 0.0, 0.0, 0.0, 0.0, 0.0, 0.0, 0.0, 0.0], [0.0, 0.0, 0.0, 0.0, 0.0, 0.0, 0.0, 0.0, 0.0, 0.0, 0.0, 0.0, 0.0, 0.0, 0.0, 0.0], [0.0, 0.0, 0.0, 0.0, 0.0, 0.0, 0.0, 0.0, 0.0, 0.0, 0.0, 0.0, 0.0, 0.0, 0.0, 0.0], [0.0, 0.0, 0.0, 0.0, 0.0, 0.0, 0.0, 0.0, 0.0, 0.0, 0.0, 0.0, 0.0, 0.0, 0.0, 0.0], [0.0, 0.0, 0.0, 0.0, 0.0, 0.0, 0.0, 0.0, 0.0, 0.0, 0.0, 0.0, 0.0, 0.0, 0.0, 0.0], [0.0, 0.0, 0.0, 0.0, 0.0, 0.0, 0.0, 0.0, 0.0, 0.0, 0.0, 0.0, 0.0, 0.0, 0.0, 0.0], [0.0, 0.0, 0.0, 0.0, 0.0, 0.0, 0.0, 0.0, 0.0, 0.0, 0.0, 0.0, 0.0, 0.0, 0.0, 0.0], [0.0, 0.0, 0.0, 0.0, 0.0, 0.0, 0.0, 0.0, 0.0, 0.0, 0.0, 0.0, 0.0, 0.0, 0.0, 0.0], [0.0, 0.0, 0.0, 0.0, 0.0, 0.0, 0.0, 0.0, 0.0, 0.0, 0.0, 0.0, 0.0, 0.0, 0.0, 0.0], [0.0, 0.0, 0.0, 0.0, 0.0, 0.0, 0.0, 0.0, 0.0, 0.0, 0.0, 0.0, 0.0, 0.0, 0.0, 0.0], [0.0, 0.0, 0.0, 0.0, 0.0, 0.0, 0.0, 0.0, 0.0, 0.0, 0.0, 0.0, 0.0, 0.0, 0.0, 0.0], [0.0, 0.0, 0.0, 0.0, 0.0, 0.0, 0.0, 0.0, 0.0, 0.0, 0.0, 0.0, 0.0, 0.0, 0.0, 0.0], [0.0, 0.0, 0.0, 0.0, 0.0, 0.0, 0.0, 0.0, 0.0, 0.0, 0.0, 0.0, 0.0, 0.0, 0.0, 0.0], [0.0, 0.0, 0.0, 0.0, 0.0, 0.0, 0.0, 0.0, 0.0, 0.0, 0.0, 0.0, 0.0, 0.0, 0.0, 0.0], [0.0, 0.0, 0.0, 0.0, 0.0, 0.0, 0.0, 0.0, 0.0, 0.0, 0.0, 0.0, 0.0, 0.0, 0.0, 0.0], [0.0, 0.0, 0.0, 0.0, 0.0, 0.0, 0.0, 0.0, 0.0, 0.0, 0.0, 0.0, 0.0, 0.0, 0.0, 0.0], [0.0, 0.0, 0.0, 0.0, 0.0, 0.0, 0.0, 0.0, 0.0, 0.0, 0.0, 0.0, 0.0, 0.0, 0.0, 0.0], [0.0, 0.0, 0.0, 0.0, 0.0, 0.0, 0.0, 0.0, 0.0, 0.0, 0.0, 0.0, 0.0, 0.0, 0.0, 0.0], [0.0, 0.0, 0.0, 0.0, 0.0, 0.0, 0.0, 0.0, 0.0, 0.0, 0.0, 0.0, 0.0, 0.0, 0.0, 0.0], [0.0, 0.0, 0.0, 0.0, 0.0, 0.0, 0.0, 0.0, 0.0, 0.0, 0.0, 0.0, 0.0, 0.0, 0.0, 0.0], [0.0, 0.0, 0.0, 0.0, 0.0, 0.0, 0.0, 0.0, 0.0, 0.0, 0.0, 0.0, 0.0, 0.0, 0.0, 0.0], [0.0, 0.0, 0.0, 0.0, 0.0, 0.0, 0.0, 0.0, 0.0, 0.0, 0.0, 0.0, 0.0, 0.0, 0.0, 0.0], [0.0, 0.0, 0.0, 0.0, 0.0, 0.0, 0.0, 0.0, 0.0, 0.0, 0.0, 0.0, 0.0, 0.0, 0.0, 0.0], [0.0, 0.0, 0.0, 0.0, 0.0, 0.0, 0.0, 0.0, 0.0, 0.0, 0.0, 0.0, 0.0, 0.0, 0.0, 0.0], [0.0, 0.0, 0.0, 0.0, 0.0, 0.0, 0.0, 0.0, 0.0, 0.0, 0.0, 0.0, 0.0, 0.0, 0.0, 0.0], [0.0, 0.0, 0.0, 0.0, 0.0, 0.0, 0.0, 0.0, 0.0, 0.0, 0.0, 0.0, 0.0, 0.0, 0.0, 0.0], [0.0, 0.0, 0.0, 0.0, 0.0, 0.0, 0.0, 0.0, 0.0, 0.0, 0.0, 0.0, 0.0, 0.0, 0.0, 0.0], [0.0, 0.0, 0.0, 0.0, 0.0, 0.0, 0.0, 0.0, 0.0, 0.0, 0.0, 0.0, 0.0, 0.0, 0.0, 0.0], [0.0, 0.0, 0.0, 0.0, 0.0, 0.0, 0.0, 0.0, 0.0, 0.0, 0.0, 0.0, 0.0, 0.0, 0.0, 0.0], [0.0, 0.0, 0.0, 0.0, 0.0, 0.0, 0.0, 0.0, 0.0, 0.0, 0.0, 0.0, 0.0, 0.0, 0.0, 0.0], [0.0, 0.0, 0.0, 0.0, 0.0, 0.0, 0.0, 0.0, 0.0, 0.0, 0.0, 0.0, 0.0, 0.0, 0.0, 0.0], [0.0, 0.0, 0.0, 0.0, 0.0, 0.0, 0.0, 0.0, 0.0, 0.0, 0.0, 0.0, 0.0, 0.0, 0.0, 0.0], [0.0, 0.0, 0.0, 0.0, 0.0, 0.0, 0.0, 0.0, 0.0, 0.0, 0.0, 0.0, 0.0, 0.0, 0.0, 0.0], [0.0, 0.0, 0.0, 0.0, 0.0, 0.0, 0.0, 0.0, 0.0, 0.0, 0.0, 0.0, 0.0, 0.0, 0.0, 0.0], [0.0, 0.0, 0.0, 0.0, 0.0, 0.0, 0.0, 0.0, 0.0, 0.0, 0.0, 0.0, 0.0, 0.0, 0.0, 0.0], [0.0, 0.0, 0.0, 0.0, 0.0, 0.0, 0.0, 0.0, 0.0, 0.0, 0.0, 0.0, 0.0, 0.0, 0.0, 0.0], [0.0, 0.0, 0.0, 0.0, 0.0, 0.0, 0.0, 0.0, 0.0, 0.0, 0.0, 0.0, 0.0, 0.0, 0.0, 0.0]], "mBiases": [[0.0, 0.0, 0.0, 0.0, 0.0, 0.0, 0.0, 0.0, 0.0, 0.0, 0.0, 0.0, 0.0, 0.0, 0.0, 0.0]], "vBiases": [[0.0, 0.0, 0.0, 0.0, 0.0, 0.0, 0.0, 0.0, 0.0, 0.0, 0.0, 0.0, 0.0, 0.0, 0.0, 0.0]], "beta1": 0.9, "beta2": 0.999, "epsilon": 1e-08}, {"inputSize": 16, "outputSize": 4, "activation": "softmax", "weights": [[-0.07049084784658753, 0.14782544823221488, -0.20638490133483126, 0.13815926049112223], [0.059612189026637036, -0.8920261504130429, 0.30669418662568093, -0.3900002524388713], [-0.8565001498537386, -3.846531483193713, -1.8173788214929103, -2.459837024420061], [-3.0946598064529134, -1.9666828238221392, -1.53238816831813, -3.066478311090387], [3.2249894686684755, 1.3654559265963664, 2.8108986031601892, 2.2555416981024607], [1.437762854592867, 2.0340824451573485, -2.9639946569668414, 2.148146103379272], [-2.92897857795585, -3.105902367567968, -3.0371571920890763, -3.014604933874778], [-0.6294473255181509, 0.12729098233180772, 0.050639902276113286, 0.7835921954278986], [-2.6831471775499387, -2.101438436694736, -3.1969733689631936, -3.3691272672351897], [0.5559408822564634, -0.5774969190871545, 0.46908393887023764, 0.4975729526146475], [0.19630163006902246, -0.1742218115807959, 0.24965719311534226, -0.12046155878918118], [-2.33281731843399, -3.371299229692749, -2.2357587866608886, -2.5430840788188873], [-3.273590197119943, -2.775664097114603, -3.273917140947406, -2.7226150667723172], [-3.0329394035729584, -2.5689848372605617, -3.302097159264015, -2.00021069151453], [-0.44849260677962344, 0.4444051027243665, -0.16602293912578503, 0.42735873354672194], [0.7376200940461295, 0.2645063278860782, -0.10093113913683213, 0.0465039647621448]], "bias": [[-1.3400597118302615, -2.078920512755525, -1.48800360817747, -1.027160242310835]], "mWeights": [[0.0, 0.0, 0.0, 0.0], [0.0, 0.0, 0.0, 0.0], [0.0, 0.0, 0.0, 0.0], [0.0, 0.0, 0.0, 0.0], [0.0, 0.0, 0.0, 0.0], [0.0, 0.0, 0.0, 0.0], [0.0, 0.0, 0.0, 0.0], [0.0, 0.0, 0.0, 0.0], [0.0, 0.0, 0.0, 0.0], [0.0, 0.0, 0.0, 0.0], [0.0, 0.0, 0.0, 0.0], [0.0, 0.0, 0.0, 0.0], [0.0, 0.0, 0.0, 0.0], [0.0, 0.0, 0.0, 0.0], [0.0, 0.0, 0.0, 0.0], [0.0, 0.0, 0.0, 0.0]], "vWeights": [[0.0, 0.0, 0.0, 0.0], [0.0, 0.0, 0.0, 0.0], [0.0, 0.0, 0.0, 0.0], [0.0, 0.0, 0.0, 0.0], [0.0, 0.0, 0.0, 0.0], [0.0, 0.0, 0.0, 0.0], [0.0, 0.0, 0.0, 0.0], [0.0, 0.0, 0.0, 0.0], [0.0, 0.0, 0.0, 0.0], [0.0, 0.0, 0.0, 0.0], [0.0, 0.0, 0.0, 0.0], [0.0, 0.0, 0.0, 0.0], [0.0, 0.0, 0.0, 0.0], [0.0, 0.0, 0.0, 0.0], [0.0, 0.0, 0.0, 0.0], [0.0, 0.0, 0.0, 0.0]], "mBiases": [[0.0, 0.0, 0.0, 0.0]], "vBiases": [[0.0, 0.0, 0.0, 0.0]], "beta1": 0.9, "beta2": 0.999, "epsilon": 1e-08}], "name": "snake", "accuracy": 0}