{"layers": [{"inputSize": 122, "outputSize": 16, "activation": "relu", "weights": [[0.16273295856891826, -0.09806809824377201, -0.33723717577791096, 0.006920564387693288, 0.3393562069024471, 0.018330779601298478, -0.01994130043573757, -0.13949034653942063, 0.05242044314039037, 0.15009994919752878, -0.09038874311097042, -0.09066202177477287, -0.046913917351107524, -0.23473279423394336, -0.03901255649951984, 0.30522298555144434], [-0.031252150994139236, 0.10365897070586745, -0.09746334196238857, -0.09504773484687304, -0.1603385220933762, -0.0914804051428423, 0.07349929010008688, -0.09150772015324238, 0.006840621042040592, -0.38423210886193465, 0.16386864885559585, 0.07980828497454029, 0.4162887609834587, 0.1251521359435073, 0.030012143387905144, 0.06611950534943156], [-0.25608990439243456, -0.1275173127708327, -0.08293559629564863, 0.20343745942029487, -0.0932636392413725, 0.12326534366162493, 0.1481099313235984, -0.059265229214003186, -0.10506596462305602, 0.10693584529064035, -0.18843402462565662, -0.056843400137878246, -0.27233961519279154, -0.11861229578651801, 0.006786080960591924, -0.2233020802162161], [-0.05498668292572753, 0.07356337886382017, 0.1011507851631848, 0.1532148367513066, 0.13752910019491493, 0.15427849686172593, 0.024748603524459158, 0.26460818733366975, 0.1452205780131854, -0.24867828351043156, -0.15944873944195184, 0.10418312911484212, 0.03309466172785985, -0.06062224714131643, 0.19422495640271653, -0.027413819131765545], [0.050190731789146584, -0.14046562390839634, 0.1448122491725699, -0.16585814116242506, 0.19560617269972191, -0.03546458735245421, -0.1259461046849464, -0.2112509146865131, -0.06129210033010416, 0.09113690828763112, 0.15110350465955208, -0.13581198458017665, 0.13113799887547592, -0.003002302323376517, -0.07531898036720255, -0.05984978862236114], [0.19318863920372373, -0.017419373655007054, -0.015064855399806955, 0.09983359556694581, 0.21808114589531352, 0.04147861935043069, -0.13408737622031114, 0.0909321384078539, 0.08344355840128699, -0.029066712218735424, 0.13904232173736927, -0.0012231669844768175, 0.14480679848746236, -0.1668814548369166, -0.21457426519129386, 0.06553844116225228], [-0.04050357875020518, 0.1483824751648979, -0.09444128057734258, 0.05403003943691582, -0.03516955592409948, 0.11310933557175179, 0.10507920955319086, -0.02082927658686021, -0.05078835363196235, -0.11318830946389541, 0.004989555286370742, -0.1353214502365717, -0.04861498627545251, 0.013671933928093625, 0.051459020218062, -0.00676976918981665], [0.10738575715464108, 0.14123494292503488, -0.009709534209661794, 0.15645142559434694, -0.02221869615687583, -0.050494556874028436, -0.027866182024797556, 0.1714648610928556, 0.16266578066145826, -0.06929840738219023, 0.08586599794582919, -0.024408530149571738, -0.23837649801003905, -0.04172606272181894, -0.09652590195121871, 0.2214764686526032], [-0.07360556038765495, -0.17686140689581073, -0.12751501357351844, 0.13566251604004995, -0.06438750777805576, -0.08704426689878525, 0.0037673731859743905, 0.04639230782942008, 0.08245591729198953, -0.18772516770141734, -0.01973796755142349, 0.18445903461348523, 0.0998575910993978, 0.04839442014813994, -0.1267866514815403, 0.0573941846048517], [0.022428641344011853, 0.0342199871353121, -0.10736689230915376, 0.05590486305665563, 0.0213890412461056, 0.026905847670451868, 0.0395722217869473, 0.07338210195004936, 0.08137109650843902, 0.07814461400702621, 0.07451637486734698, -0.08154473031846116, -0.26449753276807064, 0.03400650035579344, 0.03378502638980242, 0.08625239037875318], [0.10633679264754857, -0.15406691944787257, 0.00952115442524243, 0.024368653710182892, -0.00833842638825948, -0.08047765437216581, -0.1578242461455985, -0.07489764097913928, 0.15435120121760174, 0.15216495817402265, -0.18047567242132231, -0.12052972581582082, -0.2966362413929908, 0.059652795237633775, 0.05172207352492022, 0.324085673416208], [0.06264050621714203, 0.09412764689070223, -0.08021676861798754, 0.15353702344985654, 0.16267212890208949, -0.23866175746170204, -0.26021454073683414, 0.012960773574690786, 0.100035669685357, 0.024022209547489935, 0.04695694505196033, -0.03788298004589968, -0.16608600387451636, 0.18006489333226783, -0.07259420311761167, -0.01803118840605656], [-0.3119797509842366, 0.10257823972032135, -0.03021983662050571, -0.05691209256737264, -0.15488424837628093, 0.00802150313358415, 0.06119446735903358, 0.26876731554191147, 0.06474579078617068, 0.03263545928822513, -0.03522150451627334, 0.11262548255492977, -0.11769117365664798, 0.058655669890863925, -0.08215194942795716, -0.04274146644616767], [-0.06864447544277727, -0.13921757091707493, -0.08832792069468667, 0.0031073160770149063, -0.05563967405992848, 0.022824923856212598, -0.03694563457847991, 0.05133478224849033, -0.05374175773282343, 0.040458891650429506, -0.16832542694168892, 0.05276193738214387, 0.16000820431848642, 0.1875672135878617, -0.04231674249607218, 0.014603126617672421], [0.04631493350620191, 0.005179017829639808, 0.07481328504034657, 0.04951250778830508, -0.007981332971539369, 0.18911675672812514, 0.2930898857353888, 0.09773694939460625, -0.007680047438285045, -0.006970855860480306, -0.10407452349701073, -0.04379573338782416, -0.1733794601515901, 0.09397785786318445, 0.14935001014784186, -0.022658642856452166], [0.14548135208023225, 0.08801857694418246, 0.2020308147827322, -0.10616322693007339, -0.16300954487351008, 0.08363684443586934, 0.05266997674035208, 0.11574733869965964, -0.040154899610843585, -0.08156131619562006, -0.2748352598918061, -0.06041593220556605, -0.057833940253133424, -0.28823633660896303, 0.2168618533646308, 0.024972972309351506], [0.24406551723577763, -0.08468750932868721, -0.1725059639380407, 0.05083483381830661, -0.00841435604805559, 0.028302420288338622, 0.11341821903116366, -0.08579751803018504, -0.09447836520747643, -0.20068655253641027, -0.05730759203604904, -0.051466238615523095, 0.059497167676787546, 0.04932786997775349, -0.10664335871942357, -0.08155098486050488], [-0.06903684088294924, 0.028127954184254605, -0.18781444437729086, -0.018481705974816433, 0.1426966913277574, -0.023796891393246037, -0.10751008535619075, 0.06027932671536439, 0.04481931655340438, 0.21462555473180292, -0.04054008310000653, -0.1013159274789954, -0.18702308591426242, -0.10322252088246532, 0.22081649353988042, 0.02050426741664797], [-0.015558742320782179, -0.02749828084356115, -0.0628146078666047, -0.0342213081439312, 0.19969143519690957, -0.01396798631344273, 0.08890044858360098, 0.059716914096803145, 0.08511769710562501, -0.014546255260143574, 0.012237971897482375, 0.04465092261496433, -0.07674129841955335, 0.06501135304177955, 0.034677542931698516, 0.033398683791715025], [0.28899227453853654, -0.07801915811891309, 0.044271304858235404, 0.13047293327476572, -0.014455512559537548, -0.16031542047151912, 0.05482649804318872, 0.07403792848013037, -0.031046004392311338, -0.2176463481370546, -0.08387678326050704, -0.021331382881095075, 0.03568622547243908, 0.20365505011284266, 0.1903982747977022, -0.06562492662329883], [-0.04791329983167537, 0.06283617126186083, -0.04469792209294821, -0.1733979217278079, 0.013357401309578097, -0.03774072844679388, 0.02277057658690155, -0.03626340961832335, 0.04986530864009563, -0.24383952387894622, 0.24712580629562655, -0.039172054524152906, 0.18842804797168747, -0.012715780546566772, -0.029261601799162432, -0.1554582466690361], [-0.1541835170164233, -0.21891995979288623, -0.2308813130316209, -0.11594168834657596, -0.007254561569909807, 0.04765764918890418, -0.06533841958784353, 0.10187514358176454, 0.07415322598391769, -0.05442492190245786, 0.14470139113110278, 0.2514701354107631, -0.2223041575470089, -0.03260816124737912, 0.015328993016210674, 0.09423384742985022], [-0.10773449298466568, 0.03279344565039481, -0.1253419090267069, -0.09334228319509319, -0.04309181621473221, 0.06527214813610309, 0.016539240242909013, 0.07700636883590914, 0.12115432725734299, 0.06923656811907417, 0.21801221227182946, -0.05215425570733435, -0.015405263048038197, -0.09505856496319189, -0.1647259139483123, 0.0732562606395947], [0.14999706451217018, -0.031136828936423566, 0.07548369146350259, -0.07647080570588177, 0.17750636013908566, 0.09483998152661803, -0.055037759299580054, 0.11402665877546861, 0.041996125718198996, -0.078853071824392, 0.056319780599898485, 0.09814835276467507, -0.12580576717784334, -0.0053417712285414075, 0.1371794093818782, 0.03293037158682162], [-0.00814646679731557, -0.03336228206617946, -0.11788024602460084, 0.0794860063719591, 0.14244574047232664, -0.16368847327255753, 0.013634810601533352, -0.06081550363494623, -0.029051016013809574, -0.12370907877998438, 0.021084422606529797, -0.03463693319605233, -0.015930447724216493, -0.18867301208457196, 0.014544642810285679, -0.14550954607393224], [-0.062443591991543486, -0.020584908798343723, -0.15836690417376986, 0.1254257046000332, 0.16444923542546838, -0.05808397908101613, 0.11199378038619709, 0.015796447129340127, 0.006466599245398887, -0.08838828339376231, -0.16554886175046385, 0.01674517583330226, 0.0008567536469207005, -0.09703467245111363, 0.023136131267300963, -0.21809928819655905], [0.04906147040824456, -0.14025883651958454, -0.03497168633028206, 0.17516236419797884, -0.08045044724612328, 0.15600487171949146, 0.17061100125110945, -0.09115705512949218, -0.1229249385395385, -0.10932714556299734, 0.10360693645609904, -0.014089039401608553, 0.11939041135840574, 0.03478124586409559, 0.09595444706242491, -0.009572122216661963], [0.10663876776116782, 0.0013204231094290871, 0.07256255769373647, 0.24365453947204027, 0.09151665300780054, -0.1995540406034462, -0.005380941284606148, 0.06681262958791415, 0.04324756538069045, 0.0632935495954854, -0.11541096710688242, 0.02620943574713423, 0.019111281747237564, -0.11066085060043815, -0.03510157408203632, 0.12085816406906963], [0.02091585770047872, -0.030969744924159673, 0.07404153229375979, 0.03789822966148487, -0.04217524469763486, 0.1374644897576537, -0.1677991681881734, 0.2251401051084573, 0.05725597588583728, -0.01405908700093059, 0.02284936381722946, 0.1778545177918335, -2.6353542784559245e-05, 0.04578170102895206, -0.3536118140507433, 0.14569969967787255], [0.0554488052593789, 0.10630077065778484, -0.11263876009136513, -0.12224824434495814, 0.15476751719767945, 0.2057793528307357, -0.05186443192814668, -0.02984328702457953, 0.06503810936093735, 0.046297920086543376, -0.21488165709078394, -0.12335579143158401, 0.09544375136203552, -0.10558161633785285, -0.062341089254946476, 0.047571732712908175], [-0.02920749408748606, 0.11733397555306618, -0.144336037222177, -0.04844419592317923, -0.015323238410722532, 0.17549359985579113, -0.15693956881547125, -0.09334745500886671, -0.08331008939372116, -0.027716722067927604, -0.13051402046542657, -0.2733758982585276, 0.24537183807367635, -0.026274840401454634, 0.22057543416512188, -0.16528402521698773], [0.04888568183555733, -0.0878148878066219, 0.21007666467625352, 0.25581877074524884, -0.051320654252274965, -0.16604348892040546, -0.13064467978470914, -0.07816666964004004, -0.02414340097460615, 0.20739377614331667, -0.06692941255494209, -0.2586068139957198, 0.05675081010531558, 0.04143216836363982, -0.041476372809127755, -0.10791405377079469], [-0.005611763853361735, 0.18761287348698838, 0.052696691685774164, -0.07255012521865334, -0.003822310964174647, -0.06326171206909348, 0.00852010848761101, 0.07418664852393758, 0.07870772120076523, -0.20683982930469388, -0.1696453347442534, -0.18057282188990853, 0.18442499743654606, 0.045165881976331895, -0.12771594409368345, -0.22246955292456017], [0.23239900982817022, -0.017015967045866755, -0.10071298896494361, -0.2545226058523095, 0.17063700896939918, -0.028000229837390988, 0.14604777886118456, -0.07264197394378777, -0.03775810647694884, -0.05070353640820633, -0.01895662124937938, 0.014423158960863696, -0.1946494704183117, 0.21696441309538805, 0.11500620861507746, 0.04959614026470871], [-0.0009324192014729127, 0.23163941589670098, 0.11988510013770683, 0.04027430251626824, -0.06592931208681624, -0.0742567275539731, 0.24156020120035138, 0.08618121300225196, -0.0006615318827048555, -0.12019909230298463, -0.15850774560759207, -0.031164616819470286, 0.2218426338220811, 0.15219073695483645, 0.00041790567035297516, 0.16349131227048253], [0.18807700519229853, 0.18143681267460443, 0.040856184476323616, 0.024026361126392087, 0.05005137473424868, 0.08066792955488017, 0.084067237726503, 0.12124830721059053, 0.05290727199378592, -0.20716991963874906, -0.17185521704579512, -0.07557311822448579, 0.06298926808899627, -0.08025092070182235, 0.027699306286079216, -0.059606566559999595], [-0.1543565497264054, 0.07042637649380339, 0.06981243729230331, -0.14180008590642276, -0.07341812512030395, 0.0655348676349925, 0.10340574477632694, 0.18900721330066614, 0.00420679616965354, -0.13658587041866285, -0.05535413625325449, 0.05491918955806841, -0.24060964952018682, -0.003699502243908627, -0.10991760753938036, -0.08730713334254511], [-0.004862947460432727, -0.0013539359791833712, -0.12324139552606898, 0.02231556078307408, -0.15244250622298022, 0.05663266112063338, -0.1049587708102283, 0.11645543829501792, -0.05850922083161811, -0.10056089055371839, 0.23986772715584634, -0.023669594242295196, -0.16081209255269968, -0.11020163221338025, -0.06805823450380126, -0.08998079269976024], [-0.12975324314878833, 0.0043312033004768, -0.004688161323682971, -0.06537662277528182, -0.14177303701313315, -0.16061935017803844, 0.1146093850096666, -0.09429005754627076, -0.04800548069236821, -0.0572141881052315, 0.0894720082592486, -0.04046094218921452, 0.10798790424609377, 0.04674984059995008, -0.04659446855426299, 0.013620359810117453], [-0.14200770176234268, -0.032615887854683494, 0.05152731967027763, -0.08088528760280456, 0.0007350610427270362, 0.1393738367608445, 0.12940763080254125, -0.011342275072338181, -0.0028897489992123276, 0.05081621502840815, 0.2709414357096289, 0.05852631264609212, 0.06441734907022183, 0.08584612904865567, -0.09121857501256889, 0.05323788205374783], [0.1769736991040138, 0.08096473201856504, 0.027612644553822688, 0.17799826523337273, 0.015448639905270206, 0.26999442169393084, -0.20552306512875895, 0.038527668372351526, -0.036275680085205105, -0.10510486462949069, 0.0716909307233581, -0.20714858758852853, 0.00853109271587159, -0.19706739743808532, 0.051746703616572895, -0.19235849983875677], [-0.17671330962500315, 0.19130164845988865, 0.12297011555452782, -0.04801947031767478, -0.04921522606519304, 0.1654393620580567, -0.4135196722929148, 0.06898734920423967, 0.012295059765381545, 0.024545426243519516, 0.09224120337617667, -0.14704906991530642, -0.007743091315162693, -0.2077269962776645, 0.03166597910258978, -0.06080925169828929], [-0.08971818629220046, 0.012136379992783042, -0.12084830004822118, 0.029672683472886388, -0.09388368028992382, -0.010404989786827487, -0.00077561768511654, 0.04082249854437441, 0.007717562503057534, 0.1515530335663766, 0.10792135684251866, -0.02173057857779509, -0.13164672660879806, 0.06769803241274364, 0.12837063406205645, 0.18218556156944643], [0.17855638463574686, 0.1633083218200394, -0.09189741352034887, -0.0892265948125769, 0.16729665790027878, 0.12854133056226846, -0.02434729123266525, 0.0996937486463491, 0.08474705218158127, -0.056312895340105126, -0.07109493846085661, -0.04951336474256634, -0.06838466313524731, -0.006466144422973652, -0.2309237412618635, 0.09238264389207794], [-0.03064578968667822, 0.028111046328944858, 0.009560156075962058, 0.05595889475584828, 0.2688266510964692, 0.08298154517343395, 0.0023973490220862703, 0.01870172098440836, 0.06474472175169085, 0.0705915690115787, -0.19272832090067463, -0.02123820448469288, 0.041972516246844005, 0.0016430302054717095, -0.002577608294038518, -0.1678344731263472], [-0.03534413939297615, 0.014663930020210884, -0.08869047395872169, -0.001317451622607975, -0.19558770743173132, -0.05087660018979362, 0.05086064146225434, 0.2843034778701334, -0.04743945901411341, -0.031848857727053925, -0.33149423922281174, 0.11416828590002857, -0.04056527956821632, 0.16233900745626956, 0.041596677814520915, 0.06269210003524785], [-0.036205689865041274, 0.05736152905159392, 0.03582507545101566, -0.06638780085510151, 0.08955758001730756, 0.12948044992007843, 0.14737628221890517, 0.0830380468075727, 0.07574119928617042, 0.1000037002997619, 0.13668656847576025, -0.07369921253137024, 0.21787619748370304, 0.06120391232968038, 0.14139718819491306, 0.09673401469084665], [0.0758112454405978, -0.1541555769146174, -0.09297988072265544, 0.21877272515442098, 0.09469217727556774, -0.060244064925083024, -0.03625406254529375, 0.2168509487183639, 0.11610816915720513, 0.013643012027029984, -0.08500539602144928, 0.2757532457024158, 0.001140379484703133, 0.15302144876423235, 0.14607575145696985, 0.23883697032346954], [0.07081151789352359, 0.06837826991722387, -0.08997777799778295, 0.0062396823323017684, -0.046635305653331405, 0.31167039804577984, 0.09071626228242782, 0.2677248826617783, 0.051870924900532495, -0.1314405865555449, 0.057284575348178296, 0.06353492263485644, -0.03517163770852611, 0.13124800696482178, -0.17812975236903333, 0.014087282742435345], [-0.12051159126080967, -0.0727860354650089, -0.12527987135533147, -0.00941390996261043, 0.2576365549131128, 0.1747929762419971, -0.0792322939657642, 0.01958707148941141, 0.04736653668146327, 0.10182117743552915, -0.10535912016410963, 0.010236506412475551, -0.04377810611191743, 0.04746736830564328, 0.0003341086606335361, -0.12385768799840323], [-0.01220285628629521, -0.05235339029603628, -0.0056650999215388294, -0.08686969596945983, 0.05578755051445531, -0.027650461369326033, -0.16507564598862084, 0.3008579587403935, 0.05458782920024954, 0.11698135818149265, -0.18893324235807718, 0.11499168843716542, 0.15428274315941007, 0.08379853539909748, 0.2433785474620743, 0.05485249279042348], [0.022744827694158882, 0.0137970898821019, 0.05161709815259575, -0.0028061836772475318, 0.0287501359487716, -0.19569510965066453, -0.09877599223490542, 0.16425616915840355, 0.09907452094824355, 0.10430599636648978, 0.0384257785365251, 0.020119825465039765, -0.04962129903761779, -0.07564756705193597, 0.1882454942155593, 0.11166877437051323], [-0.0416177784116586, 0.016655797172703983, 0.03540898851629353, -0.09511602325458297, -0.06139551179782175, 0.10309918228230451, 0.08563258726905067, 0.06194047874830819, -0.0014711668186157226, -0.11423333431502296, -0.0967013359790635, -0.03927261287533449, -0.023222812205971867, -0.07709353857690006, -0.04349178834841151, -0.033960361777388044], [0.11256957463437876, 0.32341153485182794, 0.25473723334339166, 0.039076289777013204, 0.07694704925201076, -0.061295426279994694, -0.15462297182392734, 0.030548499425694573, 0.026260497193797066, -0.2559207749947806, 0.1070545423301052, -0.14088755246897114, 0.033035636356497776, -0.27291815232676864, 0.04822662545568362, -0.09082564031181672], [0.03456688001206356, -0.0699260190403511, 0.06593543789007364, -0.062196344326092, -0.008535993951702387, -0.025378025788789504, 0.18648013372221178, 0.11176270647026855, 0.14899461744009906, 0.006095964706031043, 0.16090114995867769, -0.017941968599021446, -0.11724584596214822, 0.06615410756675985, 0.06099080910533175, 0.010685146921307542], [0.09428587125516366, 0.0008987174715612288, 0.0653638736197304, -0.17122825920683019, -0.13003391796800173, -0.04546118959549117, -0.17981277458406103, 0.2610009498804762, 0.04855475921467315, 0.007495576589399633, 0.06949402448916318, -0.02251376737766637, 0.019527894139547915, -0.039635860590985644, 0.0046641551466635725, -0.005213339219860724], [-0.1168859939498167, -0.00016178713632152564, -0.12157006645439201, -0.1576052958066448, 0.061725165801403734, 0.1442756829402007, 0.3210845115734256, 0.07661448864448554, 0.0803174447276654, 0.0139562924157189, -0.04641602554520204, 0.15429489474309308, -0.11482748554160176, 0.019682016265557326, 0.1480705937311417, 0.060371261653367383], [0.24444012207630192, -0.0919811467401339, 0.0006437791681909054, 0.025543041052124578, -0.20228514373874096, 0.011970556258775248, 0.12251336256718942, -0.08720043035357963, -0.11529595488209986, -0.10910826391320962, 0.1740535358093249, -0.08079403951819981, 0.11551278524348396, 0.05281903265387122, 0.12003450184566436, 0.048525538404335766], [0.012422839820895192, -0.010907177454220221, 0.031764312325502135, -0.18046201967603046, -0.0961382781561861, 0.11236799235949853, 0.23542065957023312, 0.20825189107429637, -0.008894020573981913, -0.16340292424275238, 0.2603399662342214, 0.09440521479560407, 0.15029306903581974, 0.013605518873837048, -0.1790138341632237, -0.07632399577611855], [-0.0028315897761551144, 0.1715079702967576, -0.07831493668575379, 0.0822418803423221, -0.2184381671534043, -0.17111871504330756, 0.020472463605410746, 0.07830886930700043, -0.027284776502554387, -0.1267935842408254, 0.07447939867736647, -0.11131327381405051, -0.05891809160075081, -0.08659303065102232, -0.055033760032461326, 0.012926462019327805], [0.005434110547454041, -0.010658254424847554, -0.08024281059225954, 0.034425175496316296, -0.004657225850266883, -0.29400265586179, -0.13260468256784744, 0.042403669201395135, -0.04623945393013376, -0.07707036687889501, 0.08573200744987713, -0.08824260896992893, 0.1371956366368451, -0.06248351696962603, -0.015618892074974244, -0.14166244715789972], [-0.05919858507730973, 0.07408544755983336, 0.27624494837348496, -0.24223123243518893, 0.1480715794557675, 0.023865690237136167, -0.20532952091640844, 0.13830052455293715, 0.058630781479590596, -0.062192355024902446, -0.04397212482885026, 0.008093147489281027, -0.11329078116569742, -0.04947330680468718, -0.2438155542746544, -0.05449231464378582], [0.03182335918166536, -0.11020391243443196, 0.11587720093817776, -0.019142770001045542, -0.055362133737317444, 0.11384392340515527, 0.0638565803885288, -0.12382682596507294, -0.13533463139348129, -0.040979821813911375, 0.0148331879837239, -0.0884266099138972, 0.05014572883557425, -0.09212294903677357, -0.0640686118192393, -0.10293269197556562], [0.030436526917035044, -0.013935361340000495, -0.16726862411040408, 0.13436451558863277, -0.08631106332047501, -0.00994349040786274, 0.050870765328054915, 0.02343027595532252, -0.03986931569812281, 0.15366412724310485, -0.016285777552850794, -0.06505441016540423, 0.06460302768724847, -0.065476450463351, 0.039165269954417874, 0.05457441510743213], [0.15568827821506348, -0.018955939935365748, 0.04070266202411153, 0.26060537737353573, 0.06493018858640215, -0.02775529935994367, -0.013010460131110816, 0.02703474710600977, -0.08297207583965369, -0.04356361449290149, 0.061081095594075846, -0.03517990615668756, 0.11400856297958427, -0.12470533970951982, 0.1504301859530701, -0.10567345448718732], [-0.1840323172120313, -0.0185555986859456, -0.08485692850723846, 0.25284934783479324, 0.002470075626279498, -0.05315095441133317, -0.10474590925202724, -0.11419198506322006, -0.0543737931631424, 0.11703967855114225, -0.03505129561616281, -0.07267570587747903, -0.05215172432925074, 0.04025777984093068, -0.06337619327428287, -0.14406105632667848], [-0.007738798806641454, 0.13371189443821685, -0.1259164676407046, 0.13115959972777677, -0.15658280318045667, 0.1027763565643418, -0.20347764950044814, 0.4155107085981146, 0.07478621877370158, 0.056376764548738044, 0.004785629106851756, 0.06838718448834788, -0.17528648800479246, -0.08915538656845708, -0.14392094882529208, -0.028867939433777624], [0.028048073773744325, -0.1357211619999337, -0.1017634386603003, 0.21580175982792346, 0.04379805982516329, 0.036446487498272034, 0.08264953730972889, 0.06264502019442289, -0.00959623255386337, 0.11994265984164283, -0.09470201204430488, 0.11955367933987347, -0.15160064133958592, 0.03949914654755955, -0.09031020881800733, 0.14613651843532569], [0.15323464776151904, -0.0738489659148793, 0.19148715666089364, 0.03569809427082105, -0.04146888392586086, -0.20866853475123678, -0.03971273210742033, -0.006983062437545708, -0.07307467581162656, -0.25364775415888363, 0.21558588010768706, 0.07972625564262263, -0.14451475529856342, -0.05390987783157593, -0.0037984692649955937, -0.04275661256990545], [0.1465884900934584, 0.0785206179602433, 0.0948364084428592, 0.13543867793242345, -0.050588005431586446, -0.11934978244201762, 0.11371803662878256, 0.2744831842703314, 0.09501501082152136, 0.00093315842627181, 0.015076936695296392, 0.040799153283352034, -0.08560275666777717, -0.020474040287948685, -0.15037965863240846, 0.1051865051250225], [-0.0434464145400917, 0.013826451868725817, 0.030892406497596694, -0.07188422314493816, 0.08864919182327399, 0.013033543799038202, 0.033165371531303084, 0.23607215441834728, 0.10793040394080408, 0.20205311707337387, -0.05391717738807311, -0.0004012178444783822, -0.0014523595216377786, -0.09601206137411197, 0.18215420881861466, 0.10935396208913788], [-0.21374638573703666, 0.18950130994700767, -0.20505913619034646, 0.041281970659842106, 0.060903262866191944, -0.19940123862027748, -0.04869299193319188, 0.0479492246632617, 0.049223186363463595, -0.08667088501824209, 0.00814854505166385, -0.09643838902423449, -0.09206179687103921, -0.033295478814662854, -0.11891992644643877, -0.11292778967404776], [-0.01385757581138436, -0.023052400143328888, 0.12231476266258132, -0.11143068326653834, -0.16235481129493742, 0.2772266486681922, 0.24395138854874016, 0.10387560911368755, 0.03486239811965312, -0.061058109770247275, -0.07733935157246316, 0.11918126010687281, -0.2195291663424987, -0.15071467504886066, 0.010518533188804446, 0.2685214004785469], [-0.09363499454857677, 0.020894344701587825, 0.1275559791377069, 0.1987375076688462, -0.19607133667874568, -0.021298199400425606, -0.08516954493068637, 0.06390600108467898, 0.01562509128436175, 0.038415504959552406, 0.15719668571815326, -0.055179965155754906, 0.1679979083660985, 0.02924336601999952, 0.15886720381293126, 0.11281093914715293], [-0.15161603228567103, 0.016451075275999465, -0.006210304803669995, 0.13805915681949565, -0.1452565570408178, -0.06863888542295349, -0.12457317565972176, 0.08994296030052179, -0.03886217940027203, -0.1052854951345983, 0.21822530373368815, 0.03430759431401801, 0.09568665386865305, 0.034820249465159596, 0.043480528724742604, -0.06293781427898464], [0.07900735565724192, -0.1466273913355266, -0.05095711398600485, -0.022783276005968748, -0.13700239198323957, -0.07381986861921468, -0.013024481812560365, 0.13542290036827995, -0.11602705598148194, 0.0187946546700062, -0.008572519320757043, 0.025232002363653618, 0.13038591050876072, 0.009017366144887615, -0.23833246348836795, 0.05452468394359016], [-0.02434923304453187, -0.04590212237524589, 0.12755485996490246, -0.07162634703568924, -0.011167940717755839, -0.11084444046324785, 0.19545028645604245, 0.028727470639230267, -0.030312209227583636, -0.0023444134074816006, 0.025040762605143894, -0.018579879389522873, -0.07971094671393979, 0.04823145764498724, -0.09552092387853164, -0.22275350117974776], [-0.0642545780455976, -0.027231250213842064, 0.23756388624846805, 0.23743988924529622, -0.014476632346561756, -0.030975071904863594, 0.025423000026364537, 0.05257950177999571, -0.07769512442678038, -0.08211662637480001, 0.09385319392365363, 0.02135926548610216, 0.11974326618546705, 0.021284624752473558, -0.10137902776130008, -0.15279670495835823], [-0.10426364038268668, -0.06136128715757048, -0.13403462828426474, 0.14852127504332036, -0.05305457147931673, 0.24620437849280918, 0.06828976305760741, -0.06959227087644639, -0.07357621866985832, -0.2177113079537547, 0.07682694868351916, 0.019666503706652266, 0.03733568664603026, 0.07596860124445183, -0.036063696972381126, -0.17336354899991965], [0.1191005084249596, -0.013762981919923296, 0.2821831082441971, -0.14290433599230587, 0.0020472478121877015, 0.07876331936718405, 0.06873576731921249, 0.31048837147827, 0.02308330183435379, 0.23307191334384075, 0.024748938582325946, -0.08336990963523001, 0.15571805084108406, 0.14114395246995376, -0.07301878097068877, -0.08924641994970543], [-0.1223659608777304, 0.09924078471278226, 0.03143909424953703, 0.16837424864701095, 0.08795962002196502, 0.016730296078016186, 0.09119970700888219, 0.11839640921850177, 0.10012070097913416, -0.06289390730946369, 0.08442991597336853, 0.1039378061540168, -0.04519682492993211, 0.010534756619583193, -0.023838877335538158, 0.06829360788614049], [0.06605514081715663, 0.08804688341765289, 0.12848829844301565, -0.08814331965553382, 0.39108606066733553, -0.10528916666809762, -0.11833818688278461, -0.011783833284471124, 0.17657359750468532, -0.010464659129389075, -0.11768589549330183, 0.06174835080192495, 0.20979435965395693, 0.1778578480401831, 0.18508605136185924, 0.1511547175052139], [-0.060109471219504065, -0.13966715163383384, 0.2639538070987593, 0.028844229139842914, -0.10416082892967092, 0.03961889330574655, 0.013942488159993487, -0.025013018459551003, -0.057305531002016165, 0.04380568104578484, 0.020587789418113588, 0.04851683176013143, 0.11865622633728207, 0.09571179194487618, -0.009444407153106234, 0.11899298091872125], [-0.05406438814355008, -0.062264666996729084, 0.010511251216431858, -0.1639144217478885, 0.1349378197847714, -0.030552852744963492, -0.032586113037426555, -0.09786239149770207, 0.01231680247551843, -0.0828317688062026, -0.22840458494812685, 0.040435388147104186, 0.06154982681653118, 0.061296644122365275, 0.0824896246500807, 0.0036834254546984], [0.12646452781569742, 0.04089918634545627, 0.1318785153654739, -0.14879618509256948, 0.025070471628069795, -0.11260368159125386, 0.23858263152307002, -0.04524972083820237, -5.919708201581399e-05, -0.12113274456759521, -0.0331913389799688, -0.031031441782594406, -0.023394239359671488, -0.23675627594236304, 0.03801015085007039, 0.10283506044354086], [0.18544514020034814, -0.031921366776370697, -0.038339111579995096, 0.06942122210425927, 0.14839095221205473, -0.1393598044730562, 0.022475791200274684, -0.08799569650604792, 0.006491206294340109, -0.15608620641861318, -0.19977819508322667, -0.009963899263837192, 0.4114528887753082, -0.04730836800689808, -0.07034010361937539, -0.01349559715270108], [0.24213687355894262, -0.1464936938387321, 0.026342377226386656, 0.1475244728401121, -0.03932569722227246, 0.03235514088204872, 0.006346691578657531, 0.25715228396225864, -0.027285381706604363, 0.06891813091138062, -0.033460868438510476, 0.07526389736758687, 0.1645148745428045, -0.20877639661579195, -0.14188511437560342, 0.028101073427413668], [-0.09751047184267123, -0.08379385895015838, -0.06543776628851296, -0.10377551429464246, 0.033710583923006784, 0.03597027708702625, 0.03614216842294914, 0.09129680853476664, 0.13788441435709128, 0.04374045080882245, -0.051248608361138946, 0.08090347183562994, 0.018175764268548365, -0.07057500475564225, 0.04471682666908929, -0.0022168888769832635], [-0.23359516973638814, 0.18281459459847324, -0.009415186935240561, -0.13933704199901967, 0.07938631584959129, -0.06358964551753475, -0.14942322498950072, -0.06992244565145009, 0.03500075638925331, 0.1389087224762527, -0.05387018941770887, -0.04675842438230483, 0.19488024637554552, 0.030802452204594506, 0.24027344145831003, 0.13865474640920367], [-0.157316793015597, 0.00579742360444764, 0.10593363766454793, 0.046579481532709396, 0.09734583415273175, -0.09741241639720417, 0.3048244655573977, -0.04367853681337948, 0.07085103578803247, 0.12357193768408097, 0.1578681202542005, -0.10446423703972249, -0.15626738018149605, -0.18379603782486365, -0.0892896287763892, 0.0023792145351840166], [-0.12570932468944077, 0.0202383327274825, 0.13428793689991453, 0.04091676115764303, -0.21623862712560474, 0.17174914852817175, -0.1674980408432774, 0.0497287051531881, -0.06884312046746259, -0.04780714814597382, -0.07360283505007996, 0.00026756207152583717, 0.03834858211370811, -0.13982308155516512, 0.14011318864697433, -0.010892243402752718], [-0.18431573281718222, -0.16028938380074303, -0.0563368535078261, 0.04800100125430466, -0.04914189570462281, -0.17553550164389842, -0.09155171481194012, 0.0722665861481262, -0.027340937335228833, -0.10423340157371465, 0.04963056406773332, 0.12310327643947379, -0.12715980104720792, 0.2629157334610951, 0.09011120305130103, -0.07858727810619186], [-0.20132272801265155, -0.16349011478577366, -0.2512482008348382, 0.12822115406097065, 0.02805984113256285, 0.09868112670696678, 0.17514525716878465, -0.13901539406912583, 0.07640801631254666, 0.06925345970536456, 0.26626596275996506, 0.1498695613137311, 0.059374329999576245, 0.1926105389392924, -0.29381139660800537, 0.28631467776094804], [0.09245127900763515, 0.10595122363413699, 0.0503097109719393, 0.19190233917781888, 0.21019750802489776, 0.054070598427116916, -0.020260876261854677, 0.009325449475376894, 0.04483885440057085, -0.05167209578491073, 0.11639588044012004, -0.046764985886747656, -0.16595240611469525, 0.15924038026125975, 0.1251014628261449, 0.009730119795510306], [-0.08454766284164172, -0.013833593202960326, 0.13049329983890254, -0.07024298508542565, -0.049505700839888526, -0.042711366739943094, 0.0007179287478293989, 0.08503559333417554, 0.046369579587063295, 0.00330498786753437, 0.176772638767764, 0.02073672398387062, 0.026682072044024886, -0.15401262058384146, -0.14592793967464046, 0.050598012107466395], [0.05000719298466731, -0.08808907345881907, 0.06656096024078553, -0.16280206947512765, 0.09490513363011804, -0.07918726346102248, 0.09122159208904192, 0.08938070188510067, -0.0038043068221235614, -0.14926444379507253, 0.0004067039418032291, 0.1377289733683754, 0.069242164920843, -0.0638802462295561, 0.15337947926162435, -0.08266677951680869], [0.07016703981215783, 0.07955406111922832, -0.21663440882797327, -0.05693941937009103, 0.03430883406318683, 0.047225523403109586, 0.1190233329087981, 0.025468807694698906, 0.029397402911879134, -0.08743758664229434, 0.14884063998386624, -0.03793949434821002, -0.00014883123690262044, 0.026194799696287133, 0.11801627200080506, -0.053516763122628874], [0.07938663366407422, -0.36985663565596777, -0.09838740765907372, -0.021457125420380776, -0.10436218273404428, -0.06793114111095627, -0.08635768270361495, 0.021148807332829145, -0.09261870131557035, -0.021192874403863592, -0.04687403497662878, 0.16142392449172405, 0.126960944521601, -0.07540325705340016, -0.13402053289050658, -0.09669602181283184], [0.06765074050787204, -0.08595501673772499, -0.2145448046217166, -0.12420397218440686, -0.012302540116359839, -0.19643170896047144, -0.04729495473394546, 0.14635040335436877, -0.1075101330564637, -0.08505240530703723, 0.10652945079632223, 0.10728125980821152, 0.12123201010209025, 0.12705145800765974, -0.04966447829356126, -0.04204653199683372], [-0.10737473303041489, -0.052128113452938926, 0.09153703210329288, 0.22103836354746587, -0.011062854504721739, -0.1285267128542145, -0.10354069679254287, 0.21283089099334704, -0.039356146885639084, 0.0622193538072529, -0.009754599887070612, 0.1813080415038923, -0.21752603174529334, 0.18920343454439167, 0.07966530203583998, -0.023773232271077447], [0.03559928671403171, 0.08707308657910101, -0.1851110532159356, 0.02374395561497885, 0.26559902105902927, 0.0206338781184405, 0.023303662245627042, 0.04411416962020931, 0.03233631009445657, 0.14321322949852605, -0.12912922565967794, -0.03476883039085678, 0.1913463525807926, -0.11881449942675587, -0.02408605072791812, -0.0028161151333636835], [0.01077236430539906, 0.09793609300822018, 0.17257889935158877, -0.1411714291482013, -0.08636649948550416, 0.2691878563222016, 0.04207654163558159, 0.2583718935198006, -0.03943725425725852, -0.025785161696857652, 0.13208642476759017, -0.00019950779829020678, -0.03462915932232126, -0.2829577236047302, -0.07687032452421601, -0.01870825615953375], [0.15259388110056982, 0.026475747887107562, 0.04269472060802991, -0.04730832266575252, 0.23406701594989873, -0.20024466699608579, -0.010101663189357039, -0.08112939568332633, 0.03361615338462766, -0.06202042249908884, -0.11136868694494785, -0.055077043199287565, 0.0034200355630446687, 0.06296617802003293, 0.059468891705102764, -0.008239413287707113], [-0.21834400353907255, -0.13686668628013743, -0.1998672560639319, -0.04667839925143095, 0.14373663505291082, -0.11904873438306098, -0.10999544182309712, -0.20354092710599694, -0.00821442962330961, -0.11608931489357466, -0.12403860150706142, 0.17392795161921507, 0.16464151766806343, 0.02980117066311749, 0.28943549853181066, 0.03190316987558099], [0.06300426969998839, -0.1597715875937315, 0.07430374097610384, 0.02206833326124537, -0.06647832755236575, 0.08698366256212661, -0.1629044743515152, 0.09940724901798387, 0.006054304203851795, 0.06680814909029378, 0.16304008243706097, 0.05904966638645252, 0.025982933196996832, 0.027536397087429113, 0.1697479901972945, 0.017535949700242928], [-0.19586526354750358, 0.29904744665688626, 0.09164119778640988, 0.03268069411580884, -0.005861977673294839, -0.08416035232473015, 0.06620438935292394, -0.012619343549972694, 0.09951018245725832, -0.10673127287244727, 0.08447713216617721, -0.0800332810524586, -0.10343044269510274, -0.19099192013052801, 0.004410393274850346, 0.1360429060211529], [-0.14140670087765322, 0.13184180544474533, -0.10306362601698144, 0.0036954440294041306, -0.05415653402797874, 0.13669913329702948, -0.10524244329664563, 0.032656300800544664, 0.06059741983460162, -0.12941427571505734, 0.032439078684527375, 0.03487855750179228, -0.06460895945940408, -0.14901170923162113, 0.03492972118888061, 0.12677777477709407], [0.07845394222318715, 0.1924138956791951, 0.11588500949592666, -0.12441218649924649, 0.0045691714235455315, 0.16425445434606273, -0.025901153631877408, -0.10003150036445631, -0.012266763984288446, -0.20061782230267977, 0.08558742687076978, -0.02401304263752033, -0.1053479840976572, 0.06043192175741471, -0.014397777512849772, 0.24584112314778672], [0.05959371638876096, 0.13834905624474406, -0.026861424893120725, 0.14489345096291345, -0.40274470456990047, -0.01641719195402895, -0.29354969038280354, 0.3435454704050143, -0.07081747469942666, 0.028832833587127786, -0.2627881294092939, -0.18755186886887407, 0.02098448920398927, -0.2551147042343276, 0.07965283513559969, -0.16983131538170226], [-0.04049311941095845, -0.1584589938612185, 0.043846193079574235, 0.1723769228041387, -0.15817427838562154, -0.13426251115005583, 0.060063248732979614, -0.02707383741089414, -0.09282868198169639, -0.20483282699295252, 0.03414726639775444, 0.1633189464074456, -0.09074947784331645, -0.024121776557673388, 0.028358967916468133, -0.0574555569619975], [0.2559934987177473, -0.059683866158779665, -0.17234797662207502, 0.05106086751531503, -0.14332070660742166, 0.07305877438329247, -0.002130565876020123, 0.013108896203708505, -0.1888319371078591, 0.09182930032688257, -0.10508298859023732, -0.022509283307472, 0.017459024401081085, 0.1286391726318654, 0.021640367458883234, 0.06505716659437741], [0.057626621038568096, -0.055036722415105, 0.18483778190506717, -0.0015222551859844478, -0.041396697916955986, 0.11631568529196365, 0.11166938983988774, 0.0890432791792829, -0.0014359379527427258, 0.06612194687049203, -0.010224126667809311, -0.00023710735231234926, 0.08011923501457013, 0.06233908319871785, 0.2757760712808175, 0.0339537930231731], [-0.005013397360501198, 0.15846081900561745, 0.01382244967600785, -0.017666202216885706, -0.01913610223711101, -0.06363810582814337, 0.07002054378296863, 0.23641200228896095, 0.03594025304556839, -0.07349048514184359, -0.14579449798955676, 0.040683249814093776, -0.008021659602824291, -0.01153152717818101, -0.021832972900720712, 0.0024546599592275144], [0.03702805397802512, -0.12820057016370323, 0.04586256015615704, -0.07633869959629497, -0.02936668066538218, -0.09315049012552544, -0.1206961223704481, -0.020338740274777303, 0.05148894719901807, 0.05812673981056194, -0.21201534299722144, 0.03892773888171142, -0.16118507053435596, 0.33236847280438714, -0.044146847618571176, 0.15056149859679221], [0.22243165327581563, -0.08784254439715049, 0.15288045219677773, -0.13927515607042268, 0.09642157986604016, -0.05445988699310929, 0.09629313209866013, 0.03056476976844133, -0.1018330934785649, 0.008189703858645852, -0.08819440894482326, -0.06687898366372509, 0.10015853124149245, -0.13711820282311085, 0.24623336985298264, -0.24970093082682637], [-0.21949862160439867, 0.18620822256546332, 0.09886637533495501, 0.2154024866178046, -0.05904921537600613, -0.1318461819727985, 0.14047204599873397, 0.06224849747940629, 0.07939920594611413, -0.0813062684633204, 0.07009162166061308, -0.026496707846566547, 0.07952032901235313, 0.0358119770755028, 0.2757590541135886, -0.02922733615043616], [-0.17453696915363975, 0.059496263772162265, 0.0016114233959365727, -0.02702306392257911, -0.2377955669084151, -0.06783083494662072, 0.153937245501247, 0.06086365425497135, -0.04035838847787846, -0.08384418691843609, 0.11062537575667399, -0.028596711237473645, -0.10369917099136398, 0.10402018672723076, -0.014787735864611828, -0.055892791091710456], [0.20252228616285914, -0.22995056837096772, -0.03380002100380993, 0.14284383072330134, -0.10194295804780372, 0.14192542162759839, 0.16926641143019025, 0.07417981515068099, -0.11729188398499153, 0.0678201769498765, -0.14959374280888194, -0.034510292788825545, 0.06067278027249645, 0.2958081930354969, 0.024887825031284033, -0.23937900173799992], [-0.10438121164724533, 0.13036872666556945, 0.10324158647818309, -0.0020749019181328303, -0.07913346534394654, 0.09255910028196544, -0.002352134403552929, -0.09035405719494324, -0.0003103093031058831, -0.10592967845489323, -0.027887355464127246, -0.07603566846004865, 0.23644740704869047, -0.09770237448931177, 0.04992748795120171, -0.013465040178979521], [0.02810174611733418, 0.014877703387738226, -0.022715811467887998, 0.12333733686007708, 0.004550017246804613, -0.09096138419602168, 0.12527416689311777, 0.004794987813594835, -0.03761878749996653, -0.16109205373558233, 0.2063445382623714, 0.12884458572662186, 0.029968950687209187, -0.19034071508901332, -0.09527104810416472, 0.07793422432140201], [-0.3747050111968964, 0.06935226242476891, -0.20704560654773788, -0.11332531963262946, 0.009909435604662477, -0.03891874248916566, 0.19379371603655857, -0.07379163106973133, 0.11650912362999492, 0.22379700439364406, 0.0363857366974466, -0.20547175468107548, 0.07562218738803227, -0.02212481503117296, -0.18232508261782923, -0.2619721911858831], [0.4042383082688083, 0.01865771199734595, -0.08729432834550957, -0.15252125773381855, 0.4525298621543067, -0.13890933847174067, -0.1673230304230172, 0.6252413834377566, 0.34837829176026225, 0.23629687653038564, -0.07420722968258875, 0.339256317788361, -0.1286679394299543, -0.05219460622031567, -0.19747709029732574, 0.33672282477513527]], "bias": [[0.30266356247497406, 0.08749642458320457, -0.07639588391796269, 0.024313845614467578, 0.2547993912456053, 0.014357061792241133, -0.026033228251991215, 0.3993865257902044, 0.1654563054254303, -0.008694946626739213, -0.06689770428588432, 0.1904644787230725, -0.044349197499436305, 0.023544089390662368, -0.0004882813995634553, 0.2442757197497401]], "mWeights": [[0.0, 0.0, 0.0, 0.0, 0.0, 0.0, 0.0, 0.0, 0.0, 0.0, 0.0, 0.0, 0.0, 0.0, 0.0, 0.0], [0.0, 0.0, 0.0, 0.0, 0.0, 0.0, 0.0, 0.0, 0.0, 0.0, 0.0, 0.0, 0.0, 0.0, 0.0, 0.0], [0.0, 0.0, 0.0, 0.0, 0.0, 0.0, 0.0, 0.0, 0.0, 0.0, 0.0, 0.0, 0.0, 0.0, 0.0, 0.0], [0.0, 0.0, 0.0, 0.0, 0.0, 0.0, 0.0, 0.0, 0.0, 0.0, 0.0, 0.0, 0.0, 0.0, 0.0, 0.0], [0.0, 0.0, 0.0, 0.0, 0.0, 0.0, 0.0, 0.0, 0.0, 0.0, 0.0, 0.0, 0.0, 0.0, 0.0, 0.0], [0.0, 0.0, 0.0, 0.0, 0.0, 0.0, 0.0, 0.0, 0.0, 0.0, 0.0, 0.0, 0.0, 0.0, 0.0, 0.0], [0.0, 0.0, 0.0, 0.0, 0.0, 0.0, 0.0, 0.0, 0.0, 0.0, 0.0, 0.0, 0.0, 0.0, 0.0, 0.0], [0.0, 0.0, 0.0, 0.0, 0.0, 0.0, 0.0, 0.0, 0.0, 0.0, 0.0, 0.0, 0.0, 0.0, 0.0, 0.0], [0.0, 0.0, 0.0, 0.0, 0.0, 0.0, 0.0, 0.0, 0.0, 0.0, 0.0, 0.0, 0.0, 0.0, 0.0, 0.0], [0.0, 0.0, 0.0, 0.0, 0.0, 0.0, 0.0, 0.0, 0.0, 0.0, 0.0, 0.0, 0.0, 0.0, 0.0, 0.0], [0.0, 0.0, 0.0, 0.0, 0.0, 0.0, 0.0, 0.0, 0.0, 0.0, 0.0, 0.0, 0.0, 0.0, 0.0, 0.0], [0.0, 0.0, 0.0, 0.0, 0.0, 0.0, 0.0, 0.0, 0.0, 0.0, 0.0, 0.0, 0.0, 0.0, 0.0, 0.0], [0.0, 0.0, 0.0, 0.0, 0.0, 0.0, 0.0, 0.0, 0.0, 0.0, 0.0, 0.0, 0.0, 0.0, 0.0, 0.0], [0.0, 0.0, 0.0, 0.0, 0.0, 0.0, 0.0, 0.0, 0.0, 0.0, 0.0, 0.0, 0.0, 0.0, 0.0, 0.0], [0.0, 0.0, 0.0, 0.0, 0.0, 0.0, 0.0, 0.0, 0.0, 0.0, 0.0, 0.0, 0.0, 0.0, 0.0, 0.0], [0.0, 0.0, 0.0, 0.0, 0.0, 0.0, 0.0, 0.0, 0.0, 0.0, 0.0, 0.0, 0.0, 0.0, 0.0, 0.0], [0.0, 0.0, 0.0, 0.0, 0.0, 0.0, 0.0, 0.0, 0.0, 0.0, 0.0, 0.0, 0.0, 0.0, 0.0, 0.0], [0.0, 0.0, 0.0, 0.0, 0.0, 0.0, 0.0, 0.0, 0.0, 0.0, 0.0, 0.0, 0.0, 0.0, 0.0, 0.0], [0.0, 0.0, 0.0, 0.0, 0.0, 0.0, 0.0, 0.0, 0.0, 0.0, 0.0, 0.0, 0.0, 0.0, 0.0, 0.0], [0.0, 0.0, 0.0, 0.0, 0.0, 0.0, 0.0, 0.0, 0.0, 0.0, 0.0, 0.0, 0.0, 0.0, 0.0, 0.0], [0.0, 0.0, 0.0, 0.0, 0.0, 0.0, 0.0, 0.0, 0.0, 0.0, 0.0, 0.0, 0.0, 0.0, 0.0, 0.0], [0.0, 0.0, 0.0, 0.0, 0.0, 0.0, 0.0, 0.0, 0.0, 0.0, 0.0, 0.0, 0.0, 0.0, 0.0, 0.0], [0.0, 0.0, 0.0, 0.0, 0.0, 0.0, 0.0, 0.0, 0.0, 0.0, 0.0, 0.0, 0.0, 0.0, 0.0, 0.0], [0.0, 0.0, 0.0, 0.0, 0.0, 0.0, 0.0, 0.0, 0.0, 0.0, 0.0, 0.0, 0.0, 0.0, 0.0, 0.0], [0.0, 0.0, 0.0, 0.0, 0.0, 0.0, 0.0, 0.0, 0.0, 0.0, 0.0, 0.0, 0.0, 0.0, 0.0, 0.0], [0.0, 0.0, 0.0, 0.0, 0.0, 0.0, 0.0, 0.0, 0.0, 0.0, 0.0, 0.0, 0.0, 0.0, 0.0, 0.0], [0.0, 0.0, 0.0, 0.0, 0.0, 0.0, 0.0, 0.0, 0.0, 0.0, 0.0, 0.0, 0.0, 0.0, 0.0, 0.0], [0.0, 0.0, 0.0, 0.0, 0.0, 0.0, 0.0, 0.0, 0.0, 0.0, 0.0, 0.0, 0.0, 0.0, 0.0, 0.0], [0.0, 0.0, 0.0, 0.0, 0.0, 0.0, 0.0, 0.0, 0.0, 0.0, 0.0, 0.0, 0.0, 0.0, 0.0, 0.0], [0.0, 0.0, 0.0, 0.0, 0.0, 0.0, 0.0, 0.0, 0.0, 0.0, 0.0, 0.0, 0.0, 0.0, 0.0, 0.0], [0.0, 0.0, 0.0, 0.0, 0.0, 0.0, 0.0, 0.0, 0.0, 0.0, 0.0, 0.0, 0.0, 0.0, 0.0, 0.0], [0.0, 0.0, 0.0, 0.0, 0.0, 0.0, 0.0, 0.0, 0.0, 0.0, 0.0, 0.0, 0.0, 0.0, 0.0, 0.0], [0.0, 0.0, 0.0, 0.0, 0.0, 0.0, 0.0, 0.0, 0.0, 0.0, 0.0, 0.0, 0.0, 0.0, 0.0, 0.0], [0.0, 0.0, 0.0, 0.0, 0.0, 0.0, 0.0, 0.0, 0.0, 0.0, 0.0, 0.0, 0.0, 0.0, 0.0, 0.0], [0.0, 0.0, 0.0, 0.0, 0.0, 0.0, 0.0, 0.0, 0.0, 0.0, 0.0, 0.0, 0.0, 0.0, 0.0, 0.0], [0.0, 0.0, 0.0, 0.0, 0.0, 0.0, 0.0, 0.0, 0.0, 0.0, 0.0, 0.0, 0.0, 0.0, 0.0, 0.0], [0.0, 0.0, 0.0, 0.0, 0.0, 0.0, 0.0, 0.0, 0.0, 0.0, 0.0, 0.0, 0.0, 0.0, 0.0, 0.0], [0.0, 0.0, 0.0, 0.0, 0.0, 0.0, 0.0, 0.0, 0.0, 0.0, 0.0, 0.0, 0.0, 0.0, 0.0, 0.0], [0.0, 0.0, 0.0, 0.0, 0.0, 0.0, 0.0, 0.0, 0.0, 0.0, 0.0, 0.0, 0.0, 0.0, 0.0, 0.0], [0.0, 0.0, 0.0, 0.0, 0.0, 0.0, 0.0, 0.0, 0.0, 0.0, 0.0, 0.0, 0.0, 0.0, 0.0, 0.0], [0.0, 0.0, 0.0, 0.0, 0.0, 0.0, 0.0, 0.0, 0.0, 0.0, 0.0, 0.0, 0.0, 0.0, 0.0, 0.0], [0.0, 0.0, 0.0, 0.0, 0.0, 0.0, 0.0, 0.0, 0.0, 0.0, 0.0, 0.0, 0.0, 0.0, 0.0, 0.0], [0.0, 0.0, 0.0, 0.0, 0.0, 0.0, 0.0, 0.0, 0.0, 0.0, 0.0, 0.0, 0.0, 0.0, 0.0, 0.0], [0.0, 0.0, 0.0, 0.0, 0.0, 0.0, 0.0, 0.0, 0.0, 0.0, 0.0, 0.0, 0.0, 0.0, 0.0, 0.0], [0.0, 0.0, 0.0, 0.0, 0.0, 0.0, 0.0, 0.0, 0.0, 0.0, 0.0, 0.0, 0.0, 0.0, 0.0, 0.0], [0.0, 0.0, 0.0, 0.0, 0.0, 0.0, 0.0, 0.0, 0.0, 0.0, 0.0, 0.0, 0.0, 0.0, 0.0, 0.0], [0.0, 0.0, 0.0, 0.0, 0.0, 0.0, 0.0, 0.0, 0.0, 0.0, 0.0, 0.0, 0.0, 0.0, 0.0, 0.0], [0.0, 0.0, 0.0, 0.0, 0.0, 0.0, 0.0, 0.0, 0.0, 0.0, 0.0, 0.0, 0.0, 0.0, 0.0, 0.0], [0.0, 0.0, 0.0, 0.0, 0.0, 0.0, 0.0, 0.0, 0.0, 0.0, 0.0, 0.0, 0.0, 0.0, 0.0, 0.0], [0.0, 0.0, 0.0, 0.0, 0.0, 0.0, 0.0, 0.0, 0.0, 0.0, 0.0, 0.0, 0.0, 0.0, 0.0, 0.0], [0.0, 0.0, 0.0, 0.0, 0.0, 0.0, 0.0, 0.0, 0.0, 0.0, 0.0, 0.0, 0.0, 0.0, 0.0, 0.0], [0.0, 0.0, 0.0, 0.0, 0.0, 0.0, 0.0, 0.0, 0.0, 0.0, 0.0, 0.0, 0.0, 0.0, 0.0, 0.0], [0.0, 0.0, 0.0, 0.0, 0.0, 0.0, 0.0, 0.0, 0.0, 0.0, 0.0, 0.0, 0.0, 0.0, 0.0, 0.0], [0.0, 0.0, 0.0, 0.0, 0.0, 0.0, 0.0, 0.0, 0.0, 0.0, 0.0, 0.0, 0.0, 0.0, 0.0, 0.0], [0.0, 0.0, 0.0, 0.0, 0.0, 0.0, 0.0, 0.0, 0.0, 0.0, 0.0, 0.0, 0.0, 0.0, 0.0, 0.0], [0.0, 0.0, 0.0, 0.0, 0.0, 0.0, 0.0, 0.0, 0.0, 0.0, 0.0, 0.0, 0.0, 0.0, 0.0, 0.0], [0.0, 0.0, 0.0, 0.0, 0.0, 0.0, 0.0, 0.0, 0.0, 0.0, 0.0, 0.0, 0.0, 0.0, 0.0, 0.0], [0.0, 0.0, 0.0, 0.0, 0.0, 0.0, 0.0, 0.0, 0.0, 0.0, 0.0, 0.0, 0.0, 0.0, 0.0, 0.0], [0.0, 0.0, 0.0, 0.0, 0.0, 0.0, 0.0, 0.0, 0.0, 0.0, 0.0, 0.0, 0.0, 0.0, 0.0, 0.0], [0.0, 0.0, 0.0, 0.0, 0.0, 0.0, 0.0, 0.0, 0.0, 0.0, 0.0, 0.0, 0.0, 0.0, 0.0, 0.0], [0.0, 0.0, 0.0, 0.0, 0.0, 0.0, 0.0, 0.0, 0.0, 0.0, 0.0, 0.0, 0.0, 0.0, 0.0, 0.0], [0.0, 0.0, 0.0, 0.0, 0.0, 0.0, 0.0, 0.0, 0.0, 0.0, 0.0, 0.0, 0.0, 0.0, 0.0, 0.0], [0.0, 0.0, 0.0, 0.0, 0.0, 0.0, 0.0, 0.0, 0.0, 0.0, 0.0, 0.0, 0.0, 0.0, 0.0, 0.0], [0.0, 0.0, 0.0, 0.0, 0.0, 0.0, 0.0, 0.0, 0.0, 0.0, 0.0, 0.0, 0.0, 0.0, 0.0, 0.0], [0.0, 0.0, 0.0, 0.0, 0.0, 0.0, 0.0, 0.0, 0.0, 0.0, 0.0, 0.0, 0.0, 0.0, 0.0, 0.0], [0.0, 0.0, 0.0, 0.0, 0.0, 0.0, 0.0, 0.0, 0.0, 0.0, 0.0, 0.0, 0.0, 0.0, 0.0, 0.0], [0.0, 0.0, 0.0, 0.0, 0.0, 0.0, 0.0, 0.0, 0.0, 0.0, 0.0, 0.0, 0.0, 0.0, 0.0, 0.0], [0.0, 0.0, 0.0, 0.0, 0.0, 0.0, 0.0, 0.0, 0.0, 0.0, 0.0, 0.0, 0.0, 0.0, 0.0, 0.0], [0.0, 0.0, 0.0, 0.0, 0.0, 0.0, 0.0, 0.0, 0.0, 0.0, 0.0, 0.0, 0.0, 0.0, 0.0, 0.0], [0.0, 0.0, 0.0, 0.0, 0.0, 0.0, 0.0, 0.0, 0.0, 0.0, 0.0, 0.0, 0.0, 0.0, 0.0, 0.0], [0.0, 0.0, 0.0, 0.0, 0.0, 0.0, 0.0, 0.0, 0.0, 0.0, 0.0, 0.0, 0.0, 0.0, 0.0, 0.0], [0.0, 0.0, 0.0, 0.0, 0.0, 0.0, 0.0, 0.0, 0.0, 0.0, 0.0, 0.0, 0.0, 0.0, 0.0, 0.0], [0.0, 0.0, 0.0, 0.0, 0.0, 0.0, 0.0, 0.0, 0.0, 0.0, 0.0, 0.0, 0.0, 0.0, 0.0, 0.0], [0.0, 0.0, 0.0, 0.0, 0.0, 0.0, 0.0, 0.0, 0.0, 0.0, 0.0, 0.0, 0.0, 0.0, 0.0, 0.0], [0.0, 0.0, 0.0, 0.0, 0.0, 0.0, 0.0, 0.0, 0.0, 0.0, 0.0, 0.0, 0.0, 0.0, 0.0, 0.0], [0.0, 0.0, 0.0, 0.0, 0.0, 0.0, 0.0, 0.0, 0.0, 0.0, 0.0, 0.0, 0.0, 0.0, 0.0, 0.0], [0.0, 0.0, 0.0, 0.0, 0.0, 0.0, 0.0, 0.0, 0.0, 0.0, 0.0, 0.0, 0.0, 0.0, 0.0, 0.0], [0.0, 0.0, 0.0, 0.0, 0.0, 0.0, 0.0, 0.0, 0.0, 0.0, 0.0, 0.0, 0.0, 0.0, 0.0, 0.0], [0.0, 0.0, 0.0, 0.0, 0.0, 0.0, 0.0, 0.0, 0.0, 0.0, 0.0, 0.0, 0.0, 0.0, 0.0, 0.0], [0.0, 0.0, 0.0, 0.0, 0.0, 0.0, 0.0, 0.0, 0.0, 0.0, 0.0, 0.0, 0.0, 0.0, 0.0, 0.0], [0.0, 0.0, 0.0, 0.0, 0.0, 0.0, 0.0, 0.0, 0.0, 0.0, 0.0, 0.0, 0.0, 0.0, 0.0, 0.0], [0.0, 0.0, 0.0, 0.0, 0.0, 0.0, 0.0, 0.0, 0.0, 0.0, 0.0, 0.0, 0.0, 0.0, 0.0, 0.0], [0.0, 0.0, 0.0, 0.0, 0.0, 0.0, 0.0, 0.0, 0.0, 0.0, 0.0, 0.0, 0.0, 0.0, 0.0, 0.0], [0.0, 0.0, 0.0, 0.0, 0.0, 0.0, 0.0, 0.0, 0.0, 0.0, 0.0, 0.0, 0.0, 0.0, 0.0, 0.0], [0.0, 0.0, 0.0, 0.0, 0.0, 0.0, 0.0, 0.0, 0.0, 0.0, 0.0, 0.0, 0.0, 0.0, 0.0, 0.0], [0.0, 0.0, 0.0, 0.0, 0.0, 0.0, 0.0, 0.0, 0.0, 0.0, 0.0, 0.0, 0.0, 0.0, 0.0, 0.0], [0.0, 0.0, 0.0, 0.0, 0.0, 0.0, 0.0, 0.0, 0.0, 0.0, 0.0, 0.0, 0.0, 0.0, 0.0, 0.0], [0.0, 0.0, 0.0, 0.0, 0.0, 0.0, 0.0, 0.0, 0.0, 0.0, 0.0, 0.0, 0.0, 0.0, 0.0, 0.0], [0.0, 0.0, 0.0, 0.0, 0.0, 0.0, 0.0, 0.0, 0.0, 0.0, 0.0, 0.0, 0.0, 0.0, 0.0, 0.0], [0.0, 0.0, 0.0, 0.0, 0.0, 0.0, 0.0, 0.0, 0.0, 0.0, 0.0, 0.0, 0.0, 0.0, 0.0, 0.0], [0.0, 0.0, 0.0, 0.0, 0.0, 0.0, 0.0, 0.0, 0.0, 0.0, 0.0, 0.0, 0.0, 0.0, 0.0, 0.0], [0.0, 0.0, 0.0, 0.0, 0.0, 0.0, 0.0, 0.0, 0.0, 0.0, 0.0, 0.0, 0.0, 0.0, 0.0, 0.0], [0.0, 0.0, 0.0, 0.0, 0.0, 0.0, 0.0, 0.0, 0.0, 0.0, 0.0, 0.0, 0.0, 0.0, 0.0, 0.0], [0.0, 0.0, 0.0, 0.0, 0.0, 0.0, 0.0, 0.0, 0.0, 0.0, 0.0, 0.0, 0.0, 0.0, 0.0, 0.0], [0.0, 0.0, 0.0, 0.0, 0.0, 0.0, 0.0, 0.0, 0.0, 0.0, 0.0, 0.0, 0.0, 0.0, 0.0, 0.0], [0.0, 0.0, 0.0, 0.0, 0.0, 0.0, 0.0, 0.0, 0.0, 0.0, 0.0, 0.0, 0.0, 0.0, 0.0, 0.0], [0.0, 0.0, 0.0, 0.0, 0.0, 0.0, 0.0, 0.0, 0.0, 0.0, 0.0, 0.0, 0.0, 0.0, 0.0, 0.0], [0.0, 0.0, 0.0, 0.0, 0.0, 0.0, 0.0, 0.0, 0.0, 0.0, 0.0, 0.0, 0.0, 0.0, 0.0, 0.0], [0.0, 0.0, 0.0, 0.0, 0.0, 0.0, 0.0, 0.0, 0.0, 0.0, 0.0, 0.0, 0.0, 0.0, 0.0, 0.0], [0.0, 0.0, 0.0, 0.0, 0.0, 0.0, 0.0, 0.0, 0.0, 0.0, 0.0, 0.0, 0.0, 0.0, 0.0, 0.0], [0.0, 0.0, 0.0, 0.0, 0.0, 0.0, 0.0, 0.0, 0.0, 0.0, 0.0, 0.0, 0.0, 0.0, 0.0, 0.0], [0.0, 0.0, 0.0, 0.0, 0.0, 0.0, 0.0, 0.0, 0.0, 0.0, 0.0, 0.0, 0.0, 0.0, 0.0, 0.0], [0.0, 0.0, 0.0, 0.0, 0.0, 0.0, 0.0, 0.0, 0.0, 0.0, 0.0, 0.0, 0.0, 0.0, 0.0, 0.0], [0.0, 0.0, 0.0, 0.0, 0.0, 0.0, 0.0, 0.0, 0.0, 0.0, 0.0, 0.0, 0.0, 0.0, 0.0, 0.0], [0.0, 0.0, 0.0, 0.0, 0.0, 0.0, 0.0, 0.0, 0.0, 0.0, 0.0, 0.0, 0.0, 0.0, 0.0, 0.0], [0.0, 0.0, 0.0, 0.0, 0.0, 0.0, 0.0, 0.0, 0.0, 0.0, 0.0, 0.0, 0.0, 0.0, 0.0, 0.0], [0.0, 0.0, 0.0, 0.0, 0.0, 0.0, 0.0, 0.0, 0.0, 0.0, 0.0, 0.0, 0.0, 0.0, 0.0, 0.0], [0.0, 0.0, 0.0, 0.0, 0.0, 0.0, 0.0, 0.0, 0.0, 0.0, 0.0, 0.0, 0.0, 0.0, 0.0, 0.0], [0.0, 0.0, 0.0, 0.0, 0.0, 0.0, 0.0, 0.0, 0.0, 0.0, 0.0, 0.0, 0.0, 0.0, 0.0, 0.0], [0.0, 0.0, 0.0, 0.0, 0.0, 0.0, 0.0, 0.0, 0.0, 0.0, 0.0, 0.0, 0.0, 0.0, 0.0, 0.0], [0.0, 0.0, 0.0, 0.0, 0.0, 0.0, 0.0, 0.0, 0.0, 0.0, 0.0, 0.0, 0.0, 0.0, 0.0, 0.0], [0.0, 0.0, 0.0, 0.0, 0.0, 0.0, 0.0, 0.0, 0.0, 0.0, 0.0, 0.0, 0.0, 0.0, 0.0, 0.0], [0.0, 0.0, 0.0, 0.0, 0.0, 0.0, 0.0, 0.0, 0.0, 0.0, 0.0, 0.0, 0.0, 0.0, 0.0, 0.0], [0.0, 0.0, 0.0, 0.0, 0.0, 0.0, 0.0, 0.0, 0.0, 0.0, 0.0, 0.0, 0.0, 0.0, 0.0, 0.0], [0.0, 0.0, 0.0, 0.0, 0.0, 0.0, 0.0, 0.0, 0.0, 0.0, 0.0, 0.0, 0.0, 0.0, 0.0, 0.0], [0.0, 0.0, 0.0, 0.0, 0.0, 0.0, 0.0, 0.0, 0.0, 0.0, 0.0, 0.0, 0.0, 0.0, 0.0, 0.0], [0.0, 0.0, 0.0, 0.0, 0.0, 0.0, 0.0, 0.0, 0.0, 0.0, 0.0, 0.0, 0.0, 0.0, 0.0, 0.0], [0.0, 0.0, 0.0, 0.0, 0.0, 0.0, 0.0, 0.0, 0.0, 0.0, 0.0, 0.0, 0.0, 0.0, 0.0, 0.0], [0.0, 0.0, 0.0, 0.0, 0.0, 0.0, 0.0, 0.0, 0.0, 0.0, 0.0, 0.0, 0.0, 0.0, 0.0, 0.0], [0.0, 0.0, 0.0, 0.0, 0.0, 0.0, 0.0, 0.0, 0.0, 0.0, 0.0, 0.0, 0.0, 0.0, 0.0, 0.0], [0.0, 0.0, 0.0, 0.0, 0.0, 0.0, 0.0, 0.0, 0.0, 0.0, 0.0, 0.0, 0.0, 0.0, 0.0, 0.0], [0.0, 0.0, 0.0, 0.0, 0.0, 0.0, 0.0, 0.0, 0.0, 0.0, 0.0, 0.0, 0.0, 0.0, 0.0, 0.0]], "vWeights": [[0.0, 0.0, 0.0, 0.0, 0.0, 0.0, 0.0, 0.0, 0.0, 0.0, 0.0, 0.0, 0.0, 0.0, 0.0, 0.0], [0.0, 0.0, 0.0, 0.0, 0.0, 0.0, 0.0, 0.0, 0.0, 0.0, 0.0, 0.0, 0.0, 0.0, 0.0, 0.0], [0.0, 0.0, 0.0, 0.0, 0.0, 0.0, 0.0, 0.0, 0.0, 0.0, 0.0, 0.0, 0.0, 0.0, 0.0, 0.0], [0.0, 0.0, 0.0, 0.0, 0.0, 0.0, 0.0, 0.0, 0.0, 0.0, 0.0, 0.0, 0.0, 0.0, 0.0, 0.0], [0.0, 0.0, 0.0, 0.0, 0.0, 0.0, 0.0, 0.0, 0.0, 0.0, 0.0, 0.0, 0.0, 0.0, 0.0, 0.0], [0.0, 0.0, 0.0, 0.0, 0.0, 0.0, 0.0, 0.0, 0.0, 0.0, 0.0, 0.0, 0.0, 0.0, 0.0, 0.0], [0.0, 0.0, 0.0, 0.0, 0.0, 0.0, 0.0, 0.0, 0.0, 0.0, 0.0, 0.0, 0.0, 0.0, 0.0, 0.0], [0.0, 0.0, 0.0, 0.0, 0.0, 0.0, 0.0, 0.0, 0.0, 0.0, 0.0, 0.0, 0.0, 0.0, 0.0, 0.0], [0.0, 0.0, 0.0, 0.0, 0.0, 0.0, 0.0, 0.0, 0.0, 0.0, 0.0, 0.0, 0.0, 0.0, 0.0, 0.0], [0.0, 0.0, 0.0, 0.0, 0.0, 0.0, 0.0, 0.0, 0.0, 0.0, 0.0, 0.0, 0.0, 0.0, 0.0, 0.0], [0.0, 0.0, 0.0, 0.0, 0.0, 0.0, 0.0, 0.0, 0.0, 0.0, 0.0, 0.0, 0.0, 0.0, 0.0, 0.0], [0.0, 0.0, 0.0, 0.0, 0.0, 0.0, 0.0, 0.0, 0.0, 0.0, 0.0, 0.0, 0.0, 0.0, 0.0, 0.0], [0.0, 0.0, 0.0, 0.0, 0.0, 0.0, 0.0, 0.0, 0.0, 0.0, 0.0, 0.0, 0.0, 0.0, 0.0, 0.0], [0.0, 0.0, 0.0, 0.0, 0.0, 0.0, 0.0, 0.0, 0.0, 0.0, 0.0, 0.0, 0.0, 0.0, 0.0, 0.0], [0.0, 0.0, 0.0, 0.0, 0.0, 0.0, 0.0, 0.0, 0.0, 0.0, 0.0, 0.0, 0.0, 0.0, 0.0, 0.0], [0.0, 0.0, 0.0, 0.0, 0.0, 0.0, 0.0, 0.0, 0.0, 0.0, 0.0, 0.0, 0.0, 0.0, 0.0, 0.0], [0.0, 0.0, 0.0, 0.0, 0.0, 0.0, 0.0, 0.0, 0.0, 0.0, 0.0, 0.0, 0.0, 0.0, 0.0, 0.0], [0.0, 0.0, 0.0, 0.0, 0.0, 0.0, 0.0, 0.0, 0.0, 0.0, 0.0, 0.0, 0.0, 0.0, 0.0, 0.0], [0.0, 0.0, 0.0, 0.0, 0.0, 0.0, 0.0, 0.0, 0.0, 0.0, 0.0, 0.0, 0.0, 0.0, 0.0, 0.0], [0.0, 0.0, 0.0, 0.0, 0.0, 0.0, 0.0, 0.0, 0.0, 0.0, 0.0, 0.0, 0.0, 0.0, 0.0, 0.0], [0.0, 0.0, 0.0, 0.0, 0.0, 0.0, 0.0, 0.0, 0.0, 0.0, 0.0, 0.0, 0.0, 0.0, 0.0, 0.0], [0.0, 0.0, 0.0, 0.0, 0.0, 0.0, 0.0, 0.0, 0.0, 0.0, 0.0, 0.0, 0.0, 0.0, 0.0, 0.0], [0.0, 0.0, 0.0, 0.0, 0.0, 0.0, 0.0, 0.0, 0.0, 0.0, 0.0, 0.0, 0.0, 0.0, 0.0, 0.0], [0.0, 0.0, 0.0, 0.0, 0.0, 0.0, 0.0, 0.0, 0.0, 0.0, 0.0, 0.0, 0.0, 0.0, 0.0, 0.0], [0.0, 0.0, 0.0, 0.0, 0.0, 0.0, 0.0, 0.0, 0.0, 0.0, 0.0, 0.0, 0.0, 0.0, 0.0, 0.0], [0.0, 0.0, 0.0, 0.0, 0.0, 0.0, 0.0, 0.0, 0.0, 0.0, 0.0, 0.0, 0.0, 0.0, 0.0, 0.0], [0.0, 0.0, 0.0, 0.0, 0.0, 0.0, 0.0, 0.0, 0.0, 0.0, 0.0, 0.0, 0.0, 0.0, 0.0, 0.0], [0.0, 0.0, 0.0, 0.0, 0.0, 0.0, 0.0, 0.0, 0.0, 0.0, 0.0, 0.0, 0.0, 0.0, 0.0, 0.0], [0.0, 0.0, 0.0, 0.0, 0.0, 0.0, 0.0, 0.0, 0.0, 0.0, 0.0, 0.0, 0.0, 0.0, 0.0, 0.0], [0.0, 0.0, 0.0, 0.0, 0.0, 0.0, 0.0, 0.0, 0.0, 0.0, 0.0, 0.0, 0.0, 0.0, 0.0, 0.0], [0.0, 0.0, 0.0, 0.0, 0.0, 0.0, 0.0, 0.0, 0.0, 0.0, 0.0, 0.0, 0.0, 0.0, 0.0, 0.0], [0.0, 0.0, 0.0, 0.0, 0.0, 0.0, 0.0, 0.0, 0.0, 0.0, 0.0, 0.0, 0.0, 0.0, 0.0, 0.0], [0.0, 0.0, 0.0, 0.0, 0.0, 0.0, 0.0, 0.0, 0.0, 0.0, 0.0, 0.0, 0.0, 0.0, 0.0, 0.0], [0.0, 0.0, 0.0, 0.0, 0.0, 0.0, 0.0, 0.0, 0.0, 0.0, 0.0, 0.0, 0.0, 0.0, 0.0, 0.0], [0.0, 0.0, 0.0, 0.0, 0.0, 0.0, 0.0, 0.0, 0.0, 0.0, 0.0, 0.0, 0.0, 0.0, 0.0, 0.0], [0.0, 0.0, 0.0, 0.0, 0.0, 0.0, 0.0, 0.0, 0.0, 0.0, 0.0, 0.0, 0.0, 0.0, 0.0, 0.0], [0.0, 0.0, 0.0, 0.0, 0.0, 0.0, 0.0, 0.0, 0.0, 0.0, 0.0, 0.0, 0.0, 0.0, 0.0, 0.0], [0.0, 0.0, 0.0, 0.0, 0.0, 0.0, 0.0, 0.0, 0.0, 0.0, 0.0, 0.0, 0.0, 0.0, 0.0, 0.0], [0.0, 0.0, 0.0, 0.0, 0.0, 0.0, 0.0, 0.0, 0.0, 0.0, 0.0, 0.0, 0.0, 0.0, 0.0, 0.0], [0.0, 0.0, 0.0, 0.0, 0.0, 0.0, 0.0, 0.0, 0.0, 0.0, 0.0, 0.0, 0.0, 0.0, 0.0, 0.0], [0.0, 0.0, 0.0, 0.0, 0.0, 0.0, 0.0, 0.0, 0.0, 0.0, 0.0, 0.0, 0.0, 0.0, 0.0, 0.0], [0.0, 0.0, 0.0, 0.0, 0.0, 0.0, 0.0, 0.0, 0.0, 0.0, 0.0, 0.0, 0.0, 0.0, 0.0, 0.0], [0.0, 0.0, 0.0, 0.0, 0.0, 0.0, 0.0, 0.0, 0.0, 0.0, 0.0, 0.0, 0.0, 0.0, 0.0, 0.0], [0.0, 0.0, 0.0, 0.0, 0.0, 0.0, 0.0, 0.0, 0.0, 0.0, 0.0, 0.0, 0.0, 0.0, 0.0, 0.0], [0.0, 0.0, 0.0, 0.0, 0.0, 0.0, 0.0, 0.0, 0.0, 0.0, 0.0, 0.0, 0.0, 0.0, 0.0, 0.0], [0.0, 0.0, 0.0, 0.0, 0.0, 0.0, 0.0, 0.0, 0.0, 0.0, 0.0, 0.0, 0.0, 0.0, 0.0, 0.0], [0.0, 0.0, 0.0, 0.0, 0.0, 0.0, 0.0, 0.0, 0.0, 0.0, 0.0, 0.0, 0.0, 0.0, 0.0, 0.0], [0.0, 0.0, 0.0, 0.0, 0.0, 0.0, 0.0, 0.0, 0.0, 0.0, 0.0, 0.0, 0.0, 0.0, 0.0, 0.0], [0.0, 0.0, 0.0, 0.0, 0.0, 0.0, 0.0, 0.0, 0.0, 0.0, 0.0, 0.0, 0.0, 0.0, 0.0, 0.0], [0.0, 0.0, 0.0, 0.0, 0.0, 0.0, 0.0, 0.0, 0.0, 0.0, 0.0, 0.0, 0.0, 0.0, 0.0, 0.0], [0.0, 0.0, 0.0, 0.0, 0.0, 0.0, 0.0, 0.0, 0.0, 0.0, 0.0, 0.0, 0.0, 0.0, 0.0, 0.0], [0.0, 0.0, 0.0, 0.0, 0.0, 0.0, 0.0, 0.0, 0.0, 0.0, 0.0, 0.0, 0.0, 0.0, 0.0, 0.0], [0.0, 0.0, 0.0, 0.0, 0.0, 0.0, 0.0, 0.0, 0.0, 0.0, 0.0, 0.0, 0.0, 0.0, 0.0, 0.0], [0.0, 0.0, 0.0, 0.0, 0.0, 0.0, 0.0, 0.0, 0.0, 0.0, 0.0, 0.0, 0.0, 0.0, 0.0, 0.0], [0.0, 0.0, 0.0, 0.0, 0.0, 0.0, 0.0, 0.0, 0.0, 0.0, 0.0, 0.0, 0.0, 0.0, 0.0, 0.0], [0.0, 0.0, 0.0, 0.0, 0.0, 0.0, 0.0, 0.0, 0.0, 0.0, 0.0, 0.0, 0.0, 0.0, 0.0, 0.0], [0.0, 0.0, 0.0, 0.0, 0.0, 0.0, 0.0, 0.0, 0.0, 0.0, 0.0, 0.0, 0.0, 0.0, 0.0, 0.0], [0.0, 0.0, 0.0, 0.0, 0.0, 0.0, 0.0, 0.0, 0.0, 0.0, 0.0, 0.0, 0.0, 0.0, 0.0, 0.0], [0.0, 0.0, 0.0, 0.0, 0.0, 0.0, 0.0, 0.0, 0.0, 0.0, 0.0, 0.0, 0.0, 0.0, 0.0, 0.0], [0.0, 0.0, 0.0, 0.0, 0.0, 0.0, 0.0, 0.0, 0.0, 0.0, 0.0, 0.0, 0.0, 0.0, 0.0, 0.0], [0.0, 0.0, 0.0, 0.0, 0.0, 0.0, 0.0, 0.0, 0.0, 0.0, 0.0, 0.0, 0.0, 0.0, 0.0, 0.0], [0.0, 0.0, 0.0, 0.0, 0.0, 0.0, 0.0, 0.0, 0.0, 0.0, 0.0, 0.0, 0.0, 0.0, 0.0, 0.0], [0.0, 0.0, 0.0, 0.0, 0.0, 0.0, 0.0, 0.0, 0.0, 0.0, 0.0, 0.0, 0.0, 0.0, 0.0, 0.0], [0.0, 0.0, 0.0, 0.0, 0.0, 0.0, 0.0, 0.0, 0.0, 0.0, 0.0, 0.0, 0.0, 0.0, 0.0, 0.0], [0.0, 0.0, 0.0, 0.0, 0.0, 0.0, 0.0, 0.0, 0.0, 0.0, 0.0, 0.0, 0.0, 0.0, 0.0, 0.0], [0.0, 0.0, 0.0, 0.0, 0.0, 0.0, 0.0, 0.0, 0.0, 0.0, 0.0, 0.0, 0.0, 0.0, 0.0, 0.0], [0.0, 0.0, 0.0, 0.0, 0.0, 0.0, 0.0, 0.0, 0.0, 0.0, 0.0, 0.0, 0.0, 0.0, 0.0, 0.0], [0.0, 0.0, 0.0, 0.0, 0.0, 0.0, 0.0, 0.0, 0.0, 0.0, 0.0, 0.0, 0.0, 0.0, 0.0, 0.0], [0.0, 0.0, 0.0, 0.0, 0.0, 0.0, 0.0, 0.0, 0.0, 0.0, 0.0, 0.0, 0.0, 0.0, 0.0, 0.0], [0.0, 0.0, 0.0, 0.0, 0.0, 0.0, 0.0, 0.0, 0.0, 0.0, 0.0, 0.0, 0.0, 0.0, 0.0, 0.0], [0.0, 0.0, 0.0, 0.0, 0.0, 0.0, 0.0, 0.0, 0.0, 0.0, 0.0, 0.0, 0.0, 0.0, 0.0, 0.0], [0.0, 0.0, 0.0, 0.0, 0.0, 0.0, 0.0, 0.0, 0.0, 0.0, 0.0, 0.0, 0.0, 0.0, 0.0, 0.0], [0.0, 0.0, 0.0, 0.0, 0.0, 0.0, 0.0, 0.0, 0.0, 0.0, 0.0, 0.0, 0.0, 0.0, 0.0, 0.0], [0.0, 0.0, 0.0, 0.0, 0.0, 0.0, 0.0, 0.0, 0.0, 0.0, 0.0, 0.0, 0.0, 0.0, 0.0, 0.0], [0.0, 0.0, 0.0, 0.0, 0.0, 0.0, 0.0, 0.0, 0.0, 0.0, 0.0, 0.0, 0.0, 0.0, 0.0, 0.0], [0.0, 0.0, 0.0, 0.0, 0.0, 0.0, 0.0, 0.0, 0.0, 0.0, 0.0, 0.0, 0.0, 0.0, 0.0, 0.0], [0.0, 0.0, 0.0, 0.0, 0.0, 0.0, 0.0, 0.0, 0.0, 0.0, 0.0, 0.0, 0.0, 0.0, 0.0, 0.0], [0.0, 0.0, 0.0, 0.0, 0.0, 0.0, 0.0, 0.0, 0.0, 0.0, 0.0, 0.0, 0.0, 0.0, 0.0, 0.0], [0.0, 0.0, 0.0, 0.0, 0.0, 0.0, 0.0, 0.0, 0.0, 0.0, 0.0, 0.0, 0.0, 0.0, 0.0, 0.0], [0.0, 0.0, 0.0, 0.0, 0.0, 0.0, 0.0, 0.0, 0.0, 0.0, 0.0, 0.0, 0.0, 0.0, 0.0, 0.0], [0.0, 0.0, 0.0, 0.0, 0.0, 0.0, 0.0, 0.0, 0.0, 0.0, 0.0, 0.0, 0.0, 0.0, 0.0, 0.0], [0.0, 0.0, 0.0, 0.0, 0.0, 0.0, 0.0, 0.0, 0.0, 0.0, 0.0, 0.0, 0.0, 0.0, 0.0, 0.0], [0.0, 0.0, 0.0, 0.0, 0.0, 0.0, 0.0, 0.0, 0.0, 0.0, 0.0, 0.0, 0.0, 0.0, 0.0, 0.0], [0.0, 0.0, 0.0, 0.0, 0.0, 0.0, 0.0, 0.0, 0.0, 0.0, 0.0, 0.0, 0.0, 0.0, 0.0, 0.0], [0.0, 0.0, 0.0, 0.0, 0.0, 0.0, 0.0, 0.0, 0.0, 0.0, 0.0, 0.0, 0.0, 0.0, 0.0, 0.0], [0.0, 0.0, 0.0, 0.0, 0.0, 0.0, 0.0, 0.0, 0.0, 0.0, 0.0, 0.0, 0.0, 0.0, 0.0, 0.0], [0.0, 0.0, 0.0, 0.0, 0.0, 0.0, 0.0, 0.0, 0.0, 0.0, 0.0, 0.0, 0.0, 0.0, 0.0, 0.0], [0.0, 0.0, 0.0, 0.0, 0.0, 0.0, 0.0, 0.0, 0.0, 0.0, 0.0, 0.0, 0.0, 0.0, 0.0, 0.0], [0.0, 0.0, 0.0, 0.0, 0.0, 0.0, 0.0, 0.0, 0.0, 0.0, 0.0, 0.0, 0.0, 0.0, 0.0, 0.0], [0.0, 0.0, 0.0, 0.0, 0.0, 0.0, 0.0, 0.0, 0.0, 0.0, 0.0, 0.0, 0.0, 0.0, 0.0, 0.0], [0.0, 0.0, 0.0, 0.0, 0.0, 0.0, 0.0, 0.0, 0.0, 0.0, 0.0, 0.0, 0.0, 0.0, 0.0, 0.0], [0.0, 0.0, 0.0, 0.0, 0.0, 0.0, 0.0, 0.0, 0.0, 0.0, 0.0, 0.0, 0.0, 0.0, 0.0, 0.0], [0.0, 0.0, 0.0, 0.0, 0.0, 0.0, 0.0, 0.0, 0.0, 0.0, 0.0, 0.0, 0.0, 0.0, 0.0, 0.0], [0.0, 0.0, 0.0, 0.0, 0.0, 0.0, 0.0, 0.0, 0.0, 0.0, 0.0, 0.0, 0.0, 0.0, 0.0, 0.0], [0.0, 0.0, 0.0, 0.0, 0.0, 0.0, 0.0, 0.0, 0.0, 0.0, 0.0, 0.0, 0.0, 0.0, 0.0, 0.0], [0.0, 0.0, 0.0, 0.0, 0.0, 0.0, 0.0, 0.0, 0.0, 0.0, 0.0, 0.0, 0.0, 0.0, 0.0, 0.0], [0.0, 0.0, 0.0, 0.0, 0.0, 0.0, 0.0, 0.0, 0.0, 0.0, 0.0, 0.0, 0.0, 0.0, 0.0, 0.0], [0.0, 0.0, 0.0, 0.0, 0.0, 0.0, 0.0, 0.0, 0.0, 0.0, 0.0, 0.0, 0.0, 0.0, 0.0, 0.0], [0.0, 0.0, 0.0, 0.0, 0.0, 0.0, 0.0, 0.0, 0.0, 0.0, 0.0, 0.0, 0.0, 0.0, 0.0, 0.0], [0.0, 0.0, 0.0, 0.0, 0.0, 0.0, 0.0, 0.0, 0.0, 0.0, 0.0, 0.0, 0.0, 0.0, 0.0, 0.0], [0.0, 0.0, 0.0, 0.0, 0.0, 0.0, 0.0, 0.0, 0.0, 0.0, 0.0, 0.0, 0.0, 0.0, 0.0, 0.0], [0.0, 0.0, 0.0, 0.0, 0.0, 0.0, 0.0, 0.0, 0.0, 0.0, 0.0, 0.0, 0.0, 0.0, 0.0, 0.0], [0.0, 0.0, 0.0, 0.0, 0.0, 0.0, 0.0, 0.0, 0.0, 0.0, 0.0, 0.0, 0.0, 0.0, 0.0, 0.0], [0.0, 0.0, 0.0, 0.0, 0.0, 0.0, 0.0, 0.0, 0.0, 0.0, 0.0, 0.0, 0.0, 0.0, 0.0, 0.0], [0.0, 0.0, 0.0, 0.0, 0.0, 0.0, 0.0, 0.0, 0.0, 0.0, 0.0, 0.0, 0.0, 0.0, 0.0, 0.0], [0.0, 0.0, 0.0, 0.0, 0.0, 0.0, 0.0, 0.0, 0.0, 0.0, 0.0, 0.0, 0.0, 0.0, 0.0, 0.0], [0.0, 0.0, 0.0, 0.0, 0.0, 0.0, 0.0, 0.0, 0.0, 0.0, 0.0, 0.0, 0.0, 0.0, 0.0, 0.0], [0.0, 0.0, 0.0, 0.0, 0.0, 0.0, 0.0, 0.0, 0.0, 0.0, 0.0, 0.0, 0.0, 0.0, 0.0, 0.0], [0.0, 0.0, 0.0, 0.0, 0.0, 0.0, 0.0, 0.0, 0.0, 0.0, 0.0, 0.0, 0.0, 0.0, 0.0, 0.0], [0.0, 0.0, 0.0, 0.0, 0.0, 0.0, 0.0, 0.0, 0.0, 0.0, 0.0, 0.0, 0.0, 0.0, 0.0, 0.0], [0.0, 0.0, 0.0, 0.0, 0.0, 0.0, 0.0, 0.0, 0.0, 0.0, 0.0, 0.0, 0.0, 0.0, 0.0, 0.0], [0.0, 0.0, 0.0, 0.0, 0.0, 0.0, 0.0, 0.0, 0.0, 0.0, 0.0, 0.0, 0.0, 0.0, 0.0, 0.0], [0.0, 0.0, 0.0, 0.0, 0.0, 0.0, 0.0, 0.0, 0.0, 0.0, 0.0, 0.0, 0.0, 0.0, 0.0, 0.0], [0.0, 0.0, 0.0, 0.0, 0.0, 0.0, 0.0, 0.0, 0.0, 0.0, 0.0, 0.0, 0.0, 0.0, 0.0, 0.0], [0.0, 0.0, 0.0, 0.0, 0.0, 0.0, 0.0, 0.0, 0.0, 0.0, 0.0, 0.0, 0.0, 0.0, 0.0, 0.0], [0.0, 0.0, 0.0, 0.0, 0.0, 0.0, 0.0, 0.0, 0.0, 0.0, 0.0, 0.0, 0.0, 0.0, 0.0, 0.0], [0.0, 0.0, 0.0, 0.0, 0.0, 0.0, 0.0, 0.0, 0.0, 0.0, 0.0, 0.0, 0.0, 0.0, 0.0, 0.0], [0.0, 0.0, 0.0, 0.0, 0.0, 0.0, 0.0, 0.0, 0.0, 0.0, 0.0, 0.0, 0.0, 0.0, 0.0, 0.0], [0.0, 0.0, 0.0, 0.0, 0.0, 0.0, 0.0, 0.0, 0.0, 0.0, 0.0, 0.0, 0.0, 0.0, 0.0, 0.0], [0.0, 0.0, 0.0, 0.0, 0.0, 0.0, 0.0, 0.0, 0.0, 0.0, 0.0, 0.0, 0.0, 0.0, 0.0, 0.0], [0.0, 0.0, 0.0, 0.0, 0.0, 0.0, 0.0, 0.0, 0.0, 0.0, 0.0, 0.0, 0.0, 0.0, 0.0, 0.0], [0.0, 0.0, 0.0, 0.0, 0.0, 0.0, 0.0, 0.0, 0.0, 0.0, 0.0, 0.0, 0.0, 0.0, 0.0, 0.0]], "mBiases": [[0.0, 0.0, 0.0, 0.0, 0.0, 0.0, 0.0, 0.0, 0.0, 0.0, 0.0, 0.0, 0.0, 0.0, 0.0, 0.0]], "vBiases": [[0.0, 0.0, 0.0, 0.0, 0.0, 0.0, 0.0, 0.0, 0.0, 0.0, 0.0, 0.0, 0.0, 0.0, 0.0, 0.0]], "beta1": 0.9, "beta2": 0.999, "epsilon": 1e-08}, {"inputSize": 16, "outputSize": 4, "activation": "softmax", "weights": [[-0.4624997919684743, -0.40563350196575715, -0.20175349153669647, -0.14842889671029172], [0.014636070679883588, -0.5719857244024471, -0.10426496145979211, 0.2840234363496056], [0.28988945377773556, -0.34172533817244893, 0.7236851731893423, 0.44664221451852903], [0.27591949210471356, -0.26028666923450844, 0.16157148389908627, -0.28915323920607183], [-0.10034379140080332, -0.46454533929602687, -0.4398097035573433, -0.6336066601710002], [-0.4624578263914663, -0.4413107651474766, -0.04216991968558762, -0.07856465453916084], [0.5878138635648493, 0.04848580121491018, -0.06287303952421681, 0.16803220319757448], [-0.5259012597412684, -0.6014524245825635, -0.9724494902993924, -1.0425630994656714], [-1.167368477725151, 0.18651515884744516, -0.14331078366453404, -0.2840237918541735], [-0.15032751537780437, -0.34856860634985065, -0.2401642114553184, 0.2741681851138691], [0.2935298114326987, 0.042142276798979056, -0.560984314211988, 0.14668157548423075], [-0.3791266014217512, -0.8027977370298751, -0.1853063767742113, 0.22914783940365532], [0.45486744209289565, 0.2514039246081561, 0.04327215962418792, 0.10761284492228124], [-0.17023019593523037, 0.5614571372354517, 0.578755333479638, -0.386298662074824], [-0.436534219900026, -0.20112427152195334, -0.08058785862352032, 0.21850017032279784], [-0.13656296685368158, -0.37567898406624406, -0.34373808864806865, -0.6749058709391049]], "bias": [[-0.25649971056981424, -0.2403731862519311, -0.2748284191623699, -0.09039110387223817]], "mWeights": [[0.0, 0.0, 0.0, 0.0], [0.0, 0.0, 0.0, 0.0], [0.0, 0.0, 0.0, 0.0], [0.0, 0.0, 0.0, 0.0], [0.0, 0.0, 0.0, 0.0], [0.0, 0.0, 0.0, 0.0], [0.0, 0.0, 0.0, 0.0], [0.0, 0.0, 0.0, 0.0], [0.0, 0.0, 0.0, 0.0], [0.0, 0.0, 0.0, 0.0], [0.0, 0.0, 0.0, 0.0], [0.0, 0.0, 0.0, 0.0], [0.0, 0.0, 0.0, 0.0], [0.0, 0.0, 0.0, 0.0], [0.0, 0.0, 0.0, 0.0], [0.0, 0.0, 0.0, 0.0]], "vWeights": [[0.0, 0.0, 0.0, 0.0], [0.0, 0.0, 0.0, 0.0], [0.0, 0.0, 0.0, 0.0], [0.0, 0.0, 0.0, 0.0], [0.0, 0.0, 0.0, 0.0], [0.0, 0.0, 0.0, 0.0], [0.0, 0.0, 0.0, 0.0], [0.0, 0.0, 0.0, 0.0], [0.0, 0.0, 0.0, 0.0], [0.0, 0.0, 0.0, 0.0], [0.0, 0.0, 0.0, 0.0], [0.0, 0.0, 0.0, 0.0], [0.0, 0.0, 0.0, 0.0], [0.0, 0.0, 0.0, 0.0], [0.0, 0.0, 0.0, 0.0], [0.0, 0.0, 0.0, 0.0]], "mBiases": [[0.0, 0.0, 0.0, 0.0]], "vBiases": [[0.0, 0.0, 0.0, 0.0]], "beta1": 0.9, "beta2": 0.999, "epsilon": 1e-08}], "name": "snake", "accuracy": 0}