{"layers": [{"inputSize": 122, "outputSize": 16, "activation": "relu", "weights": [[-0.25761923448670243, 0.23386854079324443, -0.15542906294736605, -0.08513112277680929, -0.18272631068569373, -0.11552218457067484, -0.20879468096493667, 0.19711111563558675, 0.1403130016463208, -0.17772473728078264, 0.11043263873650197, -0.12446681529276579, 0.2151971560633574, -0.04096294345198282, -0.1371793768505284, 0.28426266578608905], [-0.02050667970936811, 0.3151697809072533, -0.016052291256399526, 0.00046939954620530625, -0.04403031937734804, 0.07568204355612643, 0.05315044480377163, 0.1731885166838087, -0.09002019369292069, -0.0942109059242599, 0.01800439690577345, 0.12270179944073416, -0.10960696904002502, -0.15601342324084172, -0.003267037124362488, 0.1283720600202899], [0.09307136527166562, -0.15666752935897613, 0.04299137897326503, 0.10229805812547077, -0.025472782071986846, 0.08997649176635462, 0.09333009263120325, -0.007917119558990163, -0.15645072558447193, -0.26452885979519364, 0.2711814708197228, 0.0974357445042378, 0.25932087660997327, 0.00954717966647704, 0.04833362656993279, 0.218447759461964], [-0.0016202347733993558, 0.09383846771093254, 0.07953416264644221, -0.14603159418360998, -0.11785969114124227, 0.3136929669479494, 0.30449934419280955, 0.05716900870973792, -0.047715097656121946, -0.10809116635909188, -0.054290953325398135, -0.09233615507674958, 0.13535626358817587, -0.0027494740680399712, -0.1315559468691784, 0.0743357323222996], [-0.016268825957219613, 0.11921095469400875, -0.009227153582433768, 0.035588174960555274, -0.03297545236084387, 0.05617758912346334, 0.17004358540810877, -0.08724265035991044, 0.0948833304522053, 0.17569805228891197, 0.021939693946244638, -0.05161087424593056, 0.12482994517455272, 0.11020247011503494, -0.06244032142731421, 0.08719573250142336], [-0.2352296531431951, -0.003407173419632052, 0.14318165221683832, -0.07654905639634692, -0.011130558832181087, 0.08173457298551308, -0.04887323811615504, -0.18858956806007576, -0.05764715273816696, -0.027669922644976454, 0.03460840431088788, -0.08696374122661901, -0.09050902756920054, -0.07936605704234197, 0.009341058444197857, 0.0528705626619258], [-0.06988783261854556, 0.006523077566729454, -0.2593886023675149, 0.13565305610723719, -0.1157647407805621, 0.07161618611021299, 0.1706706542917427, -0.09818641207788519, -0.2319005088766682, -0.045724619450084984, -0.06855276168851084, -0.04424005153157428, 0.18752662713860532, 0.21009221358054647, -0.17497922265925403, -0.052413029876165966], [0.2503987001617354, 0.05453350059250558, -0.1459522669172806, -0.20849862138639066, 0.043053600613307236, -0.22402076997942244, 0.07737032508846121, 0.0932714576516747, 0.00580842833348476, -0.09141862891203374, -0.059562057490902466, -0.10619576329085202, 0.06765315908742803, -0.08437993704057184, -0.01945861994507627, 0.19760792586068207], [0.055410964622461194, 0.21771186645960014, 0.039467131396575914, 0.04376965746595939, 0.09280528842981763, 0.2620781606582888, 0.08759470822807738, 0.15396220916250974, 0.09675635284265044, -0.25724073499774397, 0.04220473245507338, -0.3187598446446054, 0.0008707763383879942, 0.0785643195719344, 0.19481593672319977, 0.29863728495615666], [0.013887099988626021, 0.2537303854444198, 0.08843794129656636, -0.15897237361951916, 0.22832965375110773, -0.2314435839157442, -0.07219185481885157, 0.09583524927208929, 0.08465834117202588, 0.10366187073003055, 0.17390659385188192, -0.10046352011864883, -0.08611816161851284, 0.06582881129350658, -0.10960174465723173, -0.288621589210063], [-0.014031343023325139, -0.007597200476124247, -0.05227179440160977, -0.12476549411999391, -0.03488842488220828, 0.006462606047255832, 0.04366817404720366, -0.027481026552722818, -0.07331164147739654, -0.10330485914882832, -0.0636666622208047, 0.2079730854381706, -0.004724236296347146, -0.1591367414517427, 0.20842232328601812, -0.052260093928845924], [-0.00016829394649193048, -0.102525359655921, 0.11405772839471146, -0.06160299056257948, -0.14451355707615748, -0.18720095792817357, -0.02292041458606178, 0.1030519357887998, -0.11074796454239695, -0.04703439976562548, 0.2481497177087324, 0.014385984589875753, -0.048451067900530394, -0.09675189414726729, -0.07908217450863518, -0.06096760159003483], [0.03426910388289264, 0.06245917886074019, -0.019616892132610586, -0.01117411993796509, -0.02872473870154673, -0.06907070577334279, 0.05954667662066778, 0.026116899922826595, 0.028576188696205124, -0.02558718613131186, -0.02821876813976441, 0.2503779381918178, 0.29634787985058303, 0.13542755545931995, -0.14461458666292124, -0.14595277760064887], [0.07922966414208887, -0.0333986002153217, 0.04390191244217349, 0.06660132211787402, 0.14888170186404628, 0.06718767356146542, 0.19983778914192385, 0.14608772072724863, -0.07546456064244651, -0.14697455653086713, 0.0572644978637093, -0.23598761232064788, 0.01603068635448124, 0.16186727333244563, -0.1273231123855528, -0.020152433466369923], [-0.20948363790929925, 0.04013096019626641, 0.08767668863421187, -0.07979284645128151, -0.1411153836214093, 0.06166092365417629, -0.04321426212888208, 0.021734787554874454, 0.20358964414690142, 0.032096903349829266, 0.06696099427469383, 0.1453073026883865, -0.08609789158637535, -0.01739300603943234, 0.06287597947337899, -0.14237261735210305], [-0.14400066126356897, -0.15080944263697946, 0.05445185652575478, -0.019171235411186812, 0.25628380283275504, -0.037031183333809316, -0.10609818514338513, -0.06364560583496287, -0.16782225669173942, 0.1349576127553121, -0.19861767506606637, 0.037153624643074826, 0.24181787273405353, 0.0025357397020541266, -0.10124949719707096, -0.017695974502119217], [0.06116766961237915, -0.2895643967459238, -0.01907781708487149, 0.01047014076671114, -0.004478369112534305, -0.06530734465743891, 0.13390631937296285, -0.11931502679954153, 0.04518231653433833, 0.20704580625276944, 0.18098078825006167, 0.10241378768093708, 0.2241427066528081, -0.09760960889585173, -0.1166735503359132, 0.16849133408391248], [-0.1528223572135193, -0.08719385529424507, -0.06284200879717869, 0.09428210898331567, 0.014326878114989327, -0.05144716135738125, 0.06702808049193923, 0.03850621706958977, 0.1961874786544638, 0.0038399848216117646, -0.03424311994958353, -0.017614771064697624, 0.026713404518817863, 0.20713372135490132, -0.1550063517224024, -0.053703291959066], [-0.09890644619893235, -0.08506363430729187, 0.09552152623083512, 0.10925056515346829, -0.006153302465124827, 0.10684057579439495, 0.09315971500370743, -0.16767139527997085, -0.1356054801062973, 0.17198434209235824, -0.0812023617009259, -0.25972476236498726, 0.2780927202537609, 0.33235753924397055, 0.10110746122078534, -0.013697776338498703], [-0.03356171998984, 0.03708917444716798, 0.09268546886581994, 0.05130791633660934, -0.04582315017277718, -0.10650497988415795, -0.12805972928230025, -0.21147241515358792, 0.040957861629992695, -0.11143022966913704, -0.07536377209195541, 0.008885089910944555, 0.22046854236841523, 0.08054187891698776, -0.029667836316326537, 0.09136234740612684], [-0.009602806879106071, 0.008647848210561467, -0.0987193127735508, 0.005618114301968647, -0.17785423163519795, -0.2245812449645208, 0.16361810027018237, -0.1398857741347858, -0.1256079351668501, 0.11570170800101948, 0.13225353018591718, -0.0705772287055226, 0.088808596375054, 0.09754278712054004, -0.18906565485074492, 0.155584853698864], [0.11924588467961265, 0.12101887169384702, 0.17511273042613393, -0.04458421594002459, 0.02784488121794377, 0.07786459254922967, -0.007039078344120597, -0.2614932190787946, 0.00491818954408731, -0.03893180684324074, -0.12907484325272914, 0.0032469941942113146, 0.035271736038813874, 0.006475213186855078, -0.07647194373321524, 0.03673821443041018], [-0.010827168374816249, -0.05594642317298018, -0.017913483213076474, -0.011638504747899982, -0.1615882789390083, -0.1919098131376382, 0.05011457214522725, 0.11845360510940314, -0.11583276202559219, 0.08046795776312593, -0.15466522600608731, 0.14849384218776135, -0.014815796941690256, -0.07902121919179377, 0.046024118252855704, -0.08779367929082794], [-0.04359461810241924, -0.0921984342364289, 0.16903165871433212, 0.13854489954290627, 0.03260665239808257, 0.0700127998487418, 0.24494982847430127, -0.13237515834255906, 0.06406638851228745, 0.27061971172563254, 0.10365168984143773, 0.0002261279770539206, 0.2922297334474747, 0.2324716284671729, -0.01880671266261018, 0.13816910631425347], [0.0862196331904895, 0.03246320726222382, -0.16159775118764502, -0.06748954196100354, -0.12159802284353036, 0.12923950595381256, 0.06922758899069126, -0.045529117729543864, -0.05189100509105856, 0.1868082607951969, -0.06547438057681837, -0.10533251677473411, 0.42265014310701243, -0.020817280341882072, 0.02556885764133371, 0.08057634638120073], [0.27249993112285514, 0.021133892791419598, -0.03233485489350944, -0.07889853919058272, 0.13661261391840976, 0.052501176471104846, -0.07504055253942549, 0.016495401301618043, -0.0448967219520286, -0.3094124304705673, -0.0075139249267918255, 0.12005426390754638, 0.26750427019147227, -0.10862607182664061, 0.21927225327292224, -0.07168101371461875], [0.008028363821364175, 0.028004274007864836, 0.044563115924671166, 0.0010548142064865816, -0.12496500450946209, 0.17551424563993295, 0.23045784885309165, 0.03430681578082855, 0.0006284888484208313, -0.12061814053212389, -0.12710172867274264, 0.0425367946962825, 0.13831362222726604, 0.05862635320051464, -0.08504648351103752, 0.061842782763507416], [-0.08996744243399454, -0.1262028107019936, -0.10113738004337561, -0.057123004837028084, -0.13346371354723402, 0.04068594579516146, -0.053697777812197124, 0.04449882322791176, 0.07927676446867539, 0.11648311059931094, 0.16419728354414456, 0.08017691813004399, 0.3305332592263835, 0.004161018919473119, -0.16511710900436732, -0.12522285167942696], [0.1518783945436275, -0.039118242014908225, 0.15731936857158535, 0.13191672864316437, -0.05330673168929101, -0.08256234956686756, 0.19516308955356, -0.249104088806456, -0.08690930202071165, -0.09515368217214706, 0.16621261418151, -0.15606966831441377, 0.23078011464811204, 0.17649265410143727, -0.049010431138047476, -0.06422486459845425], [0.005785520556848514, -0.12292410351960317, 0.04170591386381148, 0.09532866549587554, 0.05479273364702306, -0.052099960860620506, 0.05301565978231533, 0.07084835065998048, 0.14417725775457446, 0.12333424572515649, -0.037384340639887714, 0.10232074453284258, 0.05744008549713703, 0.12876102679350115, 0.20142193194920663, -0.07281692967396386], [0.13416997313654414, -0.040380797060087036, -0.025634820137758182, 0.023770589487636613, -0.10344106077914891, 0.009385531510279425, 0.044877435138398016, 0.09928835971234155, -0.05759165733122545, 0.06706601776505228, 0.12736721436124007, 0.18825597530047508, 0.1226082969078493, 0.08344701198385192, 0.03394809608268952, 0.03477408218523398], [-0.015568959728467825, 0.4255715982969127, -0.07768219658937049, -0.16824128242993583, 0.13882548678544954, -0.014236183203837446, 0.09764592312627851, -0.023525583958404556, -0.16757364882552378, 0.01088249325202133, -0.14516090377149668, -0.06771316668072234, 0.029330563985960862, -0.03625386310386065, -0.2758622300758327, -0.0866029091299981], [0.033632139792926334, 0.05475424366607712, -0.07406524602802436, -0.08021240140874047, -0.03679949660685089, 0.10487628183665612, 0.1391206792206008, 0.26924052062454734, 0.09795564360859575, 0.016822072308676314, -0.03269134380392825, -0.28208039391873047, -0.03619324183150183, -0.2156763493816424, 0.009200865388202051, 0.005391598588532934], [0.14432509137007812, 0.03159148545073828, 0.17545485682398893, 0.06006666882730139, 0.02838696349043636, -0.04806188500768094, 0.11392093312338107, 0.09912067573302955, 0.21064587698323572, -0.18616772634029274, -0.10441112353931224, 0.09418887948965841, 0.10396087272988642, 0.02380901420900527, -0.210426128481923, 0.10526972461299534], [0.05057743434140482, -0.2878668302914624, -0.024883547875274626, 0.09479263786000426, 0.08457781680006418, 0.009860129107931485, 0.06076660238584999, -0.00856119674862347, 0.08584277526684174, 0.13236197403042949, -0.0395931264508418, -0.09410131297503763, 0.2426167001162678, 0.03411741137480774, -0.24647947987582353, -0.0814234320666683], [0.10048897062040428, -0.06793547446444795, 0.11015154661186147, 0.062424091761560205, 0.001683995061385527, 0.06160894834982777, 0.041481558466828515, -0.10019795896156469, 0.07870876889144272, 0.13403654108642937, 0.05150008221759014, 0.00681728515519852, -0.000784172114118273, 0.13405499946022933, 0.11803655359277251, -0.10413320549795518], [0.05218233104639155, 0.030461932605387546, -0.06896817432710767, 0.13635467138143642, -0.03778612393425985, 0.017003853483788575, 0.09968247285615561, 0.06753199272831067, -0.04846000096758648, -0.09536016845367422, -0.06017251849422455, -0.10386884845955743, 0.11607950040204874, 0.27902920086117433, 0.09693812716754648, -0.03109740529880888], [-0.12415785623749358, -0.09559892144144559, 0.005680968398717223, -0.0594790049898049, 0.10650558595700171, -0.031820968957965684, 0.0930682248300763, 0.001636896850143051, 0.0913333253411577, -0.07120053140848417, 0.07695333921891848, -0.08529649944002188, 0.1815342030131487, 0.13146928976923325, -0.18380631037100423, 0.2653999921495152], [-0.12715645614655113, 0.06898172436133505, 0.14672780678798372, 0.023526291958915556, -0.007265008056444526, 0.03231894924774138, 0.23322012193281402, -0.051997201424048234, 0.04144043943196846, -0.09351108992467924, 0.014090276567479505, 0.11830973392169665, 0.24351498224469764, 0.08201713206720003, 0.06820032383985362, -0.11051911045738923], [-0.00568680216347016, 0.040604265932387806, 0.07476086019084625, 0.03218764062467866, 0.12389253872067187, -0.009911790855526495, 0.11736368199245266, -0.4954940276872658, 0.2404182154532161, -0.019738437692585858, -0.16541910164854898, 0.0014678603053238264, 0.17622467397755517, 0.11267582335741758, -0.00629502623737407, 0.11402381056637068], [0.16485516073474452, -0.0640548715516511, 0.15129776890053628, 0.016062162883078254, 0.014667148199100399, 0.08391263670787714, 0.2191815442874797, 0.012870908290057177, 0.13328196467857586, 0.10941001258963186, -0.05233596791184976, 0.12528021413468166, 0.2462954781226878, -0.08072394416490282, -0.033093102822841135, 0.09078400986137652], [-0.06719536198829834, -0.017442223662661828, -0.21467066587390654, -0.09820500045241946, 0.06786547366079772, 0.06345299457736694, 0.10413579135483382, -0.09619568164073683, 0.02066905140931227, 0.08997520765841553, -0.030706260296500098, 0.0385675317004326, 0.15730829142211933, -0.12618533145237554, 0.20850098783741478, -0.1541609413544489], [-0.06054581567156908, -0.06381323232488578, -0.023882025653921255, -0.05868260320942497, -0.0500105884470501, 0.004153618885972652, 0.1425296518934386, 0.006609311887293805, 0.12021830762503283, 0.03275553301610273, 0.15321908174093649, 0.14288497954369733, 0.01509165297329605, -0.001248408738324161, -0.07039664239689246, 0.11558881198864662], [0.04182875074734123, -0.10939042282467197, -0.033601680158092645, 0.20146916719007868, 0.2758385251517105, 0.07324706884475973, 0.23492353771562136, -0.003696278746970263, -0.23205359839954168, 0.08156513757328329, 0.01466747530217617, -0.05439137449562663, 0.27715275708223663, 0.255503633089775, -0.04452314731802489, 0.004417000326172933], [0.04374947170961265, 0.08628445769743684, -0.08779712670282845, 0.08574884361872685, -0.0815962922270988, 0.09520423306946486, -0.08695749732590302, -0.006719664514059108, -0.013347566363595605, -0.1425232842415398, -0.11853019669645963, 0.05454551629777527, 0.1844310063396559, 0.002038576893736985, -0.23092326787198725, -0.038235674940956546], [-0.14251133121293288, -0.0482080572274097, 0.01901696796981084, 0.18505821426603508, -0.10554065309951748, -0.0013075349143943195, -0.0059403350572863264, -0.2410296436255342, -0.03012497813641998, -0.11817881017331576, 0.06458391108980487, -0.28207102085040614, 0.2746440207285338, 0.06669141774424692, -0.03614305652676055, 0.08982937799288294], [-0.09365892252977316, -0.07211690907983552, 0.277453807762838, -0.04738635670846383, -0.20796888790479906, 0.015230555352783686, -0.008757349478128434, 0.015139980907215666, 0.07372918077364825, 0.07541647058049816, 0.18384592442331935, -0.26477667326566695, 0.15622921423956548, 0.15089730432552562, -0.01447683198752266, 0.07251132756604656], [0.12093252847199192, -0.025863846311268538, -0.24424689548618186, 0.0244530292050744, 0.06736022383019936, 0.0958915469375012, 0.24906177207318478, -0.009858623166095662, 0.017441340524822362, 0.1542113860672965, -0.018859256452896753, 0.010342784210496926, 0.07761475314894542, 0.12478732061783811, 0.042877298962088015, 0.04495460457044303], [0.0191502822780865, -0.08720636719679388, -0.2703451808226276, 0.060505946187826246, -0.02580511348851464, 0.21774989152358737, 0.2401326216552768, -0.0481647559780258, -0.17341559011084243, 0.01913109715661004, -0.06490887662567868, 0.053210731601309284, 0.0947123698721853, 0.2217680703253324, 0.05142662582774855, -0.023329751355785855], [-0.11356153182648095, 0.039857229752577696, -0.19927411239539644, -0.022793164300256942, -0.016169893913994534, 0.17814765269484864, -0.12386606222311837, -0.03565378681908562, -0.037081456947904844, -0.11612445853545773, 0.30739056303435547, 0.12463614109587418, 0.04507864020860033, -0.014665360008833147, 0.26161731941260635, 0.09848670444854891], [0.24952591197673463, -0.0041928965524597045, -0.025070996063382575, -0.05133309703330778, -0.06676232383444052, -0.07646967680430539, 0.3255648379115546, -0.002322272054035669, 0.22542882006417977, 0.033145622911301194, 0.0007705877792472813, 0.027557151306043814, 0.03603837440882639, -0.038751684897179735, 0.3455186278503906, -0.05337130966792151], [-0.026090435090356415, 0.06887859155896868, 0.06610932297666727, -0.10411755375065726, -0.00266079098221265, -0.08949756161564294, -0.04918245328127864, 0.05016028758247598, -0.13891680340559287, -0.0016551517887731446, 0.08201660953929758, -0.008058170412065899, 0.07470447410647399, -0.15231365390321255, -0.09915093263240482, -0.09999317806423114], [0.21124278200066587, 0.17182402074284528, 0.044028138009614914, -0.045734285008480244, 0.09886494922524322, 0.04914019198646152, 0.3079019588569478, -0.0035129083989395887, -0.0013245414526101655, -0.032523249104524615, 0.015622528491597678, -0.12449593079173525, 0.07673720312717859, 0.11629019047717715, 0.013742704070269765, 0.099486383160704], [-0.1073433084472904, 0.05577003536388402, -0.14034286963006615, 0.0067055244560905265, -0.2201677088592228, 0.14626546583341832, 0.03363148744957035, 0.10785807848209604, 0.30211806722135287, -0.016957813720085483, 0.005757419974358563, -0.17620087656143818, 0.15937939980927507, -0.004503774677540955, -0.004366351666040732, -0.13024202523494288], [-0.06807603024393288, 0.055533923341780984, -0.3015999398784875, -0.021569063141596415, 0.06948171386218337, -0.16084887353966354, -0.15189622987822554, 0.04761838483172483, -0.2254208158008584, -0.18822532068848452, -0.048734447825555034, -0.07723136139200229, 0.2297296543391934, 0.06664744275502417, -0.2417073240083581, 0.04175768119669107], [0.1069647194116969, -0.09232181791309525, 0.07799073688971549, 0.15150352265182412, 0.08098139488580207, 0.021762012080776695, -0.0737796685762762, -0.17376331403379727, -0.06664263097315883, -0.06105801872597142, 0.18190244379944073, -0.21488523987505614, 0.42112739008304545, 0.3394590352152078, 0.059063407058650465, -0.17176888216547928], [-0.035981857767666325, -0.12158232665587584, 0.07143690754885285, -0.044649711618818616, 0.06344350374558602, -0.006827278642744496, 0.31640978757234434, -0.1218634009498043, 0.11233828605712004, 0.09801113128672366, 0.2100074613284117, -0.07340815278416976, -0.10929101576842094, -0.03105137779390153, -0.18984740572855366, -0.20103825678464293], [-0.08762276754329935, -0.10207062278173404, 0.04827510803269895, 0.12072356157658592, -0.00032857946809172333, -0.08694789693660734, 0.26023094953442083, -0.16283115251210736, -0.01116237627898267, -0.12691328052329445, -0.1616161056249391, -0.053496802812084306, 0.13982998376373973, 0.1678797735250145, 0.07010517312603486, 0.05931255737001961], [0.18797174202175054, -0.029280698570905213, -0.091158532089523, -0.049687052210697844, 0.018553529616609197, -0.05382866236222144, 0.007579939357242058, -0.014625567816724668, -0.03178687133777143, 0.1512423846615035, 0.030759567971931155, -0.08972015363509984, 0.07961184075457672, -4.169766978329519e-05, -0.07992138265271369, 0.35263725561497167], [-0.22075463696349434, -0.07563447127648246, -0.016312095881526396, 0.10679537502111443, 0.11697493127032817, 0.09346730033404249, 0.22404162949906511, 0.0007981875709044042, 0.10939382702764724, 0.20565632929966374, 0.04046017806133992, -0.177401178061956, 0.15805137168535033, 0.1754867354139909, -0.16540861008250773, 0.20689779489935914], [0.033400992456803766, 0.05788760613953635, 0.04936974919388417, 0.15426342078214186, 0.15655849077131279, -0.07841014804075645, 0.2531725263793882, 0.11225355269759946, -0.19645125826448043, 0.09882371061923571, -0.30038559563621225, -0.019695436278466392, 0.33933813758151865, 0.24727085243926036, 0.4344410943680233, 0.16296693926494468], [0.3285259550435934, 0.1372418083043907, -0.06655578410375232, 0.0954983023758661, -0.12644775231442898, 0.04400734403177055, 0.16269054776595543, -0.03262239328136289, -0.3778821926514975, -0.07064729804921545, -0.11269167821145736, -0.15592691450257157, 0.24997278222526415, 0.2328401717789026, 0.03530275094157732, -0.24495656341161684], [0.12676110568839796, 0.0609791408564367, -0.11343625284330659, -0.1876071150667325, 0.03839650068228259, -0.25239970651178895, 0.04489608261335718, -0.20962631084673422, 0.1857287386813963, 0.08479679008468004, -0.06863792472447944, 0.04615040887337007, 0.1361020478620285, -0.13666734968361877, 0.008131910887008981, 0.19342824839607808], [0.1774670548918413, -0.08447134198467489, 0.1513199032611896, -0.002168347531066304, -0.11640034635108906, 0.07822592777243194, 0.047022448882094434, 0.18910750799024933, 0.20152668223507048, -0.17609428005568906, 0.03240637748204126, -0.0950810036355674, 0.001221647113532292, -0.18660775637653124, -0.2634847089476654, -0.17147515949071945], [-0.06493106426997157, -0.0526914719931773, 0.12302864109677508, -0.03693345250320655, 0.1528649412577662, -0.11112545282287098, 0.10967396177855938, 0.09956789169490285, 0.08503036902363896, -0.03469301805661195, 0.35183963913545857, 0.16567871572519777, -0.001144555308357701, -0.13781191348596955, -0.08812841874814904, -0.08191344380020121], [-0.007295524119584141, -0.14533391223415543, 0.26829325181383457, -0.2708875503753769, -0.02791414228003107, -0.07733708580236709, 0.27093321606395215, 0.0941163912625607, 0.010085443017154732, 0.031081963237658917, -0.001533551989079062, 0.11116884189814964, -0.1158590788134704, -0.024501665412365176, 0.40139863736058745, 0.20946574502024992], [-0.10115040772766905, -0.12425949167692439, 0.29996225512449365, 0.20943834289211108, -0.09722189171835267, 0.14741143462384257, 0.23679631059467543, -0.23946356894733684, 0.14848840061031063, 0.22309146765083546, -0.05398816092748953, -0.14148470440015318, 0.20733576112534996, 0.49827526493399904, -0.05139440495455691, 0.14443093622789982], [0.08247708856482977, 0.14187959636276085, -0.10645281474896576, 0.04341168397374811, 0.09186947750461201, 0.4224241421232175, 0.38444610144693736, -0.10603028921281778, 0.14800798900044262, 0.10632901615936519, -0.12673282619977605, -0.047226021292291955, 0.03394774673214936, -0.040049709412063025, -0.12244090449759618, -0.0313289947866522], [-0.02988125146294116, -0.03660738729821849, 0.14171508562881843, 0.08385641118435942, -0.006593536992779123, -0.0005618291172449645, -0.009473822161386144, -0.03223014842427911, -0.093204565584767, -0.23873395888271928, 0.24081239344701777, 0.16130200438928866, 0.10464779018833147, -0.009987407010112614, -0.1386041267639344, -0.13271981525925647], [-0.049282670179331016, -0.14845508635241367, 0.1537261936115717, 0.16146563823396098, -0.019421853067731767, 0.14639691542683497, 0.3977714716599643, -0.16252680776170564, 0.1828140677062994, 0.03820580970624376, 0.015924885460285806, -0.02843936435836958, 0.4316464236329462, 0.15907143231909304, 0.040226177817317584, 0.117010258142466], [-0.02655162353505204, -0.05682204672659198, -0.3118969836012388, 0.15809199666419896, -0.0024724170343039015, -0.015387766470285086, 0.30415597992347315, 0.26742318559677514, 0.0443513283926468, 0.08569397831975369, -0.005722313678281655, 0.11974215661543237, 0.06650542924473134, 0.26174856215446635, 0.07497541674061792, -0.03049997474911246], [0.10994379503116052, 0.008374022042613349, -0.19201281927012034, 0.07848815433271587, -0.1619524806535289, -0.05387102164647818, 0.2580290665343976, 0.0641269984367646, 0.18022784988492416, -0.1585899700948903, 0.09724480763021728, 0.05862412324852784, 0.15872752648067825, 0.12109800005931981, -0.11527774585551621, 0.17651891196164254], [0.07710546381562143, -0.03326364346553503, -0.08159414496376667, 0.09679573499890366, 0.23115833574362388, -0.016318632166433908, 0.4106608914509792, 0.16184566575098974, 0.049469438422162816, 0.04475998778011347, -0.0704008732444013, 0.31310823845788005, 0.2169766969061757, 0.07464209742242274, -0.13744667343431347, -0.10075510429218422], [0.20645872209365623, 0.006199513167936123, 0.13597411004566692, 0.15787749591752534, -0.05185748572368807, 0.04763188030631679, 0.0704820295541136, -0.18973995590831322, 0.07190158342781312, 0.04071685482022099, -0.10258877597267733, -0.2391595589034212, 0.048318669867683565, 0.24438851944525664, 0.07860224864264129, 0.13439360211141657], [-0.05914407170215595, -0.13279814569833995, -0.06793944992838036, -0.21239536043304563, 0.004217419439044454, -0.3522655272641996, 0.13226581432127113, 0.10137623118504052, 0.15745577535547906, 0.12959633587283137, -0.027676394133022548, 0.0013053379075342786, -0.09529261738771551, -0.04842561130138747, 0.012700494177111839, -0.13430068155470798], [-0.11339584610093296, 0.29106024434358185, -0.13490445168312964, 0.10617935052219002, -0.009095045583389812, 0.0441241650000529, 0.017808610189755103, -0.0017353725037297517, -0.1071020761037781, -0.10274889430838073, -0.04946329268196931, -0.2413006399416802, 0.13749269078104293, 0.2388351841426714, -0.013863952615120693, 0.12263299034684344], [0.021821321367921934, 0.13379031201183839, -0.18379403945119574, 0.07455915569797544, 0.08477241700078028, -0.007123136281587252, 0.05286390383909424, 0.029950527072992637, 0.047933622141135016, -0.08085182211309579, -0.0962228992536712, 0.09380114794049625, 0.10517063736137565, 0.14675612004932043, -0.0015880227993538708, 0.08644534423340411], [-0.0477273959993198, 0.13571628583891193, -0.0006013723871388171, 0.0551223611318194, 0.05038025858995344, -0.04705219331289749, 0.028688131901387585, 0.018864234029657083, 0.08250228572207113, -0.0729164395386449, 0.05698487374507604, 0.04689840952226957, -0.14548527716993873, -0.07749223168116302, -0.13565611198655697, -0.06075776106034233], [0.19824896422102467, -0.006721462533393256, 0.041270701265000084, 0.016486035981084037, -0.009310274625107575, 0.18236345289491243, 0.2800792950475207, 0.07866908424387375, -0.07846259903639298, -0.02950797702149347, 0.1606266932811208, 0.17641186583502674, 0.11869385886099951, -0.003071428661578801, -0.026204087201617397, -0.0724791013586253], [0.0029470227739629607, 0.22137306616545296, 9.667658634047316e-05, -0.07455654830121879, 0.02157548977901432, -0.1490732182839379, 0.17000965757088018, -0.17487867155827833, -0.05685892573638176, -0.08270760907085108, 0.05778717559684624, 0.08960289179067348, 0.25828128767851066, -0.03754065978287049, -0.0036294573922846236, -0.1751457836532965], [0.025514504144695728, 0.13590516585784004, -0.2583238930174419, -0.07229459607535307, -0.10809712263145864, 0.04714776958407209, 0.2746698832733665, -0.12569097357271136, 0.07151994145567653, -0.03408667660091959, -0.13385617947078815, 0.019372756379943, 0.13079248258405357, -0.16992686592536896, -0.012589746652276065, -0.08350828761442179], [-0.13062144699655054, -0.16731222864879128, 0.09019954448535707, 0.15250119816180407, -0.22320390247414254, -0.07781667979673808, -0.0011797446840514803, 0.0563386174135323, -0.13858271099805544, -0.20407373803523132, 0.07003130639716902, -0.002408540529067815, 0.4370630691406121, 0.11414481064851716, -0.156053942090949, 0.010956817832617026], [-0.014425286175113457, 0.011008456272997853, -0.04044011462420429, 0.06277968217709497, -0.0687427200514985, -0.02800398600323953, 0.21234212702241392, -0.2544984983826926, 0.06266030925024875, -0.027593394084397833, 0.028542245910042698, 0.07772028535869671, 0.13338980941195275, 0.06243279709328352, 0.14910855909010584, 0.0019974282554625794], [0.12612552180940398, 0.06790382848766592, 0.0035984200186547333, 0.00031884012409406323, 0.005349246832747413, -0.05422215601852394, 0.2746651931172115, -0.053643158995067976, -0.05820466959290931, -0.006782322276076754, -0.14032128332699179, -0.05965457321945661, 0.007449967097675707, -0.1656019078446701, 0.10278101572570277, -0.0686594601338109], [-0.031037629396139646, -0.04282011464530633, -0.17486229431063757, 0.11331464059985585, -0.0968829091410063, 0.05875799819908508, 0.30694385754121484, 0.10276116445459005, -0.05191602545746171, 0.02271722265992625, -0.08729242964859088, 0.08754674764474543, 0.039234895595301, 0.05007213282085628, -0.02995760181487107, -0.1581406586341528], [0.10474803577531201, 0.17601054212331432, 0.0992305798585781, 0.09241103591378254, -0.022431227822019898, 0.000735232856246646, -0.04924630913588615, 0.0045485785644245, -0.09476813646457409, -0.12016253201014909, -0.020228418101892093, 0.054209080273461004, 0.15056173251880076, -0.042800773708374394, 0.12187415234284758, 0.06847633221403593], [-0.0486210948462086, -0.1178259896117677, -0.01517525059571754, -0.05270735493950012, -0.07572052881629227, -0.08711842717794165, 0.07608429720745735, -0.15560996912077563, 0.024883959591716884, -0.0595800664163216, -0.21483120613772524, 0.11031273115043057, 0.31489539900400354, -0.0057248306991499985, -0.19913745665959595, -0.012581205366262064], [-0.3110764109236557, -0.009960978126505834, 0.022360700139477288, 0.06632562761104953, 0.07746687307615498, -0.005358566318818927, -0.0033774780456388605, -0.0643361246800907, 0.2119478749633338, 0.23068271229328674, -0.10670512659037035, -0.004339046695694471, 0.28079864271795396, -0.009168327874615119, 0.010790196050101848, 0.02518856494627019], [0.011501304582858862, 0.08188292983732212, -0.09049713066451552, -0.14367283776136683, -0.15972166395970183, 0.0035301042905915947, 0.02347802932552298, 0.10006617481806374, 0.05412726385643427, 0.23251250565988674, -0.2827336057319232, -0.2758983832071431, 0.10706659725632942, 0.10381040804871199, -0.04405677491149966, 0.13725348997540987], [-0.0667742526740806, 0.033719945246730845, -0.049620677131322705, 0.023466537211597877, 0.030337137246620027, -0.02181964474542733, 0.18535026257729295, -0.08748321828534315, 0.041241851219324034, -0.09173557643213374, -0.05329130246463609, 0.2691539161850475, 0.2341155736544125, 0.03290875469222048, 0.035485770251528985, 0.15312596501899797], [0.08215619310452625, 0.024942894589964716, 0.1893693483776648, 0.023010620285404654, -0.04558281573028316, -0.1286878808938738, -0.16026947576967668, -0.13978776971812662, 0.05898750461442494, -0.0365960892913824, -0.12869779979084656, 0.11545349741870034, 0.055849370574190066, -0.06730950258450955, 0.013155769444782433, -0.02734731485822607], [0.017173599680357456, 0.10994632374446725, -0.1373959561286849, 0.1633513828524711, -0.019979013356094564, -0.02596373656654121, 0.06568982477842586, -0.2637709374276837, 0.0795465937462239, -0.19787230632755126, -0.007464132292502132, -0.008337413218428997, 0.16743889118735353, 0.008600999545403831, -0.05560121417915691, -0.2831186367030733], [0.0617338624238336, 0.06554301609773817, 0.23065126237609743, 0.013716660274391687, 0.17566479153768697, -0.006244892282338502, 0.16724512886896334, -0.07085269366129017, -0.0001408509354924194, 0.010654076093348279, 0.1265751081381319, -0.24708479338349695, 0.21444399809236797, -0.08263205019125852, 0.018123230631862948, 0.07125879652292953], [0.003192998262430188, 0.05904230126122691, 0.11175138237425454, -0.20385376480858758, -0.14000676000966764, 0.10938406435306278, 0.10924720532641816, -0.02090674271923018, -0.023546268320836648, 0.05556870264811685, 0.13225555822131008, -0.18858016913042844, 0.194289991096052, -0.018162411708045167, -0.08291381440768524, 0.19201627845919006], [-0.22974496166022126, -0.15849024911835513, -0.03813492817429476, 0.027289061868666524, -0.15853224172957067, 0.11118293266987848, 0.21016933279037933, 0.07727387840780757, 0.04678191044312567, 0.02586340837509539, -0.03323158390832765, -0.06368412745393681, 0.04242537182189444, -0.03351066996972496, 0.0034088391402918128, -0.12003889637359495], [0.05020193646264694, 0.013717181814277076, -0.15217682761200793, 0.07262209449061381, -0.008349071234975072, 0.2351528932873539, 0.2144305425311449, -0.006500411133042846, -0.23748556304380555, -0.006783360626132581, 0.05806587480565692, -0.12041360858931362, 0.08340097953386942, -0.22722308704121957, 0.26247558467507376, 0.020920086542726788], [-0.13817442044034037, 0.005101813751725026, -0.05311013976717969, -0.012980816985927844, -0.06071094056170622, -0.06599097672277926, 0.07537704503508456, -0.05790681160125995, -0.0006342728054396602, -0.17058020336402593, 0.012329684613788762, 0.12837971168014928, 0.011874642819245843, -0.014435237201713734, 0.08077059664149222, -0.10260661304097804], [0.10572965814819735, -0.06299731540933157, 0.17405975042633, -0.03986215354984188, -0.07783783954296776, -0.007878360039434072, 0.03599154838960822, 0.06371692046336262, -0.051056187549927336, 0.03380820423453482, 0.32107252876770853, -0.293026961233375, 0.1909833035887127, -0.16288996619313031, 0.06447773642522762, -0.14768868279819852], [0.1533771230038691, 0.1804239073794806, -0.023697324461183725, -0.055762925683746536, 0.0374295188154583, -0.20374760205590534, 0.18652988149181635, -0.1420248805066101, 0.1011267939218797, -0.04751467704184581, -0.16357092965907133, -0.2782512713311294, -0.13161340143245123, 0.13796881307207526, 0.04622490730220765, -0.04905289416675867], [-0.048569320217645456, -0.08410840283906673, 0.22636817022258532, 0.19995397751745214, -0.07176362972726986, -0.13182585411274447, 0.06141955007133222, 0.042860694347588074, 0.23390995591580577, 0.09669767135511999, -0.13921531802931447, -0.21607748900073814, -0.07374672109185935, -0.00956525345821106, -0.09271708363853051, -0.03609297155633054], [-0.020118547895659, 0.1293530421863692, 0.10377549205697323, 0.12919043041404749, -0.006774500833230329, -0.051021211973950556, -0.13887591362136226, -0.2691656657740772, -0.20899283731001753, -0.01631411986982692, -0.053810695045443044, 0.05578406339859066, -0.0982360662563426, -0.12767977534132152, 0.07187919788276799, -0.19194065731878973], [0.02090406222602586, 0.09793311176134854, -0.007719507820639299, -0.052110170918960495, -0.05376921424052733, 0.209473113771907, 0.06826122909824828, 0.027092545447861733, -0.08707912763515938, -0.013129332830603923, -0.05405370085505932, -0.0882308621712539, 0.0062986901224862425, -0.0787903561104552, -0.2333943200771539, 0.07664798132873189], [-0.014762203686150924, -0.03663443175311167, 0.09827226343462304, -0.16624961358235357, 0.2158655601925968, 0.055162072387983194, -0.06355795349331647, -0.12143005456625176, -0.1317425454123246, 0.027369416632908556, 0.14416890262885163, -0.17786504572359418, 0.08742695964050336, 0.13214583646467754, 0.233907321933188, 0.012106889436695594], [0.01429023237255216, 0.022472815928126753, 0.198590806568455, -0.02266028420983766, -0.15275450132257362, -0.051491269907834904, 0.36558957537597336, 0.013171006019558274, -0.19097034679896321, 0.026047707768000236, -0.08150372674370981, -0.19349061262636283, 0.0011030225733658962, -0.3031960700696129, 0.018772246043740927, 0.19363457538114795], [-0.1306557845726393, -0.002037415018798141, 0.1642737372149574, 0.016322182503546986, 0.06322795022767298, -0.02947105773989955, 0.10722234210120607, 0.0227962418685212, 0.1695120445980017, -0.008568775919281455, -0.21606118035682656, 0.12364090627554002, 0.07300415021709132, 0.02894629942006974, -0.11273899107992115, 0.17623353136989509], [0.0184261815494987, 0.20373397542719238, 0.02564488473784389, -0.07238891936361175, -0.1904926898007508, -0.12396994246886314, -0.11182846385759108, 0.02662837024646978, 0.08837311013512376, -0.1072364605881654, 0.1161022979885993, 0.07811621214231226, 0.10075314060100317, -0.12430459725891266, 0.01531329990859595, -0.20371125534166223], [0.0019187147434062103, -0.03213296997284225, 0.07926840841876508, -0.0020200912812168887, -0.02037917666694593, 0.13260610832663067, 0.4013754812345841, -0.23620462325905112, -0.048637983148729455, 0.08243539643879313, 0.0430835787440174, 0.04385168565680561, 0.044360212512791306, 0.12918745501628215, -0.16200546835635993, -0.25403957996960697], [-0.1097175704674857, 0.10714346039375941, -0.015621628428787403, -0.3295252509135051, -0.020416216288443704, -0.05014897906048088, 0.11213260169579947, -0.07385371692209307, -0.0651272593975632, -0.012612469309842361, -0.2171416577110238, -0.100387843752711, -0.06010848867501938, 0.09045401086459796, 0.16527343651550763, 0.07497249092610567], [-0.09815972591806964, 0.10563593851417628, -0.14268841607016633, 0.020444507317787828, 0.15765200882031297, 0.032503228063072855, 0.386510646108284, 0.04738235692627014, 0.01777907389719045, 0.05885727682633226, -0.019259029609362852, 0.016181880539001128, 0.1740644898520733, 0.04625692036297435, -0.037169038801285456, 0.06095520866833488], [0.06566352185721117, -0.12127660786284841, -0.28000578343658394, 0.04157027953058992, 0.13190824688378477, -0.047845883874645785, -0.09710906982558926, -0.1318466145980024, 0.21373454826134447, -0.2916460424729007, -0.13146392916181013, 0.05465502167411072, -0.04730300415824358, 0.05574105884346768, 0.0712448038799311, -0.04518315732570139], [-0.07795193526277915, 0.03232682256476593, 0.010166039860629413, -0.02042855958032965, 0.13310193185828745, -0.13441354499754593, 0.20877891577086863, 0.07079662053549649, 0.014270950027549481, 0.08375175814773561, 0.008584393248834074, 0.15368219028635613, -0.09041731862754628, -0.16111902854546775, -0.05531648196392125, -0.06414672515546992], [0.011545512593274057, -0.06552861004067956, -0.035645286149348636, -0.20700376858373554, 0.036203962552855476, -0.22783444031979075, -0.03546380997708914, -0.08644744697695413, 0.13979689129849368, -0.13269419780163275, 0.11527860049622722, 0.1490955003077567, -0.09834527609689198, -0.11314782717970194, 0.053770739336884164, -0.09515775387569064], [0.12465886456433088, -0.08360330163140949, -0.041166242666137, 0.028622876680978928, 0.07129493869442383, 0.174739701801997, -0.14996767828429183, 0.06826225881407466, -0.16359443456190617, 0.06282786941249235, 0.0818844828132721, 0.13463077202727472, -0.05660546269348696, -0.004911990583938795, 0.0031542422018966732, -0.004131933602081964], [0.060916031200624915, 0.18931008712253414, -0.13024862678430282, -0.042755964587037856, -0.07556536911882941, -0.023725220058105814, 0.001453042912273885, 0.1046290047667406, 0.1592068934013087, -0.08259185575559166, -0.027770520668555877, 0.07024205298015324, -0.2129853383838612, 0.08772664214482453, 0.1548983561065279, -0.0271957805728635], [0.050904425179153265, 0.08695125384590585, -0.33395756832939355, 0.04120426118965734, -0.288123404734278, 0.06666301695285737, -0.17239792441786309, -0.02635174317395466, 0.044517017401248506, 0.05359498067487137, 0.14223541381764274, -0.05862320493809604, 0.1748410681791768, 0.2182332600318399, 0.19257220346191062, 0.08694155473682391], [-0.05101910846952268, 0.10298806014173645, 0.17100722130225507, 0.1536584568078607, 0.05291824780381457, -0.03979261204968502, 0.07872328931816291, 0.12116219559206061, 0.08413530643762801, 0.22373189426705778, -0.10627665219132397, 0.21406658727681624, 0.08591420490954098, -0.37557342171035324, -0.05379655291813444, -0.0018549760968840352], [0.09564061647487422, 0.021645070806106063, -0.12963304591447022, 0.21856850060415003, -0.03875542352013754, -0.0760532761291166, 0.06633718348281484, 0.15733499557414882, -0.06269916976897084, -0.32583406275753446, 0.22024730953532917, 0.05836808710045318, 0.02334809699521655, 0.1845837849400085, 0.04307265338947991, -0.045352345396015147], [0.10285896757607094, 0.016925824697873453, -0.09487071467058164, -0.008750029320985524, -0.08954917041315656, -0.17831457688773486, 0.15139557467128575, -0.07854273403597195, -0.029263570427458294, -0.06524038882506818, -0.06636714667485195, 0.19267869669486698, 0.165038380436702, 0.01618927123971117, 0.11585371886628439, -0.12492593034708956], [0.21882850775941184, -0.02804124204408192, -0.12946880052124393, 0.1223897756917453, -0.10928824054109997, 0.011363819663577232, 0.0704869216936017, -0.1844036331689378, -0.10200332364399849, 0.12995966782616006, -0.12367186313393483, 0.08033856692231915, 0.1364980175087314, -0.02018430152200639, -0.08402972229387855, 0.1468177378334982], [0.01536252739710276, 0.042242898872991534, -0.02986164124590982, 0.008892464386079418, 0.20736725055831387, -0.02741786082722379, 0.20911707888177172, -0.007983887488609608, -0.003430719093218161, 0.18117201949512926, 0.004379246066376463, 0.2538869929463326, -0.09789625237565444, 0.18077146420081436, 0.006981461573565376, -0.15846124458616362], [-0.0036061708618691114, 0.04461056075598838, 0.09121324477535339, 0.14780336100528102, -0.012853932452067581, -0.017401128959776857, 0.1679159281510992, -0.23190867698046178, 0.03222213854154174, -0.03311895394997912, -0.12056338684874444, -0.09377503737704482, 0.1314978862869204, 0.21176463607314477, -0.017572763381919255, 0.2392666563692109], [-0.405930678101804, -0.0468687175703935, -0.02556770517200771, 0.3768416845470094, -0.06222907969629063, 0.0343246158429432, 0.5677660101590317, -0.017387557736535393, 0.11429611124128375, -0.033754984738572, -0.1419625661017922, -0.04481651005015738, 0.5499161238744479, 0.588086051868688, -0.14473213526278203, -0.11552453532739687]], "bias": [[-0.0452710627953833, -0.10848330349885417, 0.1257459354900015, 0.1843317901122501, 0.0, -0.05737613479801788, 0.22344639399124827, -0.05591746067918863, 0.123814128301772, -0.030069044917075776, 0.0, 0.0, 0.22298079209029953, 0.17734806024130206, -0.04529132397315621, 0.06031807120588414]], "mWeights": [[0.0, 0.0, 0.0, 0.0, 0.0, 0.0, 0.0, 0.0, 0.0, 0.0, 0.0, 0.0, 0.0, 0.0, 0.0, 0.0], [0.0, 0.0, 0.0, 0.0, 0.0, 0.0, 0.0, 0.0, 0.0, 0.0, 0.0, 0.0, 0.0, 0.0, 0.0, 0.0], [0.0, 0.0, 0.0, 0.0, 0.0, 0.0, 0.0, 0.0, 0.0, 0.0, 0.0, 0.0, 0.0, 0.0, 0.0, 0.0], [0.0, 0.0, 0.0, 0.0, 0.0, 0.0, 0.0, 0.0, 0.0, 0.0, 0.0, 0.0, 0.0, 0.0, 0.0, 0.0], [0.0, 0.0, 0.0, 0.0, 0.0, 0.0, 0.0, 0.0, 0.0, 0.0, 0.0, 0.0, 0.0, 0.0, 0.0, 0.0], [0.0, 0.0, 0.0, 0.0, 0.0, 0.0, 0.0, 0.0, 0.0, 0.0, 0.0, 0.0, 0.0, 0.0, 0.0, 0.0], [0.0, 0.0, 0.0, 0.0, 0.0, 0.0, 0.0, 0.0, 0.0, 0.0, 0.0, 0.0, 0.0, 0.0, 0.0, 0.0], [0.0, 0.0, 0.0, 0.0, 0.0, 0.0, 0.0, 0.0, 0.0, 0.0, 0.0, 0.0, 0.0, 0.0, 0.0, 0.0], [0.0, 0.0, 0.0, 0.0, 0.0, 0.0, 0.0, 0.0, 0.0, 0.0, 0.0, 0.0, 0.0, 0.0, 0.0, 0.0], [0.0, 0.0, 0.0, 0.0, 0.0, 0.0, 0.0, 0.0, 0.0, 0.0, 0.0, 0.0, 0.0, 0.0, 0.0, 0.0], [0.0, 0.0, 0.0, 0.0, 0.0, 0.0, 0.0, 0.0, 0.0, 0.0, 0.0, 0.0, 0.0, 0.0, 0.0, 0.0], [0.0, 0.0, 0.0, 0.0, 0.0, 0.0, 0.0, 0.0, 0.0, 0.0, 0.0, 0.0, 0.0, 0.0, 0.0, 0.0], [0.0, 0.0, 0.0, 0.0, 0.0, 0.0, 0.0, 0.0, 0.0, 0.0, 0.0, 0.0, 0.0, 0.0, 0.0, 0.0], [0.0, 0.0, 0.0, 0.0, 0.0, 0.0, 0.0, 0.0, 0.0, 0.0, 0.0, 0.0, 0.0, 0.0, 0.0, 0.0], [0.0, 0.0, 0.0, 0.0, 0.0, 0.0, 0.0, 0.0, 0.0, 0.0, 0.0, 0.0, 0.0, 0.0, 0.0, 0.0], [0.0, 0.0, 0.0, 0.0, 0.0, 0.0, 0.0, 0.0, 0.0, 0.0, 0.0, 0.0, 0.0, 0.0, 0.0, 0.0], [0.0, 0.0, 0.0, 0.0, 0.0, 0.0, 0.0, 0.0, 0.0, 0.0, 0.0, 0.0, 0.0, 0.0, 0.0, 0.0], [0.0, 0.0, 0.0, 0.0, 0.0, 0.0, 0.0, 0.0, 0.0, 0.0, 0.0, 0.0, 0.0, 0.0, 0.0, 0.0], [0.0, 0.0, 0.0, 0.0, 0.0, 0.0, 0.0, 0.0, 0.0, 0.0, 0.0, 0.0, 0.0, 0.0, 0.0, 0.0], [0.0, 0.0, 0.0, 0.0, 0.0, 0.0, 0.0, 0.0, 0.0, 0.0, 0.0, 0.0, 0.0, 0.0, 0.0, 0.0], [0.0, 0.0, 0.0, 0.0, 0.0, 0.0, 0.0, 0.0, 0.0, 0.0, 0.0, 0.0, 0.0, 0.0, 0.0, 0.0], [0.0, 0.0, 0.0, 0.0, 0.0, 0.0, 0.0, 0.0, 0.0, 0.0, 0.0, 0.0, 0.0, 0.0, 0.0, 0.0], [0.0, 0.0, 0.0, 0.0, 0.0, 0.0, 0.0, 0.0, 0.0, 0.0, 0.0, 0.0, 0.0, 0.0, 0.0, 0.0], [0.0, 0.0, 0.0, 0.0, 0.0, 0.0, 0.0, 0.0, 0.0, 0.0, 0.0, 0.0, 0.0, 0.0, 0.0, 0.0], [0.0, 0.0, 0.0, 0.0, 0.0, 0.0, 0.0, 0.0, 0.0, 0.0, 0.0, 0.0, 0.0, 0.0, 0.0, 0.0], [0.0, 0.0, 0.0, 0.0, 0.0, 0.0, 0.0, 0.0, 0.0, 0.0, 0.0, 0.0, 0.0, 0.0, 0.0, 0.0], [0.0, 0.0, 0.0, 0.0, 0.0, 0.0, 0.0, 0.0, 0.0, 0.0, 0.0, 0.0, 0.0, 0.0, 0.0, 0.0], [0.0, 0.0, 0.0, 0.0, 0.0, 0.0, 0.0, 0.0, 0.0, 0.0, 0.0, 0.0, 0.0, 0.0, 0.0, 0.0], [0.0, 0.0, 0.0, 0.0, 0.0, 0.0, 0.0, 0.0, 0.0, 0.0, 0.0, 0.0, 0.0, 0.0, 0.0, 0.0], [0.0, 0.0, 0.0, 0.0, 0.0, 0.0, 0.0, 0.0, 0.0, 0.0, 0.0, 0.0, 0.0, 0.0, 0.0, 0.0], [0.0, 0.0, 0.0, 0.0, 0.0, 0.0, 0.0, 0.0, 0.0, 0.0, 0.0, 0.0, 0.0, 0.0, 0.0, 0.0], [0.0, 0.0, 0.0, 0.0, 0.0, 0.0, 0.0, 0.0, 0.0, 0.0, 0.0, 0.0, 0.0, 0.0, 0.0, 0.0], [0.0, 0.0, 0.0, 0.0, 0.0, 0.0, 0.0, 0.0, 0.0, 0.0, 0.0, 0.0, 0.0, 0.0, 0.0, 0.0], [0.0, 0.0, 0.0, 0.0, 0.0, 0.0, 0.0, 0.0, 0.0, 0.0, 0.0, 0.0, 0.0, 0.0, 0.0, 0.0], [0.0, 0.0, 0.0, 0.0, 0.0, 0.0, 0.0, 0.0, 0.0, 0.0, 0.0, 0.0, 0.0, 0.0, 0.0, 0.0], [0.0, 0.0, 0.0, 0.0, 0.0, 0.0, 0.0, 0.0, 0.0, 0.0, 0.0, 0.0, 0.0, 0.0, 0.0, 0.0], [0.0, 0.0, 0.0, 0.0, 0.0, 0.0, 0.0, 0.0, 0.0, 0.0, 0.0, 0.0, 0.0, 0.0, 0.0, 0.0], [0.0, 0.0, 0.0, 0.0, 0.0, 0.0, 0.0, 0.0, 0.0, 0.0, 0.0, 0.0, 0.0, 0.0, 0.0, 0.0], [0.0, 0.0, 0.0, 0.0, 0.0, 0.0, 0.0, 0.0, 0.0, 0.0, 0.0, 0.0, 0.0, 0.0, 0.0, 0.0], [0.0, 0.0, 0.0, 0.0, 0.0, 0.0, 0.0, 0.0, 0.0, 0.0, 0.0, 0.0, 0.0, 0.0, 0.0, 0.0], [0.0, 0.0, 0.0, 0.0, 0.0, 0.0, 0.0, 0.0, 0.0, 0.0, 0.0, 0.0, 0.0, 0.0, 0.0, 0.0], [0.0, 0.0, 0.0, 0.0, 0.0, 0.0, 0.0, 0.0, 0.0, 0.0, 0.0, 0.0, 0.0, 0.0, 0.0, 0.0], [0.0, 0.0, 0.0, 0.0, 0.0, 0.0, 0.0, 0.0, 0.0, 0.0, 0.0, 0.0, 0.0, 0.0, 0.0, 0.0], [0.0, 0.0, 0.0, 0.0, 0.0, 0.0, 0.0, 0.0, 0.0, 0.0, 0.0, 0.0, 0.0, 0.0, 0.0, 0.0], [0.0, 0.0, 0.0, 0.0, 0.0, 0.0, 0.0, 0.0, 0.0, 0.0, 0.0, 0.0, 0.0, 0.0, 0.0, 0.0], [0.0, 0.0, 0.0, 0.0, 0.0, 0.0, 0.0, 0.0, 0.0, 0.0, 0.0, 0.0, 0.0, 0.0, 0.0, 0.0], [0.0, 0.0, 0.0, 0.0, 0.0, 0.0, 0.0, 0.0, 0.0, 0.0, 0.0, 0.0, 0.0, 0.0, 0.0, 0.0], [0.0, 0.0, 0.0, 0.0, 0.0, 0.0, 0.0, 0.0, 0.0, 0.0, 0.0, 0.0, 0.0, 0.0, 0.0, 0.0], [0.0, 0.0, 0.0, 0.0, 0.0, 0.0, 0.0, 0.0, 0.0, 0.0, 0.0, 0.0, 0.0, 0.0, 0.0, 0.0], [0.0, 0.0, 0.0, 0.0, 0.0, 0.0, 0.0, 0.0, 0.0, 0.0, 0.0, 0.0, 0.0, 0.0, 0.0, 0.0], [0.0, 0.0, 0.0, 0.0, 0.0, 0.0, 0.0, 0.0, 0.0, 0.0, 0.0, 0.0, 0.0, 0.0, 0.0, 0.0], [0.0, 0.0, 0.0, 0.0, 0.0, 0.0, 0.0, 0.0, 0.0, 0.0, 0.0, 0.0, 0.0, 0.0, 0.0, 0.0], [0.0, 0.0, 0.0, 0.0, 0.0, 0.0, 0.0, 0.0, 0.0, 0.0, 0.0, 0.0, 0.0, 0.0, 0.0, 0.0], [0.0, 0.0, 0.0, 0.0, 0.0, 0.0, 0.0, 0.0, 0.0, 0.0, 0.0, 0.0, 0.0, 0.0, 0.0, 0.0], [0.0, 0.0, 0.0, 0.0, 0.0, 0.0, 0.0, 0.0, 0.0, 0.0, 0.0, 0.0, 0.0, 0.0, 0.0, 0.0], [0.0, 0.0, 0.0, 0.0, 0.0, 0.0, 0.0, 0.0, 0.0, 0.0, 0.0, 0.0, 0.0, 0.0, 0.0, 0.0], [0.0, 0.0, 0.0, 0.0, 0.0, 0.0, 0.0, 0.0, 0.0, 0.0, 0.0, 0.0, 0.0, 0.0, 0.0, 0.0], [0.0, 0.0, 0.0, 0.0, 0.0, 0.0, 0.0, 0.0, 0.0, 0.0, 0.0, 0.0, 0.0, 0.0, 0.0, 0.0], [0.0, 0.0, 0.0, 0.0, 0.0, 0.0, 0.0, 0.0, 0.0, 0.0, 0.0, 0.0, 0.0, 0.0, 0.0, 0.0], [0.0, 0.0, 0.0, 0.0, 0.0, 0.0, 0.0, 0.0, 0.0, 0.0, 0.0, 0.0, 0.0, 0.0, 0.0, 0.0], [0.0, 0.0, 0.0, 0.0, 0.0, 0.0, 0.0, 0.0, 0.0, 0.0, 0.0, 0.0, 0.0, 0.0, 0.0, 0.0], [0.0, 0.0, 0.0, 0.0, 0.0, 0.0, 0.0, 0.0, 0.0, 0.0, 0.0, 0.0, 0.0, 0.0, 0.0, 0.0], [0.0, 0.0, 0.0, 0.0, 0.0, 0.0, 0.0, 0.0, 0.0, 0.0, 0.0, 0.0, 0.0, 0.0, 0.0, 0.0], [0.0, 0.0, 0.0, 0.0, 0.0, 0.0, 0.0, 0.0, 0.0, 0.0, 0.0, 0.0, 0.0, 0.0, 0.0, 0.0], [0.0, 0.0, 0.0, 0.0, 0.0, 0.0, 0.0, 0.0, 0.0, 0.0, 0.0, 0.0, 0.0, 0.0, 0.0, 0.0], [0.0, 0.0, 0.0, 0.0, 0.0, 0.0, 0.0, 0.0, 0.0, 0.0, 0.0, 0.0, 0.0, 0.0, 0.0, 0.0], [0.0, 0.0, 0.0, 0.0, 0.0, 0.0, 0.0, 0.0, 0.0, 0.0, 0.0, 0.0, 0.0, 0.0, 0.0, 0.0], [0.0, 0.0, 0.0, 0.0, 0.0, 0.0, 0.0, 0.0, 0.0, 0.0, 0.0, 0.0, 0.0, 0.0, 0.0, 0.0], [0.0, 0.0, 0.0, 0.0, 0.0, 0.0, 0.0, 0.0, 0.0, 0.0, 0.0, 0.0, 0.0, 0.0, 0.0, 0.0], [0.0, 0.0, 0.0, 0.0, 0.0, 0.0, 0.0, 0.0, 0.0, 0.0, 0.0, 0.0, 0.0, 0.0, 0.0, 0.0], [0.0, 0.0, 0.0, 0.0, 0.0, 0.0, 0.0, 0.0, 0.0, 0.0, 0.0, 0.0, 0.0, 0.0, 0.0, 0.0], [0.0, 0.0, 0.0, 0.0, 0.0, 0.0, 0.0, 0.0, 0.0, 0.0, 0.0, 0.0, 0.0, 0.0, 0.0, 0.0], [0.0, 0.0, 0.0, 0.0, 0.0, 0.0, 0.0, 0.0, 0.0, 0.0, 0.0, 0.0, 0.0, 0.0, 0.0, 0.0], [0.0, 0.0, 0.0, 0.0, 0.0, 0.0, 0.0, 0.0, 0.0, 0.0, 0.0, 0.0, 0.0, 0.0, 0.0, 0.0], [0.0, 0.0, 0.0, 0.0, 0.0, 0.0, 0.0, 0.0, 0.0, 0.0, 0.0, 0.0, 0.0, 0.0, 0.0, 0.0], [0.0, 0.0, 0.0, 0.0, 0.0, 0.0, 0.0, 0.0, 0.0, 0.0, 0.0, 0.0, 0.0, 0.0, 0.0, 0.0], [0.0, 0.0, 0.0, 0.0, 0.0, 0.0, 0.0, 0.0, 0.0, 0.0, 0.0, 0.0, 0.0, 0.0, 0.0, 0.0], [0.0, 0.0, 0.0, 0.0, 0.0, 0.0, 0.0, 0.0, 0.0, 0.0, 0.0, 0.0, 0.0, 0.0, 0.0, 0.0], [0.0, 0.0, 0.0, 0.0, 0.0, 0.0, 0.0, 0.0, 0.0, 0.0, 0.0, 0.0, 0.0, 0.0, 0.0, 0.0], [0.0, 0.0, 0.0, 0.0, 0.0, 0.0, 0.0, 0.0, 0.0, 0.0, 0.0, 0.0, 0.0, 0.0, 0.0, 0.0], [0.0, 0.0, 0.0, 0.0, 0.0, 0.0, 0.0, 0.0, 0.0, 0.0, 0.0, 0.0, 0.0, 0.0, 0.0, 0.0], [0.0, 0.0, 0.0, 0.0, 0.0, 0.0, 0.0, 0.0, 0.0, 0.0, 0.0, 0.0, 0.0, 0.0, 0.0, 0.0], [0.0, 0.0, 0.0, 0.0, 0.0, 0.0, 0.0, 0.0, 0.0, 0.0, 0.0, 0.0, 0.0, 0.0, 0.0, 0.0], [0.0, 0.0, 0.0, 0.0, 0.0, 0.0, 0.0, 0.0, 0.0, 0.0, 0.0, 0.0, 0.0, 0.0, 0.0, 0.0], [0.0, 0.0, 0.0, 0.0, 0.0, 0.0, 0.0, 0.0, 0.0, 0.0, 0.0, 0.0, 0.0, 0.0, 0.0, 0.0], [0.0, 0.0, 0.0, 0.0, 0.0, 0.0, 0.0, 0.0, 0.0, 0.0, 0.0, 0.0, 0.0, 0.0, 0.0, 0.0], [0.0, 0.0, 0.0, 0.0, 0.0, 0.0, 0.0, 0.0, 0.0, 0.0, 0.0, 0.0, 0.0, 0.0, 0.0, 0.0], [0.0, 0.0, 0.0, 0.0, 0.0, 0.0, 0.0, 0.0, 0.0, 0.0, 0.0, 0.0, 0.0, 0.0, 0.0, 0.0], [0.0, 0.0, 0.0, 0.0, 0.0, 0.0, 0.0, 0.0, 0.0, 0.0, 0.0, 0.0, 0.0, 0.0, 0.0, 0.0], [0.0, 0.0, 0.0, 0.0, 0.0, 0.0, 0.0, 0.0, 0.0, 0.0, 0.0, 0.0, 0.0, 0.0, 0.0, 0.0], [0.0, 0.0, 0.0, 0.0, 0.0, 0.0, 0.0, 0.0, 0.0, 0.0, 0.0, 0.0, 0.0, 0.0, 0.0, 0.0], [0.0, 0.0, 0.0, 0.0, 0.0, 0.0, 0.0, 0.0, 0.0, 0.0, 0.0, 0.0, 0.0, 0.0, 0.0, 0.0], [0.0, 0.0, 0.0, 0.0, 0.0, 0.0, 0.0, 0.0, 0.0, 0.0, 0.0, 0.0, 0.0, 0.0, 0.0, 0.0], [0.0, 0.0, 0.0, 0.0, 0.0, 0.0, 0.0, 0.0, 0.0, 0.0, 0.0, 0.0, 0.0, 0.0, 0.0, 0.0], [0.0, 0.0, 0.0, 0.0, 0.0, 0.0, 0.0, 0.0, 0.0, 0.0, 0.0, 0.0, 0.0, 0.0, 0.0, 0.0], [0.0, 0.0, 0.0, 0.0, 0.0, 0.0, 0.0, 0.0, 0.0, 0.0, 0.0, 0.0, 0.0, 0.0, 0.0, 0.0], [0.0, 0.0, 0.0, 0.0, 0.0, 0.0, 0.0, 0.0, 0.0, 0.0, 0.0, 0.0, 0.0, 0.0, 0.0, 0.0], [0.0, 0.0, 0.0, 0.0, 0.0, 0.0, 0.0, 0.0, 0.0, 0.0, 0.0, 0.0, 0.0, 0.0, 0.0, 0.0], [0.0, 0.0, 0.0, 0.0, 0.0, 0.0, 0.0, 0.0, 0.0, 0.0, 0.0, 0.0, 0.0, 0.0, 0.0, 0.0], [0.0, 0.0, 0.0, 0.0, 0.0, 0.0, 0.0, 0.0, 0.0, 0.0, 0.0, 0.0, 0.0, 0.0, 0.0, 0.0], [0.0, 0.0, 0.0, 0.0, 0.0, 0.0, 0.0, 0.0, 0.0, 0.0, 0.0, 0.0, 0.0, 0.0, 0.0, 0.0], [0.0, 0.0, 0.0, 0.0, 0.0, 0.0, 0.0, 0.0, 0.0, 0.0, 0.0, 0.0, 0.0, 0.0, 0.0, 0.0], [0.0, 0.0, 0.0, 0.0, 0.0, 0.0, 0.0, 0.0, 0.0, 0.0, 0.0, 0.0, 0.0, 0.0, 0.0, 0.0], [0.0, 0.0, 0.0, 0.0, 0.0, 0.0, 0.0, 0.0, 0.0, 0.0, 0.0, 0.0, 0.0, 0.0, 0.0, 0.0], [0.0, 0.0, 0.0, 0.0, 0.0, 0.0, 0.0, 0.0, 0.0, 0.0, 0.0, 0.0, 0.0, 0.0, 0.0, 0.0], [0.0, 0.0, 0.0, 0.0, 0.0, 0.0, 0.0, 0.0, 0.0, 0.0, 0.0, 0.0, 0.0, 0.0, 0.0, 0.0], [0.0, 0.0, 0.0, 0.0, 0.0, 0.0, 0.0, 0.0, 0.0, 0.0, 0.0, 0.0, 0.0, 0.0, 0.0, 0.0], [0.0, 0.0, 0.0, 0.0, 0.0, 0.0, 0.0, 0.0, 0.0, 0.0, 0.0, 0.0, 0.0, 0.0, 0.0, 0.0], [0.0, 0.0, 0.0, 0.0, 0.0, 0.0, 0.0, 0.0, 0.0, 0.0, 0.0, 0.0, 0.0, 0.0, 0.0, 0.0], [0.0, 0.0, 0.0, 0.0, 0.0, 0.0, 0.0, 0.0, 0.0, 0.0, 0.0, 0.0, 0.0, 0.0, 0.0, 0.0], [0.0, 0.0, 0.0, 0.0, 0.0, 0.0, 0.0, 0.0, 0.0, 0.0, 0.0, 0.0, 0.0, 0.0, 0.0, 0.0], [0.0, 0.0, 0.0, 0.0, 0.0, 0.0, 0.0, 0.0, 0.0, 0.0, 0.0, 0.0, 0.0, 0.0, 0.0, 0.0], [0.0, 0.0, 0.0, 0.0, 0.0, 0.0, 0.0, 0.0, 0.0, 0.0, 0.0, 0.0, 0.0, 0.0, 0.0, 0.0], [0.0, 0.0, 0.0, 0.0, 0.0, 0.0, 0.0, 0.0, 0.0, 0.0, 0.0, 0.0, 0.0, 0.0, 0.0, 0.0], [0.0, 0.0, 0.0, 0.0, 0.0, 0.0, 0.0, 0.0, 0.0, 0.0, 0.0, 0.0, 0.0, 0.0, 0.0, 0.0], [0.0, 0.0, 0.0, 0.0, 0.0, 0.0, 0.0, 0.0, 0.0, 0.0, 0.0, 0.0, 0.0, 0.0, 0.0, 0.0], [0.0, 0.0, 0.0, 0.0, 0.0, 0.0, 0.0, 0.0, 0.0, 0.0, 0.0, 0.0, 0.0, 0.0, 0.0, 0.0], [0.0, 0.0, 0.0, 0.0, 0.0, 0.0, 0.0, 0.0, 0.0, 0.0, 0.0, 0.0, 0.0, 0.0, 0.0, 0.0], [0.0, 0.0, 0.0, 0.0, 0.0, 0.0, 0.0, 0.0, 0.0, 0.0, 0.0, 0.0, 0.0, 0.0, 0.0, 0.0], [0.0, 0.0, 0.0, 0.0, 0.0, 0.0, 0.0, 0.0, 0.0, 0.0, 0.0, 0.0, 0.0, 0.0, 0.0, 0.0], [0.0, 0.0, 0.0, 0.0, 0.0, 0.0, 0.0, 0.0, 0.0, 0.0, 0.0, 0.0, 0.0, 0.0, 0.0, 0.0], [0.0, 0.0, 0.0, 0.0, 0.0, 0.0, 0.0, 0.0, 0.0, 0.0, 0.0, 0.0, 0.0, 0.0, 0.0, 0.0]], "vWeights": [[0.0, 0.0, 0.0, 0.0, 0.0, 0.0, 0.0, 0.0, 0.0, 0.0, 0.0, 0.0, 0.0, 0.0, 0.0, 0.0], [0.0, 0.0, 0.0, 0.0, 0.0, 0.0, 0.0, 0.0, 0.0, 0.0, 0.0, 0.0, 0.0, 0.0, 0.0, 0.0], [0.0, 0.0, 0.0, 0.0, 0.0, 0.0, 0.0, 0.0, 0.0, 0.0, 0.0, 0.0, 0.0, 0.0, 0.0, 0.0], [0.0, 0.0, 0.0, 0.0, 0.0, 0.0, 0.0, 0.0, 0.0, 0.0, 0.0, 0.0, 0.0, 0.0, 0.0, 0.0], [0.0, 0.0, 0.0, 0.0, 0.0, 0.0, 0.0, 0.0, 0.0, 0.0, 0.0, 0.0, 0.0, 0.0, 0.0, 0.0], [0.0, 0.0, 0.0, 0.0, 0.0, 0.0, 0.0, 0.0, 0.0, 0.0, 0.0, 0.0, 0.0, 0.0, 0.0, 0.0], [0.0, 0.0, 0.0, 0.0, 0.0, 0.0, 0.0, 0.0, 0.0, 0.0, 0.0, 0.0, 0.0, 0.0, 0.0, 0.0], [0.0, 0.0, 0.0, 0.0, 0.0, 0.0, 0.0, 0.0, 0.0, 0.0, 0.0, 0.0, 0.0, 0.0, 0.0, 0.0], [0.0, 0.0, 0.0, 0.0, 0.0, 0.0, 0.0, 0.0, 0.0, 0.0, 0.0, 0.0, 0.0, 0.0, 0.0, 0.0], [0.0, 0.0, 0.0, 0.0, 0.0, 0.0, 0.0, 0.0, 0.0, 0.0, 0.0, 0.0, 0.0, 0.0, 0.0, 0.0], [0.0, 0.0, 0.0, 0.0, 0.0, 0.0, 0.0, 0.0, 0.0, 0.0, 0.0, 0.0, 0.0, 0.0, 0.0, 0.0], [0.0, 0.0, 0.0, 0.0, 0.0, 0.0, 0.0, 0.0, 0.0, 0.0, 0.0, 0.0, 0.0, 0.0, 0.0, 0.0], [0.0, 0.0, 0.0, 0.0, 0.0, 0.0, 0.0, 0.0, 0.0, 0.0, 0.0, 0.0, 0.0, 0.0, 0.0, 0.0], [0.0, 0.0, 0.0, 0.0, 0.0, 0.0, 0.0, 0.0, 0.0, 0.0, 0.0, 0.0, 0.0, 0.0, 0.0, 0.0], [0.0, 0.0, 0.0, 0.0, 0.0, 0.0, 0.0, 0.0, 0.0, 0.0, 0.0, 0.0, 0.0, 0.0, 0.0, 0.0], [0.0, 0.0, 0.0, 0.0, 0.0, 0.0, 0.0, 0.0, 0.0, 0.0, 0.0, 0.0, 0.0, 0.0, 0.0, 0.0], [0.0, 0.0, 0.0, 0.0, 0.0, 0.0, 0.0, 0.0, 0.0, 0.0, 0.0, 0.0, 0.0, 0.0, 0.0, 0.0], [0.0, 0.0, 0.0, 0.0, 0.0, 0.0, 0.0, 0.0, 0.0, 0.0, 0.0, 0.0, 0.0, 0.0, 0.0, 0.0], [0.0, 0.0, 0.0, 0.0, 0.0, 0.0, 0.0, 0.0, 0.0, 0.0, 0.0, 0.0, 0.0, 0.0, 0.0, 0.0], [0.0, 0.0, 0.0, 0.0, 0.0, 0.0, 0.0, 0.0, 0.0, 0.0, 0.0, 0.0, 0.0, 0.0, 0.0, 0.0], [0.0, 0.0, 0.0, 0.0, 0.0, 0.0, 0.0, 0.0, 0.0, 0.0, 0.0, 0.0, 0.0, 0.0, 0.0, 0.0], [0.0, 0.0, 0.0, 0.0, 0.0, 0.0, 0.0, 0.0, 0.0, 0.0, 0.0, 0.0, 0.0, 0.0, 0.0, 0.0], [0.0, 0.0, 0.0, 0.0, 0.0, 0.0, 0.0, 0.0, 0.0, 0.0, 0.0, 0.0, 0.0, 0.0, 0.0, 0.0], [0.0, 0.0, 0.0, 0.0, 0.0, 0.0, 0.0, 0.0, 0.0, 0.0, 0.0, 0.0, 0.0, 0.0, 0.0, 0.0], [0.0, 0.0, 0.0, 0.0, 0.0, 0.0, 0.0, 0.0, 0.0, 0.0, 0.0, 0.0, 0.0, 0.0, 0.0, 0.0], [0.0, 0.0, 0.0, 0.0, 0.0, 0.0, 0.0, 0.0, 0.0, 0.0, 0.0, 0.0, 0.0, 0.0, 0.0, 0.0], [0.0, 0.0, 0.0, 0.0, 0.0, 0.0, 0.0, 0.0, 0.0, 0.0, 0.0, 0.0, 0.0, 0.0, 0.0, 0.0], [0.0, 0.0, 0.0, 0.0, 0.0, 0.0, 0.0, 0.0, 0.0, 0.0, 0.0, 0.0, 0.0, 0.0, 0.0, 0.0], [0.0, 0.0, 0.0, 0.0, 0.0, 0.0, 0.0, 0.0, 0.0, 0.0, 0.0, 0.0, 0.0, 0.0, 0.0, 0.0], [0.0, 0.0, 0.0, 0.0, 0.0, 0.0, 0.0, 0.0, 0.0, 0.0, 0.0, 0.0, 0.0, 0.0, 0.0, 0.0], [0.0, 0.0, 0.0, 0.0, 0.0, 0.0, 0.0, 0.0, 0.0, 0.0, 0.0, 0.0, 0.0, 0.0, 0.0, 0.0], [0.0, 0.0, 0.0, 0.0, 0.0, 0.0, 0.0, 0.0, 0.0, 0.0, 0.0, 0.0, 0.0, 0.0, 0.0, 0.0], [0.0, 0.0, 0.0, 0.0, 0.0, 0.0, 0.0, 0.0, 0.0, 0.0, 0.0, 0.0, 0.0, 0.0, 0.0, 0.0], [0.0, 0.0, 0.0, 0.0, 0.0, 0.0, 0.0, 0.0, 0.0, 0.0, 0.0, 0.0, 0.0, 0.0, 0.0, 0.0], [0.0, 0.0, 0.0, 0.0, 0.0, 0.0, 0.0, 0.0, 0.0, 0.0, 0.0, 0.0, 0.0, 0.0, 0.0, 0.0], [0.0, 0.0, 0.0, 0.0, 0.0, 0.0, 0.0, 0.0, 0.0, 0.0, 0.0, 0.0, 0.0, 0.0, 0.0, 0.0], [0.0, 0.0, 0.0, 0.0, 0.0, 0.0, 0.0, 0.0, 0.0, 0.0, 0.0, 0.0, 0.0, 0.0, 0.0, 0.0], [0.0, 0.0, 0.0, 0.0, 0.0, 0.0, 0.0, 0.0, 0.0, 0.0, 0.0, 0.0, 0.0, 0.0, 0.0, 0.0], [0.0, 0.0, 0.0, 0.0, 0.0, 0.0, 0.0, 0.0, 0.0, 0.0, 0.0, 0.0, 0.0, 0.0, 0.0, 0.0], [0.0, 0.0, 0.0, 0.0, 0.0, 0.0, 0.0, 0.0, 0.0, 0.0, 0.0, 0.0, 0.0, 0.0, 0.0, 0.0], [0.0, 0.0, 0.0, 0.0, 0.0, 0.0, 0.0, 0.0, 0.0, 0.0, 0.0, 0.0, 0.0, 0.0, 0.0, 0.0], [0.0, 0.0, 0.0, 0.0, 0.0, 0.0, 0.0, 0.0, 0.0, 0.0, 0.0, 0.0, 0.0, 0.0, 0.0, 0.0], [0.0, 0.0, 0.0, 0.0, 0.0, 0.0, 0.0, 0.0, 0.0, 0.0, 0.0, 0.0, 0.0, 0.0, 0.0, 0.0], [0.0, 0.0, 0.0, 0.0, 0.0, 0.0, 0.0, 0.0, 0.0, 0.0, 0.0, 0.0, 0.0, 0.0, 0.0, 0.0], [0.0, 0.0, 0.0, 0.0, 0.0, 0.0, 0.0, 0.0, 0.0, 0.0, 0.0, 0.0, 0.0, 0.0, 0.0, 0.0], [0.0, 0.0, 0.0, 0.0, 0.0, 0.0, 0.0, 0.0, 0.0, 0.0, 0.0, 0.0, 0.0, 0.0, 0.0, 0.0], [0.0, 0.0, 0.0, 0.0, 0.0, 0.0, 0.0, 0.0, 0.0, 0.0, 0.0, 0.0, 0.0, 0.0, 0.0, 0.0], [0.0, 0.0, 0.0, 0.0, 0.0, 0.0, 0.0, 0.0, 0.0, 0.0, 0.0, 0.0, 0.0, 0.0, 0.0, 0.0], [0.0, 0.0, 0.0, 0.0, 0.0, 0.0, 0.0, 0.0, 0.0, 0.0, 0.0, 0.0, 0.0, 0.0, 0.0, 0.0], [0.0, 0.0, 0.0, 0.0, 0.0, 0.0, 0.0, 0.0, 0.0, 0.0, 0.0, 0.0, 0.0, 0.0, 0.0, 0.0], [0.0, 0.0, 0.0, 0.0, 0.0, 0.0, 0.0, 0.0, 0.0, 0.0, 0.0, 0.0, 0.0, 0.0, 0.0, 0.0], [0.0, 0.0, 0.0, 0.0, 0.0, 0.0, 0.0, 0.0, 0.0, 0.0, 0.0, 0.0, 0.0, 0.0, 0.0, 0.0], [0.0, 0.0, 0.0, 0.0, 0.0, 0.0, 0.0, 0.0, 0.0, 0.0, 0.0, 0.0, 0.0, 0.0, 0.0, 0.0], [0.0, 0.0, 0.0, 0.0, 0.0, 0.0, 0.0, 0.0, 0.0, 0.0, 0.0, 0.0, 0.0, 0.0, 0.0, 0.0], [0.0, 0.0, 0.0, 0.0, 0.0, 0.0, 0.0, 0.0, 0.0, 0.0, 0.0, 0.0, 0.0, 0.0, 0.0, 0.0], [0.0, 0.0, 0.0, 0.0, 0.0, 0.0, 0.0, 0.0, 0.0, 0.0, 0.0, 0.0, 0.0, 0.0, 0.0, 0.0], [0.0, 0.0, 0.0, 0.0, 0.0, 0.0, 0.0, 0.0, 0.0, 0.0, 0.0, 0.0, 0.0, 0.0, 0.0, 0.0], [0.0, 0.0, 0.0, 0.0, 0.0, 0.0, 0.0, 0.0, 0.0, 0.0, 0.0, 0.0, 0.0, 0.0, 0.0, 0.0], [0.0, 0.0, 0.0, 0.0, 0.0, 0.0, 0.0, 0.0, 0.0, 0.0, 0.0, 0.0, 0.0, 0.0, 0.0, 0.0], [0.0, 0.0, 0.0, 0.0, 0.0, 0.0, 0.0, 0.0, 0.0, 0.0, 0.0, 0.0, 0.0, 0.0, 0.0, 0.0], [0.0, 0.0, 0.0, 0.0, 0.0, 0.0, 0.0, 0.0, 0.0, 0.0, 0.0, 0.0, 0.0, 0.0, 0.0, 0.0], [0.0, 0.0, 0.0, 0.0, 0.0, 0.0, 0.0, 0.0, 0.0, 0.0, 0.0, 0.0, 0.0, 0.0, 0.0, 0.0], [0.0, 0.0, 0.0, 0.0, 0.0, 0.0, 0.0, 0.0, 0.0, 0.0, 0.0, 0.0, 0.0, 0.0, 0.0, 0.0], [0.0, 0.0, 0.0, 0.0, 0.0, 0.0, 0.0, 0.0, 0.0, 0.0, 0.0, 0.0, 0.0, 0.0, 0.0, 0.0], [0.0, 0.0, 0.0, 0.0, 0.0, 0.0, 0.0, 0.0, 0.0, 0.0, 0.0, 0.0, 0.0, 0.0, 0.0, 0.0], [0.0, 0.0, 0.0, 0.0, 0.0, 0.0, 0.0, 0.0, 0.0, 0.0, 0.0, 0.0, 0.0, 0.0, 0.0, 0.0], [0.0, 0.0, 0.0, 0.0, 0.0, 0.0, 0.0, 0.0, 0.0, 0.0, 0.0, 0.0, 0.0, 0.0, 0.0, 0.0], [0.0, 0.0, 0.0, 0.0, 0.0, 0.0, 0.0, 0.0, 0.0, 0.0, 0.0, 0.0, 0.0, 0.0, 0.0, 0.0], [0.0, 0.0, 0.0, 0.0, 0.0, 0.0, 0.0, 0.0, 0.0, 0.0, 0.0, 0.0, 0.0, 0.0, 0.0, 0.0], [0.0, 0.0, 0.0, 0.0, 0.0, 0.0, 0.0, 0.0, 0.0, 0.0, 0.0, 0.0, 0.0, 0.0, 0.0, 0.0], [0.0, 0.0, 0.0, 0.0, 0.0, 0.0, 0.0, 0.0, 0.0, 0.0, 0.0, 0.0, 0.0, 0.0, 0.0, 0.0], [0.0, 0.0, 0.0, 0.0, 0.0, 0.0, 0.0, 0.0, 0.0, 0.0, 0.0, 0.0, 0.0, 0.0, 0.0, 0.0], [0.0, 0.0, 0.0, 0.0, 0.0, 0.0, 0.0, 0.0, 0.0, 0.0, 0.0, 0.0, 0.0, 0.0, 0.0, 0.0], [0.0, 0.0, 0.0, 0.0, 0.0, 0.0, 0.0, 0.0, 0.0, 0.0, 0.0, 0.0, 0.0, 0.0, 0.0, 0.0], [0.0, 0.0, 0.0, 0.0, 0.0, 0.0, 0.0, 0.0, 0.0, 0.0, 0.0, 0.0, 0.0, 0.0, 0.0, 0.0], [0.0, 0.0, 0.0, 0.0, 0.0, 0.0, 0.0, 0.0, 0.0, 0.0, 0.0, 0.0, 0.0, 0.0, 0.0, 0.0], [0.0, 0.0, 0.0, 0.0, 0.0, 0.0, 0.0, 0.0, 0.0, 0.0, 0.0, 0.0, 0.0, 0.0, 0.0, 0.0], [0.0, 0.0, 0.0, 0.0, 0.0, 0.0, 0.0, 0.0, 0.0, 0.0, 0.0, 0.0, 0.0, 0.0, 0.0, 0.0], [0.0, 0.0, 0.0, 0.0, 0.0, 0.0, 0.0, 0.0, 0.0, 0.0, 0.0, 0.0, 0.0, 0.0, 0.0, 0.0], [0.0, 0.0, 0.0, 0.0, 0.0, 0.0, 0.0, 0.0, 0.0, 0.0, 0.0, 0.0, 0.0, 0.0, 0.0, 0.0], [0.0, 0.0, 0.0, 0.0, 0.0, 0.0, 0.0, 0.0, 0.0, 0.0, 0.0, 0.0, 0.0, 0.0, 0.0, 0.0], [0.0, 0.0, 0.0, 0.0, 0.0, 0.0, 0.0, 0.0, 0.0, 0.0, 0.0, 0.0, 0.0, 0.0, 0.0, 0.0], [0.0, 0.0, 0.0, 0.0, 0.0, 0.0, 0.0, 0.0, 0.0, 0.0, 0.0, 0.0, 0.0, 0.0, 0.0, 0.0], [0.0, 0.0, 0.0, 0.0, 0.0, 0.0, 0.0, 0.0, 0.0, 0.0, 0.0, 0.0, 0.0, 0.0, 0.0, 0.0], [0.0, 0.0, 0.0, 0.0, 0.0, 0.0, 0.0, 0.0, 0.0, 0.0, 0.0, 0.0, 0.0, 0.0, 0.0, 0.0], [0.0, 0.0, 0.0, 0.0, 0.0, 0.0, 0.0, 0.0, 0.0, 0.0, 0.0, 0.0, 0.0, 0.0, 0.0, 0.0], [0.0, 0.0, 0.0, 0.0, 0.0, 0.0, 0.0, 0.0, 0.0, 0.0, 0.0, 0.0, 0.0, 0.0, 0.0, 0.0], [0.0, 0.0, 0.0, 0.0, 0.0, 0.0, 0.0, 0.0, 0.0, 0.0, 0.0, 0.0, 0.0, 0.0, 0.0, 0.0], [0.0, 0.0, 0.0, 0.0, 0.0, 0.0, 0.0, 0.0, 0.0, 0.0, 0.0, 0.0, 0.0, 0.0, 0.0, 0.0], [0.0, 0.0, 0.0, 0.0, 0.0, 0.0, 0.0, 0.0, 0.0, 0.0, 0.0, 0.0, 0.0, 0.0, 0.0, 0.0], [0.0, 0.0, 0.0, 0.0, 0.0, 0.0, 0.0, 0.0, 0.0, 0.0, 0.0, 0.0, 0.0, 0.0, 0.0, 0.0], [0.0, 0.0, 0.0, 0.0, 0.0, 0.0, 0.0, 0.0, 0.0, 0.0, 0.0, 0.0, 0.0, 0.0, 0.0, 0.0], [0.0, 0.0, 0.0, 0.0, 0.0, 0.0, 0.0, 0.0, 0.0, 0.0, 0.0, 0.0, 0.0, 0.0, 0.0, 0.0], [0.0, 0.0, 0.0, 0.0, 0.0, 0.0, 0.0, 0.0, 0.0, 0.0, 0.0, 0.0, 0.0, 0.0, 0.0, 0.0], [0.0, 0.0, 0.0, 0.0, 0.0, 0.0, 0.0, 0.0, 0.0, 0.0, 0.0, 0.0, 0.0, 0.0, 0.0, 0.0], [0.0, 0.0, 0.0, 0.0, 0.0, 0.0, 0.0, 0.0, 0.0, 0.0, 0.0, 0.0, 0.0, 0.0, 0.0, 0.0], [0.0, 0.0, 0.0, 0.0, 0.0, 0.0, 0.0, 0.0, 0.0, 0.0, 0.0, 0.0, 0.0, 0.0, 0.0, 0.0], [0.0, 0.0, 0.0, 0.0, 0.0, 0.0, 0.0, 0.0, 0.0, 0.0, 0.0, 0.0, 0.0, 0.0, 0.0, 0.0], [0.0, 0.0, 0.0, 0.0, 0.0, 0.0, 0.0, 0.0, 0.0, 0.0, 0.0, 0.0, 0.0, 0.0, 0.0, 0.0], [0.0, 0.0, 0.0, 0.0, 0.0, 0.0, 0.0, 0.0, 0.0, 0.0, 0.0, 0.0, 0.0, 0.0, 0.0, 0.0], [0.0, 0.0, 0.0, 0.0, 0.0, 0.0, 0.0, 0.0, 0.0, 0.0, 0.0, 0.0, 0.0, 0.0, 0.0, 0.0], [0.0, 0.0, 0.0, 0.0, 0.0, 0.0, 0.0, 0.0, 0.0, 0.0, 0.0, 0.0, 0.0, 0.0, 0.0, 0.0], [0.0, 0.0, 0.0, 0.0, 0.0, 0.0, 0.0, 0.0, 0.0, 0.0, 0.0, 0.0, 0.0, 0.0, 0.0, 0.0], [0.0, 0.0, 0.0, 0.0, 0.0, 0.0, 0.0, 0.0, 0.0, 0.0, 0.0, 0.0, 0.0, 0.0, 0.0, 0.0], [0.0, 0.0, 0.0, 0.0, 0.0, 0.0, 0.0, 0.0, 0.0, 0.0, 0.0, 0.0, 0.0, 0.0, 0.0, 0.0], [0.0, 0.0, 0.0, 0.0, 0.0, 0.0, 0.0, 0.0, 0.0, 0.0, 0.0, 0.0, 0.0, 0.0, 0.0, 0.0], [0.0, 0.0, 0.0, 0.0, 0.0, 0.0, 0.0, 0.0, 0.0, 0.0, 0.0, 0.0, 0.0, 0.0, 0.0, 0.0], [0.0, 0.0, 0.0, 0.0, 0.0, 0.0, 0.0, 0.0, 0.0, 0.0, 0.0, 0.0, 0.0, 0.0, 0.0, 0.0], [0.0, 0.0, 0.0, 0.0, 0.0, 0.0, 0.0, 0.0, 0.0, 0.0, 0.0, 0.0, 0.0, 0.0, 0.0, 0.0], [0.0, 0.0, 0.0, 0.0, 0.0, 0.0, 0.0, 0.0, 0.0, 0.0, 0.0, 0.0, 0.0, 0.0, 0.0, 0.0], [0.0, 0.0, 0.0, 0.0, 0.0, 0.0, 0.0, 0.0, 0.0, 0.0, 0.0, 0.0, 0.0, 0.0, 0.0, 0.0], [0.0, 0.0, 0.0, 0.0, 0.0, 0.0, 0.0, 0.0, 0.0, 0.0, 0.0, 0.0, 0.0, 0.0, 0.0, 0.0], [0.0, 0.0, 0.0, 0.0, 0.0, 0.0, 0.0, 0.0, 0.0, 0.0, 0.0, 0.0, 0.0, 0.0, 0.0, 0.0], [0.0, 0.0, 0.0, 0.0, 0.0, 0.0, 0.0, 0.0, 0.0, 0.0, 0.0, 0.0, 0.0, 0.0, 0.0, 0.0], [0.0, 0.0, 0.0, 0.0, 0.0, 0.0, 0.0, 0.0, 0.0, 0.0, 0.0, 0.0, 0.0, 0.0, 0.0, 0.0], [0.0, 0.0, 0.0, 0.0, 0.0, 0.0, 0.0, 0.0, 0.0, 0.0, 0.0, 0.0, 0.0, 0.0, 0.0, 0.0], [0.0, 0.0, 0.0, 0.0, 0.0, 0.0, 0.0, 0.0, 0.0, 0.0, 0.0, 0.0, 0.0, 0.0, 0.0, 0.0], [0.0, 0.0, 0.0, 0.0, 0.0, 0.0, 0.0, 0.0, 0.0, 0.0, 0.0, 0.0, 0.0, 0.0, 0.0, 0.0], [0.0, 0.0, 0.0, 0.0, 0.0, 0.0, 0.0, 0.0, 0.0, 0.0, 0.0, 0.0, 0.0, 0.0, 0.0, 0.0], [0.0, 0.0, 0.0, 0.0, 0.0, 0.0, 0.0, 0.0, 0.0, 0.0, 0.0, 0.0, 0.0, 0.0, 0.0, 0.0], [0.0, 0.0, 0.0, 0.0, 0.0, 0.0, 0.0, 0.0, 0.0, 0.0, 0.0, 0.0, 0.0, 0.0, 0.0, 0.0], [0.0, 0.0, 0.0, 0.0, 0.0, 0.0, 0.0, 0.0, 0.0, 0.0, 0.0, 0.0, 0.0, 0.0, 0.0, 0.0]], "mBiases": [[0.0, 0.0, 0.0, 0.0, 0.0, 0.0, 0.0, 0.0, 0.0, 0.0, 0.0, 0.0, 0.0, 0.0, 0.0, 0.0]], "vBiases": [[0.0, 0.0, 0.0, 0.0, 0.0, 0.0, 0.0, 0.0, 0.0, 0.0, 0.0, 0.0, 0.0, 0.0, 0.0, 0.0]], "beta1": 0.9, "beta2": 0.999, "epsilon": 1e-08}, {"inputSize": 16, "outputSize": 4, "activation": "softmax", "weights": [[-0.0869362721506016, 0.10680062728442913, -0.18999251404387799, 0.10750165981386657], [0.13267063518011027, -0.6042214875628011, 0.41988738577778933, -0.21134566184095357], [0.18076308366536376, 0.035669745063622596, 0.33904399745213637, -0.20672710601367975], [-0.5738828378716799, -0.007830452273293063, 0.30409104895978634, -0.858318173366444], [-0.3304697204986831, -0.13542416340005134, 0.10739631216697768, 0.4202364126732869], [-0.2992978706288832, 0.5789727808868951, -0.32824270212374435, 0.15512045364215257], [-0.47027209884838456, -1.0287292410357283, -0.5647505602990106, -0.7056466588508594], [-0.5972241848989628, 0.030698812238024016, 0.08255307756145945, 0.8232056216361632], [-0.14106110692032242, -0.0714579592688174, -0.4109670755284726, -0.27158851613546264], [0.41572875721863295, -0.27012554372939157, 0.01427556687219112, 0.16714836818840184], [0.14756175096825577, -0.2303914179737166, 0.27613838591038664, -0.12309032873052878], [0.2780296607567019, -0.3217705940174517, 0.2982283657949459, -0.3146154426686712], [-0.5814863252882139, -0.6670023449805934, -0.7511593795117237, -0.5822596112847723], [-0.5493631350563134, -0.3745152713891926, -0.8127510395435339, -0.14626476608564715], [-0.5665060311106965, 0.36587800909276086, -0.08001493470764008, 0.47546393631843004], [0.7391454293452727, 0.16789842096308263, -0.13356610334678357, 0.060176841724608444]], "bias": [[-0.11116629918595963, -0.10474042016572627, -0.1639471929158336, -0.22382258708186864]], "mWeights": [[0.0, 0.0, 0.0, 0.0], [0.0, 0.0, 0.0, 0.0], [0.0, 0.0, 0.0, 0.0], [0.0, 0.0, 0.0, 0.0], [0.0, 0.0, 0.0, 0.0], [0.0, 0.0, 0.0, 0.0], [0.0, 0.0, 0.0, 0.0], [0.0, 0.0, 0.0, 0.0], [0.0, 0.0, 0.0, 0.0], [0.0, 0.0, 0.0, 0.0], [0.0, 0.0, 0.0, 0.0], [0.0, 0.0, 0.0, 0.0], [0.0, 0.0, 0.0, 0.0], [0.0, 0.0, 0.0, 0.0], [0.0, 0.0, 0.0, 0.0], [0.0, 0.0, 0.0, 0.0]], "vWeights": [[0.0, 0.0, 0.0, 0.0], [0.0, 0.0, 0.0, 0.0], [0.0, 0.0, 0.0, 0.0], [0.0, 0.0, 0.0, 0.0], [0.0, 0.0, 0.0, 0.0], [0.0, 0.0, 0.0, 0.0], [0.0, 0.0, 0.0, 0.0], [0.0, 0.0, 0.0, 0.0], [0.0, 0.0, 0.0, 0.0], [0.0, 0.0, 0.0, 0.0], [0.0, 0.0, 0.0, 0.0], [0.0, 0.0, 0.0, 0.0], [0.0, 0.0, 0.0, 0.0], [0.0, 0.0, 0.0, 0.0], [0.0, 0.0, 0.0, 0.0], [0.0, 0.0, 0.0, 0.0]], "mBiases": [[0.0, 0.0, 0.0, 0.0]], "vBiases": [[0.0, 0.0, 0.0, 0.0]], "beta1": 0.9, "beta2": 0.999, "epsilon": 1e-08}], "name": "snake", "accuracy": 0}