{"layers": [{"inputSize": 122, "outputSize": 16, "activation": "relu", "weights": [[0.1586050442808304, -0.19829398028828327, -0.04210097397557852, -0.3102489423546322, -0.23172694853996664, -0.1459202443293781, -0.13853111464137843, 0.09015156572118675, -0.019032420242646154, 0.23004899096666498, -0.140147919289157, -0.01459839600182331, -0.10007665741412713, -0.21993540318243296, 0.19137370335289708, -0.08254124841996198], [0.04203258543582189, -0.12454201156173343, 0.38698172181936097, 0.16765566711534835, 0.11259472003347826, 0.34967619002940725, -0.15587526430104756, -0.051431224265943355, 0.03428011570713827, 0.1707673843148331, -0.02841629934236438, -0.22425728375040893, 0.10502535703484037, -0.0012342506944360402, -0.04665687983553642, 0.10847809326251143], [0.01870993710263659, 0.030237170483306864, 0.08789483164628156, -0.07603434600281868, -0.20271230992260525, -0.0532455323595412, -0.17115273229874822, 0.027027524904922523, -0.1543391034890521, -0.03389836314662492, 0.046414584549141845, 0.11484205158081158, -0.04844825773092123, 0.029200450245003184, 0.05313026086887876, 0.05571734953844797], [-0.017442856665785742, 0.04041111815120425, 0.04963607275336636, 0.07832394295889167, 0.015234138634036856, 0.1224880134349134, -0.16610148863762386, -0.08557224656936988, 0.1899807305853167, -0.1142456320882723, 0.030408200279954032, -0.2815902449562864, 0.11446394307238363, -0.10127693123870347, 0.0926770474173524, -0.28720655691172803], [-0.10884701986297977, 0.012815976030099506, -0.05427953692126121, 0.02125000553996194, -0.1258642256360183, 0.245654064132495, -0.03013060034029968, 0.21864282409490293, 0.012195479573481063, -0.0281954937143251, -0.06639338808756476, -0.125109206052085, -0.16895654570549834, -0.13631732312581735, -0.0705763048175037, 0.06618513483935275], [-0.0030345471797969983, 0.15292619393711915, -0.15332572698650518, 0.10076747865930426, 0.053631129981269066, -0.09189616473286698, 0.030181006607494256, -0.17192651454959743, -0.17626094615949744, 0.08503897848623242, 0.012441012220511173, -0.10314643969089766, 0.03438505545060173, 0.11416320686641265, -0.00015780081317789895, 0.061002294211433404], [0.06728290091157545, -0.03639893403295514, 0.20901054123664367, 0.13666786647195064, 0.007754815875420945, 0.06256687810827613, -0.046482844374588994, 0.03286599717032106, -0.03034459100199758, 0.1361691087508033, -0.15329298811385753, 0.021028097759790892, 0.23848923447950685, -0.19663883973305077, -0.14857812722341282, -0.056485280202782824], [0.20263060668008748, -0.0633822439169969, 0.10092168347442193, 0.008870122141967512, 0.0748681329107144, -0.06663727220328525, 0.070029681124851, 0.0466101783026987, 0.07171289738345264, 0.033112119446751104, -0.04403479079980132, 0.13868900940137177, -0.07566847325953531, 0.004377250344611251, -0.1697556805360017, 0.003460936216992815], [0.2580366532129225, 0.13063217612024539, 0.23466450182910722, 0.1022133142192315, -0.01792531013421712, 0.12605142839748104, 0.17928297564512047, 0.23205980740929935, -0.07953676966821166, 0.2315547680511752, -0.04178541315720249, 0.15584781152007998, -0.10758578482932524, 0.22980328786247128, 0.021949899219638736, 0.2083275540751705], [0.19266418947072295, -0.019481905892209668, -0.258741379405214, 0.03505938924731489, -0.22268002753377708, 0.006190384246320834, 0.11889800450044184, 0.313837892481823, -0.023670455655357536, -0.04785450504471511, 0.06669599236672036, -0.050240606960737025, 0.07899450318063814, -0.17650945868114754, 0.15173741305103836, 0.19915919779898666], [0.1279610840774327, 0.06489642074881476, 0.09050963603506908, -0.15907621597634297, -0.2360764517248193, -0.032400441381183635, 0.017082102050275473, -0.012835380507514453, -0.09362506253091138, 0.09822047506509123, 0.08726922494073969, -0.19834859259570883, -0.09690508005007442, 0.03146630767686696, -0.12913811480377227, 0.34422673868300946], [0.10940786750606069, -0.004944983311548194, -0.030310780349164443, 0.06967494822347882, 0.2331831047881866, -0.04450684852184243, -0.07937519248218458, -0.042309013059057994, 0.15925713132963837, 0.03536091758152287, -0.03144925676876178, -0.05999018408661092, 0.11026026644369856, -0.08938306503664833, 0.11593965801247438, -0.11671809831734078], [0.19079742854968532, 0.14805468708905484, 0.1765448122161131, 0.09647428673629829, 0.1035963187695048, -0.1045638968282388, 0.04580958420536232, 0.18408194000317638, 0.09608435872690999, -0.053961313976679054, -0.030814341272253278, 0.032342492637833065, -0.08881147917882184, 0.15697113456693543, -0.005356426130649819, -0.1272304751195475], [-0.03598190404708694, -0.30268225947790445, -0.06005147109063258, 0.04925939279727174, 0.08282020482972619, 0.08918612238199017, 0.14903948677191625, 0.31172641405381024, 0.11184835064054675, 0.0433492034634069, 0.11875676948027998, 0.076475877489355, -0.007792826191312825, -0.1867680158735477, 0.1278337064478639, 0.12561876622004736], [0.05223735266318623, -0.12683656672589733, 0.02100994614974122, -0.15323063891457078, 0.18788983252302946, -0.02277304269116335, -0.13735496883473416, 0.07542088125455763, 0.14966051512520467, 0.1341703265638667, -0.20447880702952173, -0.061849801022328614, -0.009116759198011087, -0.06036880069317111, 0.18441864256445287, 0.21324324031345546], [-0.1001616653332977, -0.10459915730947104, 0.11010816885985261, -0.030495705415114146, -0.12833253346603485, -0.034607705226766816, -0.16974638040466067, 0.10773917974010093, 0.14047148591578879, 0.11254179857995528, 0.15643345213244644, -0.028387601442923814, -0.04090969185372994, -0.1929810025012216, -0.058714747424243416, -0.0011097149136002934], [0.07564939925899887, 0.07789298074174691, 0.11097170483884872, -0.05723630077697692, 0.030050528612348873, -0.2567949119467484, 0.036763430642788565, -0.3169455390508778, 0.09100865144718256, 0.04687399955507061, -0.22700305583589234, 0.04833586424679881, 0.11136536935359737, -0.11475770728374192, -0.09309427079270967, -0.046043361024407606], [0.04382687268243644, -0.04111711384992508, -0.057079424688157944, -0.11197734810477629, -0.09036203644791609, 0.043712587359128315, 0.2101759852759565, -0.015049740386644719, -0.15783858869732642, -0.05672011691504597, 0.08593972787417568, -0.06036298980503021, 0.0318367856638844, -0.10278037667812902, -0.10583598932092905, -0.09847522248269969], [-0.08547545755770962, -0.36627542633121074, -0.22611590530868697, 0.04013671553416364, 0.14109031044941125, -0.0862788382723225, 0.24389131879688064, -0.02204252056047892, -0.06993939254758529, -0.06199663588741959, -0.42600374667452356, -0.1362967145115422, 0.10349681401368178, 0.03378159035375721, -0.08748825731536256, -0.090825705097192], [0.08807240465117584, -0.1735511524036907, 0.10486280369969665, 0.2152980852428824, -0.1604361466625696, 0.03597561987185212, -0.08273269260733718, 0.3055359950629926, -0.011940001913188808, -0.05681474123270578, 0.15074808201638348, -0.038814755438988435, 0.14681133776767302, -0.004360541312687302, 0.18923739531559103, -0.14528051322315214], [0.05890792351400565, -0.12747463617956986, 0.22002012141402377, 0.10163671366016477, 0.17988965851043348, 0.0353962124972059, -0.011483699016129079, 0.014779484977271596, -0.005222980754373927, 0.016854470632308556, -0.3469411573154368, 0.07398623574923076, -0.025035168315012405, 0.14185121848557902, -0.04368578582828492, -0.21580940082843808], [0.01876268504721013, 0.12141781776472436, -0.008038774873760703, 0.13845236719359416, -0.15090338328364178, -0.23586026353730777, 0.09318330367864781, -0.17457481896674887, -0.2213433872776619, 0.022892096609446858, 0.1898737431184372, -0.13635206574935088, -0.028656573740222853, 0.023587875823959947, -0.06837110845414923, 0.2760076788095582], [0.13735679231576153, 0.14302066346213127, 0.029381706182790943, -0.0824003667576547, -0.006541032284368602, 0.04041101848707801, -0.09791561794502171, 0.12898546624003124, 0.24887496306240126, -0.0478146369175384, 0.05125692395708475, -0.20281593448512, -0.039380510486700236, 0.18467748514132437, -0.1294192731423962, 0.049867566213451744], [-0.08801437303919574, 0.1572072953963279, 0.018811715562502985, -0.042667248529866496, -0.08701185049501069, -0.037550190466287124, -0.1435725625465878, -0.017340934218817067, -0.12868751500189518, 0.09487975657616542, 0.040998511814836075, 0.07649416918301198, 0.04146353112587226, -0.07271804089580275, -0.1334619226307019, 0.15069648490859927], [-0.094901810696089, -0.2632907385047748, 0.04723163358295219, 0.22587043789800743, -0.06647012828005887, 0.00016973562123070865, -0.01758885027549496, -0.10315490207913085, -0.014604255996372502, -0.13468609638050288, 0.08352028019092146, -0.122674370736818, 0.12864981325836108, -0.1011131266466935, -0.004118245536037761, -0.011026239610465033], [0.036404811282955835, -0.11826974991389726, 0.02683832938998911, 0.24660946493736324, -0.09519850072372277, 0.06804901499238296, -0.06261902877577488, -0.06648178435826857, -0.09903969876356866, 0.0018357986533025913, 0.14872627158794988, -0.06013937446276242, -0.07049141593236226, 0.160052404395843, 0.0832553919777917, 0.017879412235187787], [-0.14696570035565293, 0.08176098896262628, 0.18850420734633935, 0.0876606708552283, 0.004058026821111878, -0.2378949183659277, -0.4183653382063976, -0.29609762736010714, 0.09551924984797595, -0.10138823788087398, 0.19478429448639045, -0.0720215347132574, -0.005691052487625148, 0.04712877741378395, 0.008865852314383926, 0.12295075993257693], [-0.17302251258373902, 0.08591599941765844, 0.1364444463120356, 0.05303210126480612, 0.11847409389166451, -0.03545855820119428, -0.09989714675589566, 0.002413510617627416, -0.011863687372163626, -0.06749148100208195, -0.012069080192659152, -0.09454426295863448, -0.12359532758009165, 0.1188159073166973, -0.04093926129139122, 0.0642320390439072], [-0.022044890398726643, -0.17156401881382546, 0.1370033531455371, 0.22784132476941585, 0.007740777613255093, 0.18374559154406742, -0.1360377480395957, -0.029489278764685545, -0.13357587397743875, 0.05567309070462904, 0.22053488160704288, 0.17856326095918978, 0.0380863280591164, 0.02110101078761165, -0.17627045531084615, -0.12622810957029634], [-0.18230963670729036, 0.054419613527085985, 0.07273247950470346, -0.21417486295140004, 0.24754127003452703, -0.10054444998015238, -0.06539233580296452, -0.22306229185109624, 0.07563373867208043, 0.042419065043307835, -0.08634837719371753, -0.3402299823516489, -0.028298100797498275, -0.16315078742674938, 0.02515937410869874, -0.06307822334878568], [0.013051177518884679, 0.021010453627960175, 0.021185761909938823, 0.18490638967053297, 0.09078204704724659, 0.05596158680081661, -0.06588414958694497, -0.09704116539274406, 0.005222038754463483, 0.009138442684019303, 0.04812154131875795, 0.06297028967531361, 0.09103272668304384, 0.022016433930809126, -0.28927495193014735, -0.10046896269855034], [-0.03661430462820109, 0.011219614951078732, 0.05586976236558007, 0.14891343691431494, -0.1606191242436528, -0.14280853187428036, 0.21068743756191297, -0.0924144629985146, -0.14665667617380918, -0.1412569554720979, 0.2251674602371231, 0.11362667522914686, 0.04286818383434749, 0.06803639909899058, -0.12037911489857633, -0.04563412536136012], [-0.01810319677315474, 0.22257813608247337, -0.12815818674477542, -0.009357186522304783, 0.07331746825508731, -0.02149992162894671, 0.020674620725367042, -0.009030386670931782, -0.1304457631431968, -0.0012723703412588039, 0.14371357890718062, 0.11966072776599676, -0.24817028141688252, 0.08200015737021846, -0.15078199153077979, 0.1297981954081028], [-0.042348707267367884, 0.11501775468770727, -0.03338188372501815, 0.056547491512864374, -0.012868538251011322, -0.19222542955984262, -0.15119683900885375, 0.12151300874249989, 0.22929738763245586, -0.1497714312304516, 0.0300872025109066, -0.05368855625084021, -0.12352361266885893, 0.15045002670911573, 0.29072052480663796, 0.06930828179924332], [0.12778507888849452, 0.26318692438466473, 0.02311436852366256, -0.012692360687818791, 0.05045606742994471, -0.08551857727678548, 0.17113672490850695, 0.09383737958519117, -0.1331207922083542, 0.11090142477237663, 0.07326250065019117, -0.07078461691465927, 0.1267687442339625, -0.0677800366352681, -0.0009805771670798845, -0.008119349402053016], [-0.03317326697773211, 0.15175247419806992, 0.03186320536006938, 0.005483817765920614, 0.004484847671610494, -0.10717542277715526, 0.025610562468713693, -0.08100205976402994, 0.19064086515209025, -0.10302426124906588, -0.2040460452444248, -0.06945095639767548, -0.09192946599109089, 0.19165416686502412, 0.14871350693278643, -0.02660948561176649], [0.042562722120036534, 0.07204425623817015, -0.016463154944903156, -0.02363945027473701, -0.08133697133717706, 0.08088712283473681, 0.02448792812603614, -0.08061788536216485, -0.37588479460949836, -0.15964429588693715, 0.32862383816663937, -0.1753920601313639, 0.009993638766423424, 0.06893401225995166, -0.09946191804493885, -0.16920227551751454], [0.2878993255225291, 0.1423289608348086, 0.027390361991799783, 0.04550825018361571, 0.06805683831769416, 0.2333114351883439, -0.3648277270585603, -0.1367980678767034, -0.08056446239135608, 0.06471172648763995, -0.10453414079089249, 0.23604958004530271, -0.07112187006628898, -0.1310966695496869, -0.00519608001213101, -0.17329393202005575], [0.08766571505217116, -0.06431070510208013, -0.10776880972037131, -0.1386300048229211, 0.08449388476349963, -0.026902808130394328, -0.011903083243915912, -0.0583543820444487, -0.12982723581167044, -0.20395376435898538, -0.2335432975853365, -0.2976516708702738, 0.1506146019225996, 0.0749042847610609, -0.10939128192040883, -0.002137159941855019], [-0.03635296188903179, -0.21725069598211086, -0.0033095648453280078, -0.06408412396521122, -0.02207014859696024, -0.10555435832092408, 0.12354668748987148, 0.22304477309806284, -0.05463290353487188, -0.09576598990758083, -0.11129742325679577, -0.17726146687509609, -0.0481634420518423, 0.06202885525556301, -0.010602453835792834, -0.25966643546234747], [0.032095084939365, 0.18330013281610616, -0.08600656934266325, 0.019639881137264947, 0.1169936615113488, 0.13967079757716833, 0.022978831204966715, 0.09628688602814042, 0.06980018357963234, -0.07528243788985212, 0.06542229519511347, -0.03115475564261381, 0.03648343874290897, -0.08010021207429352, -0.08239793327837018, 0.0324681636309895], [-0.05424841146842193, -0.22879525957446034, -0.08547585723786623, -0.31918635492624375, 0.07702062535608119, -0.12243287484164803, -0.04392346334694696, 0.08254561606901047, 0.18137556159793736, 0.07083078784104298, -0.05556403921064747, -0.10306412010795762, -0.28047610613043406, 0.1043004979168622, 0.18092568984771784, -0.08979072830607854], [0.11427969219302588, -0.0707988685556141, -0.032236924109044364, 0.0056798494462309244, -0.1150156980994898, 0.01791290911752097, -0.02428392023431424, 0.029249115155619163, 0.1087001907661802, 0.03463496366990927, 0.07428955874087059, -0.1930664609025601, 0.04392889458328901, 0.3853309338395297, -0.22976190020027534, 0.093629822757201], [-0.09717216054061283, 0.14764158434432134, -0.008194105959534362, -0.12780536967073175, 0.0418967111042304, 0.14152673184739903, -0.11780954779685816, 0.08336008304618865, 0.14393363992904626, 0.03352893049352224, -0.07170240608345609, -0.004111969812042589, -0.11089128990129554, -0.14063896700913167, 0.31588560248343533, -0.034304090742311055], [-0.06201004522099704, -0.16442999912271777, -0.06612136813073435, -0.2347756582049555, 0.023051527011443796, 0.23443880567502534, -0.2250906957504498, 0.24840715112405487, 0.01420388808878455, 0.021018871970520495, -0.16883743353940772, -0.07918532785021902, 0.014246874147214178, 0.18125204988303323, -0.007995798072947782, 0.20045935108201374], [0.019222463402157247, -0.29795176774438237, 0.1511321713312901, -0.011050992266703186, 0.01820780100183732, -0.08886001620276675, 0.01608928533606521, 0.0810745525680573, 0.12122212448571056, -0.029757472557892062, -0.03676998487697781, 0.1361122779064866, 0.11065597061943168, 0.049253136476564506, 0.11345095080575954, 0.032169351834365006], [0.012715666546795424, -0.07236657622488178, 0.002327547094790567, 0.11392543520898413, -0.020740142393325122, -0.06946835072569224, -0.08529689698235647, 0.23572086119915706, 0.14369115420428513, -0.10234204648784748, 0.05564524415940508, 0.052666133100704615, 0.08343400829636526, -0.07386117939366316, 0.011511237462667924, -0.0077756231351252805], [0.30845967519788736, 0.06619682506412028, 0.012703610896203964, -0.06041793416900122, -0.2595594452718554, 0.04517225537144593, 0.20166422064026382, 0.006197092194952962, -0.04730425315621359, -0.08226851215489683, -0.025281652068619723, 0.08431010773940277, 0.047889557532804085, -0.02077348317959302, -0.08606279168302011, 0.07593765349590338], [-0.15863817942093592, 0.10471102492170822, -0.026580899860249287, 0.06732200312653298, -0.09833953885923513, -0.11680662441775813, 0.06105815476037074, 0.05814827766140462, 0.0664533810051395, 0.20803489023235053, 0.03212051787697528, -0.03893528377122313, -0.21184086412736694, 0.046381434327223275, -0.1553264843279252, -0.07075446918659489], [-0.005268304202862719, 0.030143696766170826, 0.28225796913921924, -0.03452761911368272, 0.3568153544180538, -0.18864823805872522, -0.02781363498495664, -0.0431635400278202, -0.15754414982829562, 0.002446297430825367, 0.027481572520271346, 0.20915518900599897, -0.1691909384395645, 0.11729365677700967, 0.024831247921282544, -0.04229264209362431], [-0.038464634954347286, -0.058427359442846244, 0.12451021036387128, -0.053185965959648175, 0.15128318284312, -0.02536822433729304, -0.03637360856178668, 0.16257918929009887, -0.014008547849320641, 0.04554285901823227, -0.08807131738316304, 0.1620647346567349, 0.042576440100932256, 0.044802636343709915, -0.03943786853568913, 0.19006297147758472], [0.08413041918240598, -0.016066708854757354, 0.2505925388483699, -0.02518077717506346, -0.07889987346520716, -0.082824428477286, 0.17577344044920576, 0.1292452132638925, 0.06428081006493695, -0.07660040881367144, -0.1496227821136056, 0.13122335524919782, -0.036464823978508414, -0.07713650879003038, 0.03213835180329168, 0.202425838836863], [0.05998786048379978, -0.09546026916951586, 0.13389592467274658, 0.08687406672894678, -0.05055701417144265, -0.08876387403252328, -0.002081866345042414, -0.18076608781580913, -0.09703980327536697, -0.0867239357628725, 0.1938378380120371, 0.03725748731429931, -0.25435545814831917, -0.16879230292593836, 0.08789491172571429, -0.11321850331581107], [0.061336142704217854, -0.11327956657526762, 0.13138316215775897, -0.04363869225331644, 0.25782772796547393, 0.13627875895510289, -0.18527803251066957, -0.25552489068198897, -0.09819192218595955, 0.224251689841061, -0.401421056826086, -0.07005145572244222, -0.04663103588070176, 0.12463433524672636, 0.01088830583289695, -0.08629515849640229], [0.028828008830387025, -0.011734053441581871, -0.15810610019548818, -0.11718741859157404, -0.17680564879818736, -0.1243877722205959, 0.11057563878638299, -0.2640297804123769, -0.057921209365330205, 0.02488195611192778, 0.08922442231336972, 0.022355825608076516, 0.21375679720006913, -0.03562455039660475, -0.14893126827783704, -0.055421058294033855], [-0.006296854780872905, 0.009067803476033611, 0.10973253720325905, -0.13682636392438616, -0.10523078162588886, 0.003972903938810976, -0.1556613033316947, 0.12633293437804427, 0.0487669374538758, -0.017929680893022198, 0.08570072662862484, -0.13108305785936594, -0.010239716738189722, 0.13890994983957647, -0.014028325496691916, -0.04137694191143535], [-0.1126278384534012, 0.043905028736936955, -0.03862782413736608, -0.03767638955467893, -0.03316888882726252, -0.023851965146342705, 0.12188055318932482, 0.030583501831918013, -0.0014462344980727027, 0.016546798010441458, -0.0968303229375639, 0.3036405944688369, -0.14422845442159182, 0.26954519674240013, -0.11569135910177393, -0.0031227598261834677], [-0.11540832523228697, -0.13758179632005343, 0.10683937168790736, 0.10849364410538856, -0.03453795060486909, -0.13269273263718606, -0.06300477043049818, 0.060751470993982794, -0.03251242960998148, -0.25866912263452796, 0.1500237895954902, 0.0781594952819221, -0.06637973138144271, 0.16143744166671042, 0.13297313322792076, -0.1363185057268904], [0.304614435150718, 0.058729953841543676, 0.08015796423625128, 0.013247684569689054, -0.0065831962282200856, 0.048381475299788826, -0.29802307177621107, -0.196246874331312, 0.09420247799459844, -0.14267576273291124, 0.006975893894546898, -0.03364473370716839, -0.1492091264753968, 0.09583907484137094, 0.17847975439300748, 0.12955487122454631], [-0.02764849834263243, -0.20229619830216303, 0.03587843973555103, 0.09440833253441741, 0.038557207681925894, -0.13062548312545771, 0.27160236420531403, -0.07913471647954307, -0.14307875354963714, -0.1023774049593917, 0.1100674831448885, 0.010824256973143192, 0.0002359432744576897, -0.0857933472745594, 0.19154935944681953, -0.3840667848955068], [-0.07664945708900442, 0.3316915493413727, 0.04630791890720433, 0.006826131862087028, -0.18082882204279396, -0.2511882833022138, 0.0386417470784449, -0.09630028283488241, -0.06282401706896631, 0.17619789495955773, 0.13095328389720232, 0.030155384657475873, 0.3367555046040556, 0.12719677837189558, -0.21658351351855962, -0.050590851996613104], [-0.11291882455539107, 0.2905694464344424, 0.08309056251628721, -0.1265188673881538, 0.16141097510544522, 0.006796364953791221, -0.04356853279614868, -0.2701346755511291, -0.06516731427337076, -0.13406260900656247, 0.10226449566911991, -0.1861826265368076, -0.01887939232839522, -0.04900109443158704, 0.17540423698032492, 0.2229090812614142], [-0.04211724925895367, -0.12530320371592638, -0.10114430788247092, 0.21446056096290117, 0.035231435672529114, -0.07576878409429781, 0.018929843889334826, -0.12633783186335412, 0.14271232036704684, 0.16059458538269888, -0.09643474788507057, -0.016351598811333506, -0.06602043063201218, -0.04002101373688151, -0.13370776726621664, -0.01755769599467958], [0.010290838958577195, 0.1900431500543337, 0.001474369056233123, 0.09559278335731505, -0.14262879430235573, -0.18717413162921506, -0.09433752221225511, -0.11734839266082199, -0.21490132699233241, 0.13016557205084187, 0.11045347483912232, -0.04455660080191567, -0.21690686614410692, -0.0763409526980407, -0.060718580327513476, -0.08885637480217733], [0.15897067549120206, 0.09643531805168798, 0.11144777117106532, 0.3643084657378342, -0.07638317044479685, -0.10289555579480875, 0.24417194958818994, 0.03862639771806391, -0.011673810442420314, 0.19017670377189083, -0.1714060299257836, 0.007474242338236286, -0.32658802226438427, 0.013001322103657372, -0.016381564043802546, 0.05801829350304519], [0.10333460480006286, -0.0007823472790221158, -0.08712508197119795, 0.1361764906599095, 0.05865701520068974, 0.15286609595985926, 0.047612485788788496, -0.11082992291833942, 0.12135763893864523, 0.22243200992555728, -0.1454745907225778, -0.2266321608735002, -0.06858364087715853, 0.09091740101724725, -0.07010594671021762, -0.06412708863628366], [0.0662398579317228, -0.12143151435400625, 0.16601748972203895, -0.01132117749071327, -0.02448648490150073, 0.0922100392171161, 0.03597304237387591, -0.06285025367027632, 0.09232439517954186, 0.07952485503477219, -0.01338032914104622, -0.20864362447123974, -0.18076443468991552, 0.09757655730350925, 0.2252870638318711, -0.0643923433851334], [0.06961172230150342, -0.17610127887934743, 0.16972876660053426, -0.2792294244048855, -0.10704933537776537, 0.11238496969827012, -0.15655577275732535, 0.25183517718683346, 0.031886140617042494, -0.07178671074041892, -0.2606909600186028, -0.040029008367664355, -0.11171439988349544, 0.08128333061159163, -0.10953406059625052, 0.31985250485090566], [-0.22894407248339038, 0.022868302730504924, 0.02229879923888826, 0.16561395168243426, 0.12799027199346816, 0.023887634003059936, -0.19510098415461025, 0.0969821718391993, -0.17479972937550686, 0.04319262578286756, -0.12533388894097075, 0.019328083025947844, 0.04046685962916271, 0.09244272044140818, 0.09642446654843707, 0.13002214414557675], [0.050986809930095675, -0.15282423791264213, 0.013881930886808324, -0.1481103543180249, 0.029342693819988084, 0.10010283632148557, 0.16647150908933409, -0.13727896433921766, -0.12106640579669786, -0.09793573580390058, 0.03193988609011574, 0.09448347913811928, -0.14606024589574104, 0.024083205162102654, 0.024964167242829568, 0.21606114602581825], [0.07613259004893236, 0.04652726362279719, 0.1092786466742304, 0.05676439638235177, -0.13680673941301086, 0.17795029392925607, 0.030683013660133422, -0.008561260842414233, -0.0130788273582706, -0.1590614169852013, -0.056964120707954015, -0.019124043289593818, -0.050168849612598314, -0.002286582687359864, -0.06269514695554913, 0.06434731117485117], [0.04474404514743972, -0.12723053947395666, -0.08561889648762076, -0.27395941654337225, 0.19703157776997607, -0.12078904190699208, 0.15482112122293984, 0.03950526943833338, 0.19312151845923486, -0.017862391365051643, 0.12083667317623321, 0.03009260554687566, 0.09594459735254258, -0.08695055629077739, -0.09796385106692232, -0.004203799677787407], [0.10343320439731157, 0.10494342725399602, -0.08710946014163831, 0.1358637626878173, -0.10296024426306884, -0.3580159427319679, -0.1349724627701687, 0.09175443942691484, -0.14486927999237298, -0.07966592600774185, -0.09853505594862683, -0.11840263133243703, 0.11610262969206403, 0.03482147099881364, -0.11912291313742508, -0.07831632695965507], [0.036051049931915415, -0.019300852694723286, 0.07526909376029338, -0.053763314476213526, -0.15531287798454746, 0.027617939462734515, -0.08221201758944122, -0.0013794172360905403, -0.1887492776743474, 0.18154510484626335, -0.28698727079479214, 0.08749135599514095, -0.03810865045683877, -0.17434385195351543, -0.2049967822877913, -0.057183167739357325], [0.04044328194844866, -0.06783815389959783, -0.047134890200433814, -0.07241489725947912, 0.07961510450662425, -0.2291756369070582, 0.026555969940978596, 0.06199721721634822, -0.0035407256704297037, 0.028902048073084025, -0.14797927002387742, 0.00268722390524043, 0.06599591690799353, 0.09920582440406525, 0.1699858769246976, -0.05552701151799816], [-0.008342304487294007, 0.07522229003004396, 0.39795126881051845, 0.11636375370559343, 0.06536833531816712, 0.06124854648845983, -0.031235223132706356, -0.12021349140855436, -0.12034824821064728, -0.0532580441048289, 0.08330344031735055, 0.12550373987929936, 0.07307171058859208, 0.0009033416313956273, 0.1438586233047715, -0.21041561608529788], [0.20390312276442918, -0.1866941146468805, -0.03296908248165812, -0.14140036063317352, -0.09356781646834475, -0.11100478942177486, 0.0024198247545087342, -0.015378423752725981, -0.22289977489315127, 0.08326940695121006, 0.08878742192349867, -0.32022482054125206, 0.11783029368690706, 0.3336465673144568, 0.002420330913085226, -0.1216647081844985], [-0.032392016356665415, -0.2177915338880489, 0.017142504607177, -0.07972155599746604, -0.15477592254248884, -0.10344973838785805, 0.1362503544096306, 0.005562061095068045, -0.09528673294402387, -0.13042226720089412, 0.022795226912173387, 0.012985465292250918, -0.08987097280179494, -0.11705794916541132, 0.2405274564250826, -0.12415512880583979], [0.1481656437629152, 0.0063089358019268954, -0.026364724448526028, -0.0055451478593585785, 0.03321336247614774, 0.06485887046421104, -0.030354555799025868, -0.008897015512191861, 0.0018144395676711802, -0.0510756412766467, 0.22426556805097578, 0.049808530407013635, 0.010328473562036115, -0.03767634543014971, -0.06513315109483113, -0.055522066860178416], [0.2872712713220646, 0.0923389948851843, -0.061976951521693996, -0.23220675861344622, 0.13468743479812123, 0.2950221638788316, 0.1408527202265799, -0.08530158860644234, 0.030541450078250102, -0.030775107825070237, -0.032493135442548574, -0.038731190220771046, 0.12512000791839042, -0.24141527773895413, -0.052577258777798314, 0.019949338535712915], [-0.29868520774141505, 0.004406987115368669, 0.016409931484571726, -0.1084862902152354, -0.025476820636062922, -0.1506287325475023, 0.10079226058997937, -0.10131050049181271, -0.025175141337630037, -0.09863400449906234, -0.02024016552899473, 0.056198561321429634, -0.09759907562614917, -0.006276352558515184, 0.026861743511584414, 0.046697724505660176], [-0.0387672224860524, 0.20911890080640277, -0.1253690914015436, 0.14239414579999932, 0.024779957772574926, 0.09824615312046538, -0.055843128500643574, 0.03185672599254478, 0.020127078004644514, -0.08780047952754089, -0.28563437128672525, 0.07907450349057131, 0.03061002177566297, 0.2885979490588359, -0.04118409001730355, -0.0037487919184889537], [0.24159798028128518, -0.20806818711615555, 0.05941295328962075, 0.13622337807495188, -0.06730645316584524, -0.022675016205471153, 0.289807733259895, -0.0818475142541906, 0.3253231802658873, 0.1514879048193522, -0.09923485170810081, -0.005873952315360819, 0.10398254378647334, 0.06011432330808989, 0.13245918118294983, 0.10863772475256205], [-0.17660601062284895, -0.09464288927742782, 0.1450647864721308, 0.2607810074772094, 0.12417267569587423, 0.06959536116116712, -0.14242007087676714, -0.02040825891813247, 0.07482917487729707, 0.10534919156704227, -0.1932859839200086, 0.0022195354734734223, -0.030617955409038757, 0.042677398056854145, -0.012374773086598451, 0.10048468779625473], [-0.19263503578191712, -0.0805034770108787, -0.024053215983792457, 0.06029096089433677, 0.133317137802265, -0.004419046564616221, -0.06976193336569121, 0.06543599338103319, 0.01696395593791898, -0.06180536070844842, -0.1643071685994262, -0.16474642078597015, -0.174136850500655, -0.16489584593480797, -0.020305374783468128, 0.1680269381445415], [-0.11458826573299648, 0.10602589015292019, 0.1303181001301822, -0.03146444827963147, 0.03841875356057294, -0.04901196498729246, -0.06489895406451554, 0.09747427859616015, -0.06848530312113886, -0.05203569740316701, 0.2103959030907734, 0.04384959370980994, -0.26186471397880096, 0.15555903811247324, -0.011366936726528384, -0.17607653046490024], [0.09219263055238344, 0.1320612599272684, 0.1204999518227675, 0.11273775337214209, -0.09461923196647497, -0.046358263332586386, -0.01946987798611642, 0.050590632295846504, 0.05559947980171654, 0.06344538787203294, 0.20181106470779556, 0.03558312138072233, 0.059481009144970017, 0.12478940411450559, 0.08038749827246389, 0.34627727997256513], [-0.12337230327050183, -0.03403927878962708, -0.006859249879213199, -0.14415338218538534, -0.017785567610085484, -0.09121802277957852, -0.01692477912389306, -0.08343661041467443, -0.18141901478699246, 0.09828040293746333, 0.09047795504881198, -0.09553937230179849, 0.00267144134373943, -0.024226640989752288, 0.13841823921904955, 0.16189677807720815], [-0.1783140588396445, -0.03541369468053783, -0.03926904696596873, -0.02999618186950458, -0.12773936847170025, -0.012947392141018506, -0.13169995933964015, 0.025212425801391554, 0.05097116750661606, -0.0958731090921736, 0.03672929150963132, -0.1495715726011293, 0.13077966033456193, 0.0005889081397712862, 0.0025987157072004854, -0.12055429899270798], [0.03255072667521488, -0.07445236898879715, 0.022946294961208192, 0.12771442685276124, -0.06640622887135979, -0.007135045782307719, 0.14643639785939525, 0.05353375401641918, -0.04624661541325585, 0.06459837463878856, -0.2840529189482531, -0.10134238583831312, 0.06462529740133971, 0.08664015768034383, 0.004157446131643978, 0.08865341638096848], [-0.10536186922040165, -0.11255037694858992, -0.11188169499189012, 0.051252267953163934, -0.05848659285787721, 0.11666252129121038, -0.24464498743481872, 0.06200465074496457, 0.06772442136500807, -0.1307012563505817, 0.2391929648579931, 0.03603499380563467, -0.2103770136659978, 0.12352312977043277, 0.06241545443153263, 0.07419944919097617], [-0.08758612784689135, 0.10932950082483775, -0.08480730532009882, -0.20838957975366068, -0.12934811610176028, -0.05408489987111274, 0.040642515680017366, -0.15304260010181478, -0.2557266964781446, 0.048211784462561795, 0.022391278835419432, -0.0002849508765335908, 0.11775660233748685, 0.12028817782017749, 0.13004330086349206, -0.052410255977475007], [0.035302639680254516, 0.14159788385720207, 0.003566146151798025, 0.011543670020333303, 0.13590599517545443, -0.025117918015608937, 0.055871473545086876, -0.3334369409310094, 0.06871297688554849, 0.06588721916030543, 0.07731394560826307, 0.1411152173955348, 0.08974311103226033, -0.07737413913539547, -0.15710068963610402, 0.07511583055719542], [-0.11281088652545372, 0.009948199353594003, 0.030536838715970467, 0.20991277834852376, -0.16754171140727372, 0.04297474973636848, 0.15220906256422462, 0.13528496784644017, -0.05229835173796689, -0.14630533288819858, -0.06899241024267165, -0.0056530394024751135, 0.01567337253489757, -0.054330482366648655, -0.1124076967585692, -0.005569627894671565], [-0.07449142672096173, -0.07234743906828406, 0.06353955414515831, -0.05947024464930769, -0.0850688126124707, -0.10444142351065476, 0.1571243387741124, 0.09478215903110304, 0.1893510997485938, 0.06756226519561219, -0.12543482725678967, -0.17159589537895303, -0.11322811653080316, 0.06972608510555052, 0.12668097304175635, 0.0033151545324279805], [0.16196753375965972, -0.19352627786723417, -0.00954523357992211, 0.13849101263136382, -0.09683277940636108, -0.13934751543399287, 0.009976178756528526, -0.0070476323762170435, 0.13768742936897366, 0.05909583514273566, -0.031155092109600768, 0.02960783239866402, -0.08514345651953245, 0.11051110943896213, 0.12327388317747359, -0.004264907879833088], [-0.016184371868521376, -0.018325416421447083, 0.022421299369501206, -0.0007843516323998701, -0.04537767368556932, -0.01898726476262983, -0.07986684082280829, -0.09874885716851864, -0.07461736646468217, -0.05931837993773468, -0.00575161359108235, 0.18638429715710716, -0.06832275627913528, -0.1877752462960251, 0.0732847093407733, -0.03977224327676044], [0.0362503370973001, 0.045127914242071486, 0.18164499762573552, -0.0515251171622786, 0.1368215417710269, -0.024796067313886037, 0.0578016138496021, 0.02690219070698787, 0.049938099167529997, 0.2567153672362871, -0.14584938356834207, -0.20398303820185626, -0.29775172460501803, -0.21645214064129434, 0.05503658103826115, -0.18636360740449717], [0.07038597730809563, 0.04686628833858089, 0.028963934069068224, -0.08999264643434854, 0.07273512865208989, -0.018262225336915135, 0.02836574992471294, -0.20271941179311254, -0.06257658148716454, -0.0948258707812834, 0.13859960198217824, 0.12738780989952478, -0.053426785251031284, -0.043392297507304986, 0.10528265979657758, 0.04202738267570082], [0.46523808125074484, 0.026473812676432097, -0.06148066660636225, -0.26229660624051104, 0.021785923789396748, 0.05837077556547739, 0.19428391374920292, -0.4090828675547323, 0.06046866713066233, -0.1067493460750582, 0.06025688483334382, -0.051565292580139734, -0.029932079178172533, 0.1329824760881241, 0.2313851179863275, -0.1319824673099383], [-0.04800665421158349, 0.006812562349469774, -0.002326679876909709, 0.05645697666938047, 0.09563799507821505, 0.07144347943921144, 0.05177559067603039, -0.017345207945891818, 0.023286520550630685, 0.09949458140486388, -0.34061601804425656, 0.15338649675830934, 0.059084658150932404, 0.05390992577513191, -0.12507845348016614, 0.06682790999609702], [0.060613713961111676, -0.04657225828322456, 0.014939503228503426, -0.15389592050209938, -0.2318266080158584, 0.20393758889408725, 0.07406176845353542, 0.09501030460545605, -0.026748594841645393, -0.019633725661745392, 0.10366234540775837, -0.09541259664683914, -0.18200480225867618, -0.1153730882348129, -0.11322748888394105, 0.03392496208484656], [0.03133135735057781, 0.051054931612035094, 0.018722973286234415, -0.19105068420295607, -0.2138940958445234, 0.07725960460127743, 0.21605944831756943, 0.11547766633683755, 0.058127112180371726, -0.042040728713059354, 0.013863853484210226, -0.08086257117491749, 0.18844651924817132, 0.0076452770768619316, 0.12427831661980192, -0.03226465367520582], [-0.00012838115994116383, -0.1677904526526888, -0.041321373600024885, 0.14527688178505446, 0.227741162185188, 0.013264370979685875, 0.12298000103301249, 0.11800426503270951, -0.12499188636975973, -0.02529756303416183, -0.08115338894764863, 0.018611475685149804, -0.03920321902412521, 0.1752972930115195, 0.11050953451100448, -0.04913152224811682], [-0.030730543397205892, -0.1376837303554046, -0.30201382936517385, -0.16130103734960605, 0.1673055811485302, 0.005435051070514811, -0.050769327265141016, -0.028663378755255337, -0.13792504997892802, 0.32102570837913125, 0.08270773503018307, 0.038108601660314316, -0.16625661362398314, -0.16651243487104023, -0.05519203753204933, 0.10126450096839235], [0.05487207036033797, -0.07057967426316854, 0.048934544137127035, -0.037805180239185825, -0.0341918135266712, 0.1090463009204608, -0.1675462035670759, 0.2072807488550721, -0.0440370996805464, -0.0032040965897837817, 0.013035510804742767, 0.0004156347587925267, -0.130756861534148, -0.005815404612571644, -0.05975320411548348, -0.3190720556316267], [-0.017275348556964786, -0.09428671916405897, -0.17414839468500673, -0.004339424213882652, 0.01732040545435403, 0.10961488690679934, -0.024953381837638556, 0.13763719528837315, -0.160361997779807, 0.06772825365040121, -0.15294324432292758, -0.015817983110792647, -0.07765497061845601, -0.007529657224253609, 0.08957432644107981, 0.055471644287971716], [-0.08422178880181377, -0.12859128089517133, -0.028556347455174318, 0.13501464265063912, 0.08541739276995412, 0.04001208346009503, 0.09073536457312767, -0.14432654454259378, -0.027784560103863935, 0.14087345967410822, 0.043336508131512824, 0.02606078302595681, 0.06401422552572147, 0.03570250365651934, 0.12054572680614999, 0.22249063894337348], [-0.0896519503857226, -0.006454832366168015, 0.15646193892519727, 0.10528950383538746, 0.10433828374010397, -0.10207875585875036, -0.025646068378561596, -0.05510043741340989, -0.04239864245958592, 0.2955575767914228, 0.10218605033633762, -0.011117577716516367, -0.02902160770297045, -0.11854221719718457, -0.11374930632214635, -0.022654180546243942], [-0.14930714204789752, -0.09912743635617757, 0.08762294862419526, 0.08980664640466023, 0.11546638649796534, -0.03445762042980911, -0.06581017360500627, -0.06511427589551709, -0.07959118866116126, 0.2864315584045418, -0.02948652377806743, -0.2795422500998801, -0.24467905930769096, 0.0244460657735419, 0.08399408859088302, 0.020948279470571284], [-0.019344287613962778, 0.061336979851991165, -0.0695106616096956, -0.11790053076654991, 0.36597774919169873, -0.013632779494213957, 0.23499130222512973, -0.1250670538756314, -0.019877781760756198, 0.06773358974479825, 0.02337055656813516, -0.043007774582105134, 0.13222202570120853, 0.16193134196729578, -0.029281088115941642, -0.13530354755418567], [-0.15910958634619926, -0.15354555046196314, 0.06832255675253288, 0.2934479532489086, -0.01985275598686837, -0.19136537600023362, -0.009477814597321766, -0.09166493914495905, -0.08632485131249984, 0.15225574233102496, -0.05187808760846847, 0.13219815585663802, -0.17178547095899582, 0.08249318094550664, -0.16317256972648223, 0.033142956474228935], [0.10590689560818131, 0.09397900469043184, -0.010976662382793994, 0.10341649048244445, 0.05323463984875412, 0.13311644616650808, -0.24026319020292242, 0.2900729180172765, 0.16432836741552803, -0.16623230549288848, 0.09561971669604066, -0.18713597482817707, 0.00011200200183125489, -0.06847391632924954, -0.15356796813580448, -0.026818652734377453], [-0.08360105293569196, 0.16102505543689416, -0.047979444559284365, -0.1301981216819533, 0.05943837515528148, -0.1774540745284928, 0.2129344435009396, 0.1257912937350102, 0.11298942450011534, 0.26852203614227516, -0.1405302334885741, -0.059165542805280795, 0.0849764819408675, -0.1112909073905643, -0.01502001718995358, -0.027323832819251846], [0.03345812120499542, 0.17101198847465676, 0.10070230908133203, -0.21565524022460075, -0.02140489685132478, -0.11668868169873559, -0.08503060420929993, 0.20617210479902948, 0.2300221780505747, -0.03960253614306103, 0.0744115434285945, 0.022982263432991732, 0.030503604889294614, -0.1245321406570903, 0.1327049123409243, 0.2204620761670563], [-0.11933180675111453, -0.14599454049221494, -0.16507312846802027, 0.06005735464751885, 0.025841811079598185, 0.25562471100802525, -0.06090025369565928, 0.11753930171753584, 0.08862641813286373, -0.13610401449427703, -0.049305167501294406, 0.10292965646765855, 0.037708194120466276, 0.1283534576803214, -0.09985386990756441, -0.14957664147812968], [-0.04245811534793338, -0.036476778625038744, -0.03544149652489464, 0.03270816384871408, -0.04501989401500473, 0.12919791499789773, 0.0004049978880262377, -0.08734054457744538, -0.21476012820711193, 0.15844115153503405, 0.022655305917420432, 0.3288466846686364, 0.07130242789580415, 0.07865795622654234, -0.08268617958636841, 0.19747231767303622], [-0.06453508502241018, -0.23297638456569214, -0.07545783310263872, -0.15453619409217287, -0.013483979730178163, -0.10006625949482913, 0.1042467853180962, 0.29375221864458817, 0.17476127271409267, -0.12447120379289116, 0.28561581394954255, -0.14702140219761198, 0.16523399429099894, 0.02031616994379518, -0.11370375702022587, 0.025331985846357066], [-0.20437942379022123, -0.12743443087370296, 0.2521505398990533, 0.10040484354230743, 0.0969638194008827, -0.2923931931686473, 0.007082810760161524, 0.04089546781105972, -0.04571273986164703, -0.00013074994627859177, -0.19875655687552263, 0.06818004742559962, -0.008651281595617108, 0.07379637902106437, 0.15968203843734177, 0.014508599765995932], [-0.1837612627080069, 0.268955460840164, -0.14677704714466322, -0.056930367368307096, 0.11042154349197963, -0.008518969672306052, -0.11995450877341204, 0.21573123631877833, 0.05574151281220124, 0.14140451943755533, 0.259760958994407, -0.07123649985144856, -0.02498986581171737, -0.20891869116850414, 0.1080358228188976, -0.1894687689161577], [-0.23842232436786223, -0.012640492544502183, 0.1458379226715998, 0.04442916356973952, -0.06590307284727172, 0.06808774969621419, -0.11153589991013182, 0.013714730659967998, -0.03785185668047557, 0.1163171489499071, -0.02692786061779365, -0.27075759520351916, 0.12297636709503872, 0.06283085712284907, -0.14568970156596475, -0.22573818653890462], [0.3030532281938552, 0.06654982756915698, 0.3591231902391109, -0.08849387818117259, 0.12955197061593066, -0.004427261652448826, 0.12455878853132939, -0.034237257469301285, -0.0038391709945052675, 0.06155313051692681, -0.18112456539100782, -0.08327468603304065, -0.13911022305432424, -0.34249845772964616, -0.1077421942379273, -0.016407830236758965]], "bias": [[0.05941189820804052, 0.001417511746374802, 0.102521225343586, 0.0, 0.09716675971928851, -0.045259610073764604, 0.002270811880267709, 0.0, -0.01637703944461474, 0.01433798301946234, 0.0, 0.0, 0.0, 0.0, 0.0, -0.051799436246284705]], "mWeights": [[0.0, 0.0, 0.0, 0.0, 0.0, 0.0, 0.0, 0.0, 0.0, 0.0, 0.0, 0.0, 0.0, 0.0, 0.0, 0.0], [0.0, 0.0, 0.0, 0.0, 0.0, 0.0, 0.0, 0.0, 0.0, 0.0, 0.0, 0.0, 0.0, 0.0, 0.0, 0.0], [0.0, 0.0, 0.0, 0.0, 0.0, 0.0, 0.0, 0.0, 0.0, 0.0, 0.0, 0.0, 0.0, 0.0, 0.0, 0.0], [0.0, 0.0, 0.0, 0.0, 0.0, 0.0, 0.0, 0.0, 0.0, 0.0, 0.0, 0.0, 0.0, 0.0, 0.0, 0.0], [0.0, 0.0, 0.0, 0.0, 0.0, 0.0, 0.0, 0.0, 0.0, 0.0, 0.0, 0.0, 0.0, 0.0, 0.0, 0.0], [0.0, 0.0, 0.0, 0.0, 0.0, 0.0, 0.0, 0.0, 0.0, 0.0, 0.0, 0.0, 0.0, 0.0, 0.0, 0.0], [0.0, 0.0, 0.0, 0.0, 0.0, 0.0, 0.0, 0.0, 0.0, 0.0, 0.0, 0.0, 0.0, 0.0, 0.0, 0.0], [0.0, 0.0, 0.0, 0.0, 0.0, 0.0, 0.0, 0.0, 0.0, 0.0, 0.0, 0.0, 0.0, 0.0, 0.0, 0.0], [0.0, 0.0, 0.0, 0.0, 0.0, 0.0, 0.0, 0.0, 0.0, 0.0, 0.0, 0.0, 0.0, 0.0, 0.0, 0.0], [0.0, 0.0, 0.0, 0.0, 0.0, 0.0, 0.0, 0.0, 0.0, 0.0, 0.0, 0.0, 0.0, 0.0, 0.0, 0.0], [0.0, 0.0, 0.0, 0.0, 0.0, 0.0, 0.0, 0.0, 0.0, 0.0, 0.0, 0.0, 0.0, 0.0, 0.0, 0.0], [0.0, 0.0, 0.0, 0.0, 0.0, 0.0, 0.0, 0.0, 0.0, 0.0, 0.0, 0.0, 0.0, 0.0, 0.0, 0.0], [0.0, 0.0, 0.0, 0.0, 0.0, 0.0, 0.0, 0.0, 0.0, 0.0, 0.0, 0.0, 0.0, 0.0, 0.0, 0.0], [0.0, 0.0, 0.0, 0.0, 0.0, 0.0, 0.0, 0.0, 0.0, 0.0, 0.0, 0.0, 0.0, 0.0, 0.0, 0.0], [0.0, 0.0, 0.0, 0.0, 0.0, 0.0, 0.0, 0.0, 0.0, 0.0, 0.0, 0.0, 0.0, 0.0, 0.0, 0.0], [0.0, 0.0, 0.0, 0.0, 0.0, 0.0, 0.0, 0.0, 0.0, 0.0, 0.0, 0.0, 0.0, 0.0, 0.0, 0.0], [0.0, 0.0, 0.0, 0.0, 0.0, 0.0, 0.0, 0.0, 0.0, 0.0, 0.0, 0.0, 0.0, 0.0, 0.0, 0.0], [0.0, 0.0, 0.0, 0.0, 0.0, 0.0, 0.0, 0.0, 0.0, 0.0, 0.0, 0.0, 0.0, 0.0, 0.0, 0.0], [0.0, 0.0, 0.0, 0.0, 0.0, 0.0, 0.0, 0.0, 0.0, 0.0, 0.0, 0.0, 0.0, 0.0, 0.0, 0.0], [0.0, 0.0, 0.0, 0.0, 0.0, 0.0, 0.0, 0.0, 0.0, 0.0, 0.0, 0.0, 0.0, 0.0, 0.0, 0.0], [0.0, 0.0, 0.0, 0.0, 0.0, 0.0, 0.0, 0.0, 0.0, 0.0, 0.0, 0.0, 0.0, 0.0, 0.0, 0.0], [0.0, 0.0, 0.0, 0.0, 0.0, 0.0, 0.0, 0.0, 0.0, 0.0, 0.0, 0.0, 0.0, 0.0, 0.0, 0.0], [0.0, 0.0, 0.0, 0.0, 0.0, 0.0, 0.0, 0.0, 0.0, 0.0, 0.0, 0.0, 0.0, 0.0, 0.0, 0.0], [0.0, 0.0, 0.0, 0.0, 0.0, 0.0, 0.0, 0.0, 0.0, 0.0, 0.0, 0.0, 0.0, 0.0, 0.0, 0.0], [0.0, 0.0, 0.0, 0.0, 0.0, 0.0, 0.0, 0.0, 0.0, 0.0, 0.0, 0.0, 0.0, 0.0, 0.0, 0.0], [0.0, 0.0, 0.0, 0.0, 0.0, 0.0, 0.0, 0.0, 0.0, 0.0, 0.0, 0.0, 0.0, 0.0, 0.0, 0.0], [0.0, 0.0, 0.0, 0.0, 0.0, 0.0, 0.0, 0.0, 0.0, 0.0, 0.0, 0.0, 0.0, 0.0, 0.0, 0.0], [0.0, 0.0, 0.0, 0.0, 0.0, 0.0, 0.0, 0.0, 0.0, 0.0, 0.0, 0.0, 0.0, 0.0, 0.0, 0.0], [0.0, 0.0, 0.0, 0.0, 0.0, 0.0, 0.0, 0.0, 0.0, 0.0, 0.0, 0.0, 0.0, 0.0, 0.0, 0.0], [0.0, 0.0, 0.0, 0.0, 0.0, 0.0, 0.0, 0.0, 0.0, 0.0, 0.0, 0.0, 0.0, 0.0, 0.0, 0.0], [0.0, 0.0, 0.0, 0.0, 0.0, 0.0, 0.0, 0.0, 0.0, 0.0, 0.0, 0.0, 0.0, 0.0, 0.0, 0.0], [0.0, 0.0, 0.0, 0.0, 0.0, 0.0, 0.0, 0.0, 0.0, 0.0, 0.0, 0.0, 0.0, 0.0, 0.0, 0.0], [0.0, 0.0, 0.0, 0.0, 0.0, 0.0, 0.0, 0.0, 0.0, 0.0, 0.0, 0.0, 0.0, 0.0, 0.0, 0.0], [0.0, 0.0, 0.0, 0.0, 0.0, 0.0, 0.0, 0.0, 0.0, 0.0, 0.0, 0.0, 0.0, 0.0, 0.0, 0.0], [0.0, 0.0, 0.0, 0.0, 0.0, 0.0, 0.0, 0.0, 0.0, 0.0, 0.0, 0.0, 0.0, 0.0, 0.0, 0.0], [0.0, 0.0, 0.0, 0.0, 0.0, 0.0, 0.0, 0.0, 0.0, 0.0, 0.0, 0.0, 0.0, 0.0, 0.0, 0.0], [0.0, 0.0, 0.0, 0.0, 0.0, 0.0, 0.0, 0.0, 0.0, 0.0, 0.0, 0.0, 0.0, 0.0, 0.0, 0.0], [0.0, 0.0, 0.0, 0.0, 0.0, 0.0, 0.0, 0.0, 0.0, 0.0, 0.0, 0.0, 0.0, 0.0, 0.0, 0.0], [0.0, 0.0, 0.0, 0.0, 0.0, 0.0, 0.0, 0.0, 0.0, 0.0, 0.0, 0.0, 0.0, 0.0, 0.0, 0.0], [0.0, 0.0, 0.0, 0.0, 0.0, 0.0, 0.0, 0.0, 0.0, 0.0, 0.0, 0.0, 0.0, 0.0, 0.0, 0.0], [0.0, 0.0, 0.0, 0.0, 0.0, 0.0, 0.0, 0.0, 0.0, 0.0, 0.0, 0.0, 0.0, 0.0, 0.0, 0.0], [0.0, 0.0, 0.0, 0.0, 0.0, 0.0, 0.0, 0.0, 0.0, 0.0, 0.0, 0.0, 0.0, 0.0, 0.0, 0.0], [0.0, 0.0, 0.0, 0.0, 0.0, 0.0, 0.0, 0.0, 0.0, 0.0, 0.0, 0.0, 0.0, 0.0, 0.0, 0.0], [0.0, 0.0, 0.0, 0.0, 0.0, 0.0, 0.0, 0.0, 0.0, 0.0, 0.0, 0.0, 0.0, 0.0, 0.0, 0.0], [0.0, 0.0, 0.0, 0.0, 0.0, 0.0, 0.0, 0.0, 0.0, 0.0, 0.0, 0.0, 0.0, 0.0, 0.0, 0.0], [0.0, 0.0, 0.0, 0.0, 0.0, 0.0, 0.0, 0.0, 0.0, 0.0, 0.0, 0.0, 0.0, 0.0, 0.0, 0.0], [0.0, 0.0, 0.0, 0.0, 0.0, 0.0, 0.0, 0.0, 0.0, 0.0, 0.0, 0.0, 0.0, 0.0, 0.0, 0.0], [0.0, 0.0, 0.0, 0.0, 0.0, 0.0, 0.0, 0.0, 0.0, 0.0, 0.0, 0.0, 0.0, 0.0, 0.0, 0.0], [0.0, 0.0, 0.0, 0.0, 0.0, 0.0, 0.0, 0.0, 0.0, 0.0, 0.0, 0.0, 0.0, 0.0, 0.0, 0.0], [0.0, 0.0, 0.0, 0.0, 0.0, 0.0, 0.0, 0.0, 0.0, 0.0, 0.0, 0.0, 0.0, 0.0, 0.0, 0.0], [0.0, 0.0, 0.0, 0.0, 0.0, 0.0, 0.0, 0.0, 0.0, 0.0, 0.0, 0.0, 0.0, 0.0, 0.0, 0.0], [0.0, 0.0, 0.0, 0.0, 0.0, 0.0, 0.0, 0.0, 0.0, 0.0, 0.0, 0.0, 0.0, 0.0, 0.0, 0.0], [0.0, 0.0, 0.0, 0.0, 0.0, 0.0, 0.0, 0.0, 0.0, 0.0, 0.0, 0.0, 0.0, 0.0, 0.0, 0.0], [0.0, 0.0, 0.0, 0.0, 0.0, 0.0, 0.0, 0.0, 0.0, 0.0, 0.0, 0.0, 0.0, 0.0, 0.0, 0.0], [0.0, 0.0, 0.0, 0.0, 0.0, 0.0, 0.0, 0.0, 0.0, 0.0, 0.0, 0.0, 0.0, 0.0, 0.0, 0.0], [0.0, 0.0, 0.0, 0.0, 0.0, 0.0, 0.0, 0.0, 0.0, 0.0, 0.0, 0.0, 0.0, 0.0, 0.0, 0.0], [0.0, 0.0, 0.0, 0.0, 0.0, 0.0, 0.0, 0.0, 0.0, 0.0, 0.0, 0.0, 0.0, 0.0, 0.0, 0.0], [0.0, 0.0, 0.0, 0.0, 0.0, 0.0, 0.0, 0.0, 0.0, 0.0, 0.0, 0.0, 0.0, 0.0, 0.0, 0.0], [0.0, 0.0, 0.0, 0.0, 0.0, 0.0, 0.0, 0.0, 0.0, 0.0, 0.0, 0.0, 0.0, 0.0, 0.0, 0.0], [0.0, 0.0, 0.0, 0.0, 0.0, 0.0, 0.0, 0.0, 0.0, 0.0, 0.0, 0.0, 0.0, 0.0, 0.0, 0.0], [0.0, 0.0, 0.0, 0.0, 0.0, 0.0, 0.0, 0.0, 0.0, 0.0, 0.0, 0.0, 0.0, 0.0, 0.0, 0.0], [0.0, 0.0, 0.0, 0.0, 0.0, 0.0, 0.0, 0.0, 0.0, 0.0, 0.0, 0.0, 0.0, 0.0, 0.0, 0.0], [0.0, 0.0, 0.0, 0.0, 0.0, 0.0, 0.0, 0.0, 0.0, 0.0, 0.0, 0.0, 0.0, 0.0, 0.0, 0.0], [0.0, 0.0, 0.0, 0.0, 0.0, 0.0, 0.0, 0.0, 0.0, 0.0, 0.0, 0.0, 0.0, 0.0, 0.0, 0.0], [0.0, 0.0, 0.0, 0.0, 0.0, 0.0, 0.0, 0.0, 0.0, 0.0, 0.0, 0.0, 0.0, 0.0, 0.0, 0.0], [0.0, 0.0, 0.0, 0.0, 0.0, 0.0, 0.0, 0.0, 0.0, 0.0, 0.0, 0.0, 0.0, 0.0, 0.0, 0.0], [0.0, 0.0, 0.0, 0.0, 0.0, 0.0, 0.0, 0.0, 0.0, 0.0, 0.0, 0.0, 0.0, 0.0, 0.0, 0.0], [0.0, 0.0, 0.0, 0.0, 0.0, 0.0, 0.0, 0.0, 0.0, 0.0, 0.0, 0.0, 0.0, 0.0, 0.0, 0.0], [0.0, 0.0, 0.0, 0.0, 0.0, 0.0, 0.0, 0.0, 0.0, 0.0, 0.0, 0.0, 0.0, 0.0, 0.0, 0.0], [0.0, 0.0, 0.0, 0.0, 0.0, 0.0, 0.0, 0.0, 0.0, 0.0, 0.0, 0.0, 0.0, 0.0, 0.0, 0.0], [0.0, 0.0, 0.0, 0.0, 0.0, 0.0, 0.0, 0.0, 0.0, 0.0, 0.0, 0.0, 0.0, 0.0, 0.0, 0.0], [0.0, 0.0, 0.0, 0.0, 0.0, 0.0, 0.0, 0.0, 0.0, 0.0, 0.0, 0.0, 0.0, 0.0, 0.0, 0.0], [0.0, 0.0, 0.0, 0.0, 0.0, 0.0, 0.0, 0.0, 0.0, 0.0, 0.0, 0.0, 0.0, 0.0, 0.0, 0.0], [0.0, 0.0, 0.0, 0.0, 0.0, 0.0, 0.0, 0.0, 0.0, 0.0, 0.0, 0.0, 0.0, 0.0, 0.0, 0.0], [0.0, 0.0, 0.0, 0.0, 0.0, 0.0, 0.0, 0.0, 0.0, 0.0, 0.0, 0.0, 0.0, 0.0, 0.0, 0.0], [0.0, 0.0, 0.0, 0.0, 0.0, 0.0, 0.0, 0.0, 0.0, 0.0, 0.0, 0.0, 0.0, 0.0, 0.0, 0.0], [0.0, 0.0, 0.0, 0.0, 0.0, 0.0, 0.0, 0.0, 0.0, 0.0, 0.0, 0.0, 0.0, 0.0, 0.0, 0.0], [0.0, 0.0, 0.0, 0.0, 0.0, 0.0, 0.0, 0.0, 0.0, 0.0, 0.0, 0.0, 0.0, 0.0, 0.0, 0.0], [0.0, 0.0, 0.0, 0.0, 0.0, 0.0, 0.0, 0.0, 0.0, 0.0, 0.0, 0.0, 0.0, 0.0, 0.0, 0.0], [0.0, 0.0, 0.0, 0.0, 0.0, 0.0, 0.0, 0.0, 0.0, 0.0, 0.0, 0.0, 0.0, 0.0, 0.0, 0.0], [0.0, 0.0, 0.0, 0.0, 0.0, 0.0, 0.0, 0.0, 0.0, 0.0, 0.0, 0.0, 0.0, 0.0, 0.0, 0.0], [0.0, 0.0, 0.0, 0.0, 0.0, 0.0, 0.0, 0.0, 0.0, 0.0, 0.0, 0.0, 0.0, 0.0, 0.0, 0.0], [0.0, 0.0, 0.0, 0.0, 0.0, 0.0, 0.0, 0.0, 0.0, 0.0, 0.0, 0.0, 0.0, 0.0, 0.0, 0.0], [0.0, 0.0, 0.0, 0.0, 0.0, 0.0, 0.0, 0.0, 0.0, 0.0, 0.0, 0.0, 0.0, 0.0, 0.0, 0.0], [0.0, 0.0, 0.0, 0.0, 0.0, 0.0, 0.0, 0.0, 0.0, 0.0, 0.0, 0.0, 0.0, 0.0, 0.0, 0.0], [0.0, 0.0, 0.0, 0.0, 0.0, 0.0, 0.0, 0.0, 0.0, 0.0, 0.0, 0.0, 0.0, 0.0, 0.0, 0.0], [0.0, 0.0, 0.0, 0.0, 0.0, 0.0, 0.0, 0.0, 0.0, 0.0, 0.0, 0.0, 0.0, 0.0, 0.0, 0.0], [0.0, 0.0, 0.0, 0.0, 0.0, 0.0, 0.0, 0.0, 0.0, 0.0, 0.0, 0.0, 0.0, 0.0, 0.0, 0.0], [0.0, 0.0, 0.0, 0.0, 0.0, 0.0, 0.0, 0.0, 0.0, 0.0, 0.0, 0.0, 0.0, 0.0, 0.0, 0.0], [0.0, 0.0, 0.0, 0.0, 0.0, 0.0, 0.0, 0.0, 0.0, 0.0, 0.0, 0.0, 0.0, 0.0, 0.0, 0.0], [0.0, 0.0, 0.0, 0.0, 0.0, 0.0, 0.0, 0.0, 0.0, 0.0, 0.0, 0.0, 0.0, 0.0, 0.0, 0.0], [0.0, 0.0, 0.0, 0.0, 0.0, 0.0, 0.0, 0.0, 0.0, 0.0, 0.0, 0.0, 0.0, 0.0, 0.0, 0.0], [0.0, 0.0, 0.0, 0.0, 0.0, 0.0, 0.0, 0.0, 0.0, 0.0, 0.0, 0.0, 0.0, 0.0, 0.0, 0.0], [0.0, 0.0, 0.0, 0.0, 0.0, 0.0, 0.0, 0.0, 0.0, 0.0, 0.0, 0.0, 0.0, 0.0, 0.0, 0.0], [0.0, 0.0, 0.0, 0.0, 0.0, 0.0, 0.0, 0.0, 0.0, 0.0, 0.0, 0.0, 0.0, 0.0, 0.0, 0.0], [0.0, 0.0, 0.0, 0.0, 0.0, 0.0, 0.0, 0.0, 0.0, 0.0, 0.0, 0.0, 0.0, 0.0, 0.0, 0.0], [0.0, 0.0, 0.0, 0.0, 0.0, 0.0, 0.0, 0.0, 0.0, 0.0, 0.0, 0.0, 0.0, 0.0, 0.0, 0.0], [0.0, 0.0, 0.0, 0.0, 0.0, 0.0, 0.0, 0.0, 0.0, 0.0, 0.0, 0.0, 0.0, 0.0, 0.0, 0.0], [0.0, 0.0, 0.0, 0.0, 0.0, 0.0, 0.0, 0.0, 0.0, 0.0, 0.0, 0.0, 0.0, 0.0, 0.0, 0.0], [0.0, 0.0, 0.0, 0.0, 0.0, 0.0, 0.0, 0.0, 0.0, 0.0, 0.0, 0.0, 0.0, 0.0, 0.0, 0.0], [0.0, 0.0, 0.0, 0.0, 0.0, 0.0, 0.0, 0.0, 0.0, 0.0, 0.0, 0.0, 0.0, 0.0, 0.0, 0.0], [0.0, 0.0, 0.0, 0.0, 0.0, 0.0, 0.0, 0.0, 0.0, 0.0, 0.0, 0.0, 0.0, 0.0, 0.0, 0.0], [0.0, 0.0, 0.0, 0.0, 0.0, 0.0, 0.0, 0.0, 0.0, 0.0, 0.0, 0.0, 0.0, 0.0, 0.0, 0.0], [0.0, 0.0, 0.0, 0.0, 0.0, 0.0, 0.0, 0.0, 0.0, 0.0, 0.0, 0.0, 0.0, 0.0, 0.0, 0.0], [0.0, 0.0, 0.0, 0.0, 0.0, 0.0, 0.0, 0.0, 0.0, 0.0, 0.0, 0.0, 0.0, 0.0, 0.0, 0.0], [0.0, 0.0, 0.0, 0.0, 0.0, 0.0, 0.0, 0.0, 0.0, 0.0, 0.0, 0.0, 0.0, 0.0, 0.0, 0.0], [0.0, 0.0, 0.0, 0.0, 0.0, 0.0, 0.0, 0.0, 0.0, 0.0, 0.0, 0.0, 0.0, 0.0, 0.0, 0.0], [0.0, 0.0, 0.0, 0.0, 0.0, 0.0, 0.0, 0.0, 0.0, 0.0, 0.0, 0.0, 0.0, 0.0, 0.0, 0.0], [0.0, 0.0, 0.0, 0.0, 0.0, 0.0, 0.0, 0.0, 0.0, 0.0, 0.0, 0.0, 0.0, 0.0, 0.0, 0.0], [0.0, 0.0, 0.0, 0.0, 0.0, 0.0, 0.0, 0.0, 0.0, 0.0, 0.0, 0.0, 0.0, 0.0, 0.0, 0.0], [0.0, 0.0, 0.0, 0.0, 0.0, 0.0, 0.0, 0.0, 0.0, 0.0, 0.0, 0.0, 0.0, 0.0, 0.0, 0.0], [0.0, 0.0, 0.0, 0.0, 0.0, 0.0, 0.0, 0.0, 0.0, 0.0, 0.0, 0.0, 0.0, 0.0, 0.0, 0.0], [0.0, 0.0, 0.0, 0.0, 0.0, 0.0, 0.0, 0.0, 0.0, 0.0, 0.0, 0.0, 0.0, 0.0, 0.0, 0.0], [0.0, 0.0, 0.0, 0.0, 0.0, 0.0, 0.0, 0.0, 0.0, 0.0, 0.0, 0.0, 0.0, 0.0, 0.0, 0.0], [0.0, 0.0, 0.0, 0.0, 0.0, 0.0, 0.0, 0.0, 0.0, 0.0, 0.0, 0.0, 0.0, 0.0, 0.0, 0.0], [0.0, 0.0, 0.0, 0.0, 0.0, 0.0, 0.0, 0.0, 0.0, 0.0, 0.0, 0.0, 0.0, 0.0, 0.0, 0.0], [0.0, 0.0, 0.0, 0.0, 0.0, 0.0, 0.0, 0.0, 0.0, 0.0, 0.0, 0.0, 0.0, 0.0, 0.0, 0.0], [0.0, 0.0, 0.0, 0.0, 0.0, 0.0, 0.0, 0.0, 0.0, 0.0, 0.0, 0.0, 0.0, 0.0, 0.0, 0.0], [0.0, 0.0, 0.0, 0.0, 0.0, 0.0, 0.0, 0.0, 0.0, 0.0, 0.0, 0.0, 0.0, 0.0, 0.0, 0.0], [0.0, 0.0, 0.0, 0.0, 0.0, 0.0, 0.0, 0.0, 0.0, 0.0, 0.0, 0.0, 0.0, 0.0, 0.0, 0.0], [0.0, 0.0, 0.0, 0.0, 0.0, 0.0, 0.0, 0.0, 0.0, 0.0, 0.0, 0.0, 0.0, 0.0, 0.0, 0.0], [0.0, 0.0, 0.0, 0.0, 0.0, 0.0, 0.0, 0.0, 0.0, 0.0, 0.0, 0.0, 0.0, 0.0, 0.0, 0.0]], "vWeights": [[0.0, 0.0, 0.0, 0.0, 0.0, 0.0, 0.0, 0.0, 0.0, 0.0, 0.0, 0.0, 0.0, 0.0, 0.0, 0.0], [0.0, 0.0, 0.0, 0.0, 0.0, 0.0, 0.0, 0.0, 0.0, 0.0, 0.0, 0.0, 0.0, 0.0, 0.0, 0.0], [0.0, 0.0, 0.0, 0.0, 0.0, 0.0, 0.0, 0.0, 0.0, 0.0, 0.0, 0.0, 0.0, 0.0, 0.0, 0.0], [0.0, 0.0, 0.0, 0.0, 0.0, 0.0, 0.0, 0.0, 0.0, 0.0, 0.0, 0.0, 0.0, 0.0, 0.0, 0.0], [0.0, 0.0, 0.0, 0.0, 0.0, 0.0, 0.0, 0.0, 0.0, 0.0, 0.0, 0.0, 0.0, 0.0, 0.0, 0.0], [0.0, 0.0, 0.0, 0.0, 0.0, 0.0, 0.0, 0.0, 0.0, 0.0, 0.0, 0.0, 0.0, 0.0, 0.0, 0.0], [0.0, 0.0, 0.0, 0.0, 0.0, 0.0, 0.0, 0.0, 0.0, 0.0, 0.0, 0.0, 0.0, 0.0, 0.0, 0.0], [0.0, 0.0, 0.0, 0.0, 0.0, 0.0, 0.0, 0.0, 0.0, 0.0, 0.0, 0.0, 0.0, 0.0, 0.0, 0.0], [0.0, 0.0, 0.0, 0.0, 0.0, 0.0, 0.0, 0.0, 0.0, 0.0, 0.0, 0.0, 0.0, 0.0, 0.0, 0.0], [0.0, 0.0, 0.0, 0.0, 0.0, 0.0, 0.0, 0.0, 0.0, 0.0, 0.0, 0.0, 0.0, 0.0, 0.0, 0.0], [0.0, 0.0, 0.0, 0.0, 0.0, 0.0, 0.0, 0.0, 0.0, 0.0, 0.0, 0.0, 0.0, 0.0, 0.0, 0.0], [0.0, 0.0, 0.0, 0.0, 0.0, 0.0, 0.0, 0.0, 0.0, 0.0, 0.0, 0.0, 0.0, 0.0, 0.0, 0.0], [0.0, 0.0, 0.0, 0.0, 0.0, 0.0, 0.0, 0.0, 0.0, 0.0, 0.0, 0.0, 0.0, 0.0, 0.0, 0.0], [0.0, 0.0, 0.0, 0.0, 0.0, 0.0, 0.0, 0.0, 0.0, 0.0, 0.0, 0.0, 0.0, 0.0, 0.0, 0.0], [0.0, 0.0, 0.0, 0.0, 0.0, 0.0, 0.0, 0.0, 0.0, 0.0, 0.0, 0.0, 0.0, 0.0, 0.0, 0.0], [0.0, 0.0, 0.0, 0.0, 0.0, 0.0, 0.0, 0.0, 0.0, 0.0, 0.0, 0.0, 0.0, 0.0, 0.0, 0.0], [0.0, 0.0, 0.0, 0.0, 0.0, 0.0, 0.0, 0.0, 0.0, 0.0, 0.0, 0.0, 0.0, 0.0, 0.0, 0.0], [0.0, 0.0, 0.0, 0.0, 0.0, 0.0, 0.0, 0.0, 0.0, 0.0, 0.0, 0.0, 0.0, 0.0, 0.0, 0.0], [0.0, 0.0, 0.0, 0.0, 0.0, 0.0, 0.0, 0.0, 0.0, 0.0, 0.0, 0.0, 0.0, 0.0, 0.0, 0.0], [0.0, 0.0, 0.0, 0.0, 0.0, 0.0, 0.0, 0.0, 0.0, 0.0, 0.0, 0.0, 0.0, 0.0, 0.0, 0.0], [0.0, 0.0, 0.0, 0.0, 0.0, 0.0, 0.0, 0.0, 0.0, 0.0, 0.0, 0.0, 0.0, 0.0, 0.0, 0.0], [0.0, 0.0, 0.0, 0.0, 0.0, 0.0, 0.0, 0.0, 0.0, 0.0, 0.0, 0.0, 0.0, 0.0, 0.0, 0.0], [0.0, 0.0, 0.0, 0.0, 0.0, 0.0, 0.0, 0.0, 0.0, 0.0, 0.0, 0.0, 0.0, 0.0, 0.0, 0.0], [0.0, 0.0, 0.0, 0.0, 0.0, 0.0, 0.0, 0.0, 0.0, 0.0, 0.0, 0.0, 0.0, 0.0, 0.0, 0.0], [0.0, 0.0, 0.0, 0.0, 0.0, 0.0, 0.0, 0.0, 0.0, 0.0, 0.0, 0.0, 0.0, 0.0, 0.0, 0.0], [0.0, 0.0, 0.0, 0.0, 0.0, 0.0, 0.0, 0.0, 0.0, 0.0, 0.0, 0.0, 0.0, 0.0, 0.0, 0.0], [0.0, 0.0, 0.0, 0.0, 0.0, 0.0, 0.0, 0.0, 0.0, 0.0, 0.0, 0.0, 0.0, 0.0, 0.0, 0.0], [0.0, 0.0, 0.0, 0.0, 0.0, 0.0, 0.0, 0.0, 0.0, 0.0, 0.0, 0.0, 0.0, 0.0, 0.0, 0.0], [0.0, 0.0, 0.0, 0.0, 0.0, 0.0, 0.0, 0.0, 0.0, 0.0, 0.0, 0.0, 0.0, 0.0, 0.0, 0.0], [0.0, 0.0, 0.0, 0.0, 0.0, 0.0, 0.0, 0.0, 0.0, 0.0, 0.0, 0.0, 0.0, 0.0, 0.0, 0.0], [0.0, 0.0, 0.0, 0.0, 0.0, 0.0, 0.0, 0.0, 0.0, 0.0, 0.0, 0.0, 0.0, 0.0, 0.0, 0.0], [0.0, 0.0, 0.0, 0.0, 0.0, 0.0, 0.0, 0.0, 0.0, 0.0, 0.0, 0.0, 0.0, 0.0, 0.0, 0.0], [0.0, 0.0, 0.0, 0.0, 0.0, 0.0, 0.0, 0.0, 0.0, 0.0, 0.0, 0.0, 0.0, 0.0, 0.0, 0.0], [0.0, 0.0, 0.0, 0.0, 0.0, 0.0, 0.0, 0.0, 0.0, 0.0, 0.0, 0.0, 0.0, 0.0, 0.0, 0.0], [0.0, 0.0, 0.0, 0.0, 0.0, 0.0, 0.0, 0.0, 0.0, 0.0, 0.0, 0.0, 0.0, 0.0, 0.0, 0.0], [0.0, 0.0, 0.0, 0.0, 0.0, 0.0, 0.0, 0.0, 0.0, 0.0, 0.0, 0.0, 0.0, 0.0, 0.0, 0.0], [0.0, 0.0, 0.0, 0.0, 0.0, 0.0, 0.0, 0.0, 0.0, 0.0, 0.0, 0.0, 0.0, 0.0, 0.0, 0.0], [0.0, 0.0, 0.0, 0.0, 0.0, 0.0, 0.0, 0.0, 0.0, 0.0, 0.0, 0.0, 0.0, 0.0, 0.0, 0.0], [0.0, 0.0, 0.0, 0.0, 0.0, 0.0, 0.0, 0.0, 0.0, 0.0, 0.0, 0.0, 0.0, 0.0, 0.0, 0.0], [0.0, 0.0, 0.0, 0.0, 0.0, 0.0, 0.0, 0.0, 0.0, 0.0, 0.0, 0.0, 0.0, 0.0, 0.0, 0.0], [0.0, 0.0, 0.0, 0.0, 0.0, 0.0, 0.0, 0.0, 0.0, 0.0, 0.0, 0.0, 0.0, 0.0, 0.0, 0.0], [0.0, 0.0, 0.0, 0.0, 0.0, 0.0, 0.0, 0.0, 0.0, 0.0, 0.0, 0.0, 0.0, 0.0, 0.0, 0.0], [0.0, 0.0, 0.0, 0.0, 0.0, 0.0, 0.0, 0.0, 0.0, 0.0, 0.0, 0.0, 0.0, 0.0, 0.0, 0.0], [0.0, 0.0, 0.0, 0.0, 0.0, 0.0, 0.0, 0.0, 0.0, 0.0, 0.0, 0.0, 0.0, 0.0, 0.0, 0.0], [0.0, 0.0, 0.0, 0.0, 0.0, 0.0, 0.0, 0.0, 0.0, 0.0, 0.0, 0.0, 0.0, 0.0, 0.0, 0.0], [0.0, 0.0, 0.0, 0.0, 0.0, 0.0, 0.0, 0.0, 0.0, 0.0, 0.0, 0.0, 0.0, 0.0, 0.0, 0.0], [0.0, 0.0, 0.0, 0.0, 0.0, 0.0, 0.0, 0.0, 0.0, 0.0, 0.0, 0.0, 0.0, 0.0, 0.0, 0.0], [0.0, 0.0, 0.0, 0.0, 0.0, 0.0, 0.0, 0.0, 0.0, 0.0, 0.0, 0.0, 0.0, 0.0, 0.0, 0.0], [0.0, 0.0, 0.0, 0.0, 0.0, 0.0, 0.0, 0.0, 0.0, 0.0, 0.0, 0.0, 0.0, 0.0, 0.0, 0.0], [0.0, 0.0, 0.0, 0.0, 0.0, 0.0, 0.0, 0.0, 0.0, 0.0, 0.0, 0.0, 0.0, 0.0, 0.0, 0.0], [0.0, 0.0, 0.0, 0.0, 0.0, 0.0, 0.0, 0.0, 0.0, 0.0, 0.0, 0.0, 0.0, 0.0, 0.0, 0.0], [0.0, 0.0, 0.0, 0.0, 0.0, 0.0, 0.0, 0.0, 0.0, 0.0, 0.0, 0.0, 0.0, 0.0, 0.0, 0.0], [0.0, 0.0, 0.0, 0.0, 0.0, 0.0, 0.0, 0.0, 0.0, 0.0, 0.0, 0.0, 0.0, 0.0, 0.0, 0.0], [0.0, 0.0, 0.0, 0.0, 0.0, 0.0, 0.0, 0.0, 0.0, 0.0, 0.0, 0.0, 0.0, 0.0, 0.0, 0.0], [0.0, 0.0, 0.0, 0.0, 0.0, 0.0, 0.0, 0.0, 0.0, 0.0, 0.0, 0.0, 0.0, 0.0, 0.0, 0.0], [0.0, 0.0, 0.0, 0.0, 0.0, 0.0, 0.0, 0.0, 0.0, 0.0, 0.0, 0.0, 0.0, 0.0, 0.0, 0.0], [0.0, 0.0, 0.0, 0.0, 0.0, 0.0, 0.0, 0.0, 0.0, 0.0, 0.0, 0.0, 0.0, 0.0, 0.0, 0.0], [0.0, 0.0, 0.0, 0.0, 0.0, 0.0, 0.0, 0.0, 0.0, 0.0, 0.0, 0.0, 0.0, 0.0, 0.0, 0.0], [0.0, 0.0, 0.0, 0.0, 0.0, 0.0, 0.0, 0.0, 0.0, 0.0, 0.0, 0.0, 0.0, 0.0, 0.0, 0.0], [0.0, 0.0, 0.0, 0.0, 0.0, 0.0, 0.0, 0.0, 0.0, 0.0, 0.0, 0.0, 0.0, 0.0, 0.0, 0.0], [0.0, 0.0, 0.0, 0.0, 0.0, 0.0, 0.0, 0.0, 0.0, 0.0, 0.0, 0.0, 0.0, 0.0, 0.0, 0.0], [0.0, 0.0, 0.0, 0.0, 0.0, 0.0, 0.0, 0.0, 0.0, 0.0, 0.0, 0.0, 0.0, 0.0, 0.0, 0.0], [0.0, 0.0, 0.0, 0.0, 0.0, 0.0, 0.0, 0.0, 0.0, 0.0, 0.0, 0.0, 0.0, 0.0, 0.0, 0.0], [0.0, 0.0, 0.0, 0.0, 0.0, 0.0, 0.0, 0.0, 0.0, 0.0, 0.0, 0.0, 0.0, 0.0, 0.0, 0.0], [0.0, 0.0, 0.0, 0.0, 0.0, 0.0, 0.0, 0.0, 0.0, 0.0, 0.0, 0.0, 0.0, 0.0, 0.0, 0.0], [0.0, 0.0, 0.0, 0.0, 0.0, 0.0, 0.0, 0.0, 0.0, 0.0, 0.0, 0.0, 0.0, 0.0, 0.0, 0.0], [0.0, 0.0, 0.0, 0.0, 0.0, 0.0, 0.0, 0.0, 0.0, 0.0, 0.0, 0.0, 0.0, 0.0, 0.0, 0.0], [0.0, 0.0, 0.0, 0.0, 0.0, 0.0, 0.0, 0.0, 0.0, 0.0, 0.0, 0.0, 0.0, 0.0, 0.0, 0.0], [0.0, 0.0, 0.0, 0.0, 0.0, 0.0, 0.0, 0.0, 0.0, 0.0, 0.0, 0.0, 0.0, 0.0, 0.0, 0.0], [0.0, 0.0, 0.0, 0.0, 0.0, 0.0, 0.0, 0.0, 0.0, 0.0, 0.0, 0.0, 0.0, 0.0, 0.0, 0.0], [0.0, 0.0, 0.0, 0.0, 0.0, 0.0, 0.0, 0.0, 0.0, 0.0, 0.0, 0.0, 0.0, 0.0, 0.0, 0.0], [0.0, 0.0, 0.0, 0.0, 0.0, 0.0, 0.0, 0.0, 0.0, 0.0, 0.0, 0.0, 0.0, 0.0, 0.0, 0.0], [0.0, 0.0, 0.0, 0.0, 0.0, 0.0, 0.0, 0.0, 0.0, 0.0, 0.0, 0.0, 0.0, 0.0, 0.0, 0.0], [0.0, 0.0, 0.0, 0.0, 0.0, 0.0, 0.0, 0.0, 0.0, 0.0, 0.0, 0.0, 0.0, 0.0, 0.0, 0.0], [0.0, 0.0, 0.0, 0.0, 0.0, 0.0, 0.0, 0.0, 0.0, 0.0, 0.0, 0.0, 0.0, 0.0, 0.0, 0.0], [0.0, 0.0, 0.0, 0.0, 0.0, 0.0, 0.0, 0.0, 0.0, 0.0, 0.0, 0.0, 0.0, 0.0, 0.0, 0.0], [0.0, 0.0, 0.0, 0.0, 0.0, 0.0, 0.0, 0.0, 0.0, 0.0, 0.0, 0.0, 0.0, 0.0, 0.0, 0.0], [0.0, 0.0, 0.0, 0.0, 0.0, 0.0, 0.0, 0.0, 0.0, 0.0, 0.0, 0.0, 0.0, 0.0, 0.0, 0.0], [0.0, 0.0, 0.0, 0.0, 0.0, 0.0, 0.0, 0.0, 0.0, 0.0, 0.0, 0.0, 0.0, 0.0, 0.0, 0.0], [0.0, 0.0, 0.0, 0.0, 0.0, 0.0, 0.0, 0.0, 0.0, 0.0, 0.0, 0.0, 0.0, 0.0, 0.0, 0.0], [0.0, 0.0, 0.0, 0.0, 0.0, 0.0, 0.0, 0.0, 0.0, 0.0, 0.0, 0.0, 0.0, 0.0, 0.0, 0.0], [0.0, 0.0, 0.0, 0.0, 0.0, 0.0, 0.0, 0.0, 0.0, 0.0, 0.0, 0.0, 0.0, 0.0, 0.0, 0.0], [0.0, 0.0, 0.0, 0.0, 0.0, 0.0, 0.0, 0.0, 0.0, 0.0, 0.0, 0.0, 0.0, 0.0, 0.0, 0.0], [0.0, 0.0, 0.0, 0.0, 0.0, 0.0, 0.0, 0.0, 0.0, 0.0, 0.0, 0.0, 0.0, 0.0, 0.0, 0.0], [0.0, 0.0, 0.0, 0.0, 0.0, 0.0, 0.0, 0.0, 0.0, 0.0, 0.0, 0.0, 0.0, 0.0, 0.0, 0.0], [0.0, 0.0, 0.0, 0.0, 0.0, 0.0, 0.0, 0.0, 0.0, 0.0, 0.0, 0.0, 0.0, 0.0, 0.0, 0.0], [0.0, 0.0, 0.0, 0.0, 0.0, 0.0, 0.0, 0.0, 0.0, 0.0, 0.0, 0.0, 0.0, 0.0, 0.0, 0.0], [0.0, 0.0, 0.0, 0.0, 0.0, 0.0, 0.0, 0.0, 0.0, 0.0, 0.0, 0.0, 0.0, 0.0, 0.0, 0.0], [0.0, 0.0, 0.0, 0.0, 0.0, 0.0, 0.0, 0.0, 0.0, 0.0, 0.0, 0.0, 0.0, 0.0, 0.0, 0.0], [0.0, 0.0, 0.0, 0.0, 0.0, 0.0, 0.0, 0.0, 0.0, 0.0, 0.0, 0.0, 0.0, 0.0, 0.0, 0.0], [0.0, 0.0, 0.0, 0.0, 0.0, 0.0, 0.0, 0.0, 0.0, 0.0, 0.0, 0.0, 0.0, 0.0, 0.0, 0.0], [0.0, 0.0, 0.0, 0.0, 0.0, 0.0, 0.0, 0.0, 0.0, 0.0, 0.0, 0.0, 0.0, 0.0, 0.0, 0.0], [0.0, 0.0, 0.0, 0.0, 0.0, 0.0, 0.0, 0.0, 0.0, 0.0, 0.0, 0.0, 0.0, 0.0, 0.0, 0.0], [0.0, 0.0, 0.0, 0.0, 0.0, 0.0, 0.0, 0.0, 0.0, 0.0, 0.0, 0.0, 0.0, 0.0, 0.0, 0.0], [0.0, 0.0, 0.0, 0.0, 0.0, 0.0, 0.0, 0.0, 0.0, 0.0, 0.0, 0.0, 0.0, 0.0, 0.0, 0.0], [0.0, 0.0, 0.0, 0.0, 0.0, 0.0, 0.0, 0.0, 0.0, 0.0, 0.0, 0.0, 0.0, 0.0, 0.0, 0.0], [0.0, 0.0, 0.0, 0.0, 0.0, 0.0, 0.0, 0.0, 0.0, 0.0, 0.0, 0.0, 0.0, 0.0, 0.0, 0.0], [0.0, 0.0, 0.0, 0.0, 0.0, 0.0, 0.0, 0.0, 0.0, 0.0, 0.0, 0.0, 0.0, 0.0, 0.0, 0.0], [0.0, 0.0, 0.0, 0.0, 0.0, 0.0, 0.0, 0.0, 0.0, 0.0, 0.0, 0.0, 0.0, 0.0, 0.0, 0.0], [0.0, 0.0, 0.0, 0.0, 0.0, 0.0, 0.0, 0.0, 0.0, 0.0, 0.0, 0.0, 0.0, 0.0, 0.0, 0.0], [0.0, 0.0, 0.0, 0.0, 0.0, 0.0, 0.0, 0.0, 0.0, 0.0, 0.0, 0.0, 0.0, 0.0, 0.0, 0.0], [0.0, 0.0, 0.0, 0.0, 0.0, 0.0, 0.0, 0.0, 0.0, 0.0, 0.0, 0.0, 0.0, 0.0, 0.0, 0.0], [0.0, 0.0, 0.0, 0.0, 0.0, 0.0, 0.0, 0.0, 0.0, 0.0, 0.0, 0.0, 0.0, 0.0, 0.0, 0.0], [0.0, 0.0, 0.0, 0.0, 0.0, 0.0, 0.0, 0.0, 0.0, 0.0, 0.0, 0.0, 0.0, 0.0, 0.0, 0.0], [0.0, 0.0, 0.0, 0.0, 0.0, 0.0, 0.0, 0.0, 0.0, 0.0, 0.0, 0.0, 0.0, 0.0, 0.0, 0.0], [0.0, 0.0, 0.0, 0.0, 0.0, 0.0, 0.0, 0.0, 0.0, 0.0, 0.0, 0.0, 0.0, 0.0, 0.0, 0.0], [0.0, 0.0, 0.0, 0.0, 0.0, 0.0, 0.0, 0.0, 0.0, 0.0, 0.0, 0.0, 0.0, 0.0, 0.0, 0.0], [0.0, 0.0, 0.0, 0.0, 0.0, 0.0, 0.0, 0.0, 0.0, 0.0, 0.0, 0.0, 0.0, 0.0, 0.0, 0.0], [0.0, 0.0, 0.0, 0.0, 0.0, 0.0, 0.0, 0.0, 0.0, 0.0, 0.0, 0.0, 0.0, 0.0, 0.0, 0.0], [0.0, 0.0, 0.0, 0.0, 0.0, 0.0, 0.0, 0.0, 0.0, 0.0, 0.0, 0.0, 0.0, 0.0, 0.0, 0.0], [0.0, 0.0, 0.0, 0.0, 0.0, 0.0, 0.0, 0.0, 0.0, 0.0, 0.0, 0.0, 0.0, 0.0, 0.0, 0.0], [0.0, 0.0, 0.0, 0.0, 0.0, 0.0, 0.0, 0.0, 0.0, 0.0, 0.0, 0.0, 0.0, 0.0, 0.0, 0.0], [0.0, 0.0, 0.0, 0.0, 0.0, 0.0, 0.0, 0.0, 0.0, 0.0, 0.0, 0.0, 0.0, 0.0, 0.0, 0.0], [0.0, 0.0, 0.0, 0.0, 0.0, 0.0, 0.0, 0.0, 0.0, 0.0, 0.0, 0.0, 0.0, 0.0, 0.0, 0.0], [0.0, 0.0, 0.0, 0.0, 0.0, 0.0, 0.0, 0.0, 0.0, 0.0, 0.0, 0.0, 0.0, 0.0, 0.0, 0.0], [0.0, 0.0, 0.0, 0.0, 0.0, 0.0, 0.0, 0.0, 0.0, 0.0, 0.0, 0.0, 0.0, 0.0, 0.0, 0.0], [0.0, 0.0, 0.0, 0.0, 0.0, 0.0, 0.0, 0.0, 0.0, 0.0, 0.0, 0.0, 0.0, 0.0, 0.0, 0.0], [0.0, 0.0, 0.0, 0.0, 0.0, 0.0, 0.0, 0.0, 0.0, 0.0, 0.0, 0.0, 0.0, 0.0, 0.0, 0.0], [0.0, 0.0, 0.0, 0.0, 0.0, 0.0, 0.0, 0.0, 0.0, 0.0, 0.0, 0.0, 0.0, 0.0, 0.0, 0.0], [0.0, 0.0, 0.0, 0.0, 0.0, 0.0, 0.0, 0.0, 0.0, 0.0, 0.0, 0.0, 0.0, 0.0, 0.0, 0.0], [0.0, 0.0, 0.0, 0.0, 0.0, 0.0, 0.0, 0.0, 0.0, 0.0, 0.0, 0.0, 0.0, 0.0, 0.0, 0.0], [0.0, 0.0, 0.0, 0.0, 0.0, 0.0, 0.0, 0.0, 0.0, 0.0, 0.0, 0.0, 0.0, 0.0, 0.0, 0.0]], "mBiases": [[0.0, 0.0, 0.0, 0.0, 0.0, 0.0, 0.0, 0.0, 0.0, 0.0, 0.0, 0.0, 0.0, 0.0, 0.0, 0.0]], "vBiases": [[0.0, 0.0, 0.0, 0.0, 0.0, 0.0, 0.0, 0.0, 0.0, 0.0, 0.0, 0.0, 0.0, 0.0, 0.0, 0.0]], "beta1": 0.9, "beta2": 0.999, "epsilon": 1e-08}, {"inputSize": 16, "outputSize": 4, "activation": "softmax", "weights": [[0.009990952217606564, -0.48338360607614106, 0.4956593922379179, 0.19963926000111315], [-0.09739169789122912, -0.06909543716149394, -0.06635410746702465, 0.011474732398954971], [-0.42993559954074356, -0.028045482118377044, -0.7271252174050542, -0.44118766726407005], [0.1648693446874501, 0.43865417934912937, -0.19461443617616542, 0.46963350498942175], [-0.16093784641938738, -0.27726864464726336, 0.2321366869790723, 0.000141499512832466], [0.26362229227446127, 0.20820723627613347, 0.05343486047684424, 0.4383599754206669], [0.16830443216308894, 0.12568455189564331, -0.8590860788053779, -0.3685919042555685], [-0.3942536528388816, -0.3023863593437099, -0.3179468354237803, 0.37275375325713395], [-0.16907377118379302, 0.021965152105441747, -0.5188373013065963, 0.3238561975222279], [-0.30501057159900297, -0.071614489657678, 0.1630681181858899, -0.6222616082052135], [0.0109101206978236, -0.1933743547096783, -0.22777303243604938, 0.09042778770297981], [0.13355147390275154, 0.060370362913318036, 0.2419672139172337, 0.4637705471591899], [0.3543707441214761, -0.11518002002876335, 0.06420811662295503, -0.03616774796748441], [0.0679002380285041, 0.10438515954871445, 1.2373866556180255, 0.3652804758461429], [0.05161986457068475, 0.17741683903441904, 0.17693935014012208, -0.29855082546529027], [0.038594938645236505, 0.35023160199832715, -0.3640190406396252, 0.3722635254195666]], "bias": [[-0.02789679146959007, -0.10234590117484954, -0.01874738127460047, -0.048080892548663004]], "mWeights": [[0.0, 0.0, 0.0, 0.0], [0.0, 0.0, 0.0, 0.0], [0.0, 0.0, 0.0, 0.0], [0.0, 0.0, 0.0, 0.0], [0.0, 0.0, 0.0, 0.0], [0.0, 0.0, 0.0, 0.0], [0.0, 0.0, 0.0, 0.0], [0.0, 0.0, 0.0, 0.0], [0.0, 0.0, 0.0, 0.0], [0.0, 0.0, 0.0, 0.0], [0.0, 0.0, 0.0, 0.0], [0.0, 0.0, 0.0, 0.0], [0.0, 0.0, 0.0, 0.0], [0.0, 0.0, 0.0, 0.0], [0.0, 0.0, 0.0, 0.0], [0.0, 0.0, 0.0, 0.0]], "vWeights": [[0.0, 0.0, 0.0, 0.0], [0.0, 0.0, 0.0, 0.0], [0.0, 0.0, 0.0, 0.0], [0.0, 0.0, 0.0, 0.0], [0.0, 0.0, 0.0, 0.0], [0.0, 0.0, 0.0, 0.0], [0.0, 0.0, 0.0, 0.0], [0.0, 0.0, 0.0, 0.0], [0.0, 0.0, 0.0, 0.0], [0.0, 0.0, 0.0, 0.0], [0.0, 0.0, 0.0, 0.0], [0.0, 0.0, 0.0, 0.0], [0.0, 0.0, 0.0, 0.0], [0.0, 0.0, 0.0, 0.0], [0.0, 0.0, 0.0, 0.0], [0.0, 0.0, 0.0, 0.0]], "mBiases": [[0.0, 0.0, 0.0, 0.0]], "vBiases": [[0.0, 0.0, 0.0, 0.0]], "beta1": 0.9, "beta2": 0.999, "epsilon": 1e-08}], "name": "snake", "accuracy": 0}